-0.0775117844112125,-0.058170674436992066,-0.08820746109858649
-3.39171296839,-2.5537363793,2.63670670923
-5.2205606233,-3.91339693256,4.51479262923
-6.64302414284,-5.05994584433,5.54445562121
-7.61108241556,-5.83346050483,6.56546833604
-8.41937208652,-6.4852454876,7.33334186906
-9.16644722804,-7.13327764241,7.80216601165
-9.67221397894,-7.54247573021,8.5153752911
-10.2866838294,-8.10403432006,8.74525895842
-10.7238617465,-8.47631001153,9.18608127444
-11.0801128308,-8.74722840545,9.69651924172
-11.3926244363,-9.00317243591,10.1646804116
-11.7929332417,-9.3557315387,10.3502530102
-12.12244826,-9.6310338787,10.6286096604
-12.4592199498,-9.93379396989,10.7961046987
-12.7325147988,-10.1886940902,11.0188559471
-13.0403810097,-10.4465657747,11.1689835001
-13.1262078796,-10.4955780075,11.6894011836
-13.4141515948,-10.7795216828,11.724082929
-13.5354953299,-10.8699338097,12.0831563432
-13.8128789242,-11.1298500336,12.0874915514
-13.8857373249,-11.1593663235,12.5055774208
-14.2776774713,-11.5246387365,12.2482288581
-14.5051272142,-11.7369899908,12.284931694
-14.4979283783,-11.7069523116,12.7645177314
-14.6055107023,-11.7929266593,12.9945868119
-14.769320785,-11.9442092959,13.077726071
-14.8502805721,-12.0370944865,13.2936068862
-15.0195745447,-12.2021686969,13.31192414
-15.245743179,-12.4283895362,13.2036770686
-15.2440721502,-12.4214444536,13.5557726612
-15.3031994962,-12.4580991847,13.7742051034
-15.5863315209,-12.7338260401,13.5341384293
-15.5018696513,-12.6654871418,14.00272285
-15.5864493332,-12.7221644776,14.14753153
-15.8539664117,-12.9896360843,13.8843736541
-15.9419053863,-13.0606216736,13.9863149298
-16.0511561036,-13.1519536419,14.0438089104
-16.0102232302,-13.1004711146,14.3866261246
-16.2199769079,-13.3257344611,14.1878715738
-16.1909333105,-13.2761940824,14.4889469562
-16.2962045592,-13.3774883875,14.4965816904
-16.3688140389,-13.4562830561,14.5725204288
-16.5224821166,-13.6168180299,14.4775200297
-16.4871672025,-13.5672063122,14.7452863031
-16.5397820399,-13.6059850467,14.8431783313
-16.6909912434,-13.7287011991,14.7674182108
-16.7660304364,-13.8141609309,14.7823889574
-16.8044650566,-13.8449303581,14.8889499887
-16.9252497526,-13.96308094,14.8139454903
-16.8543312491,-13.8667202019,15.1499154132
-17.107215291,-14.1065693126,14.8027565896
-17.0181141895,-13.9878770743,15.1643290289
-17.1737187704,-14.1376548251,15.0077487458
-17.0435405746,-13.9714875829,15.4567074527
-17.1710987786,-14.1131793512,15.3264631069
-17.1301338351,-14.0767269619,15.5543745339
-17.227379726,-14.1817995657,15.4770367861
-17.3925282812,-14.3562301331,15.2573772311
-17.2617779404,-14.2192350718,15.6579859547
-17.3303150553,-14.2940524871,15.6298682638
-17.4880483567,-14.4432442197,15.4378992602
-17.582281013,-14.5242805392,15.3756428028
-17.6188911877,-14.5454774896,15.4267176182
-17.6026375802,-14.5157354969,15.5728816782
-17.6374752976,-14.5310444075,15.621669247
-17.7336495142,-14.6144346551,15.5400592829
-17.7034794789,-14.582487095,15.6933014388
-17.7136863657,-14.5813319797,15.7893814817
-17.734887601,-14.5998214412,15.8427460248
-17.6810991491,-14.5487734792,16.0374786209
-17.9512121331,-14.8053173149,15.5979851413
-17.7667555222,-14.6089430281,16.0680584841
-17.9464488891,-14.8187641761,15.7664787348
-17.9117473538,-14.7638740387,15.9419483085
-17.953305877,-14.8052722974,15.9353453319
-18.0324530517,-14.893520867,15.8422760006
-18.0259535519,-14.8746423068,15.9340449846
-17.9162747978,-14.754597016,16.2373547575
-18.0280344394,-14.8766648097,16.0615449908
-18.0342832312,-14.869144871,16.128500056
-18.0131723816,-14.8217434216,16.2640444407
-18.1027779708,-14.9108341298,16.1488411587
-18.1493901235,-14.9633133393,16.117521883
-18.2388740318,-15.0672204575,15.9808440196
-18.1507732236,-14.9559938784,16.2419461733
-18.2433784943,-15.0560378483,16.1243038972
-18.2618129967,-15.0940007747,16.1306605484
-18.2077663176,-15.035072542,16.2947947189
-18.2318742935,-15.0503228466,16.3157541789
-18.2272795499,-15.0424754163,16.3741957203
-18.3293114294,-15.1742059804,16.2066900144
-18.3258894745,-15.1461535664,16.2820482907
-18.2545112271,-15.0820319143,16.471583621
-18.3533375853,-15.1765588896,16.3169188838
-18.3821144381,-15.2176532009,16.2918868968
-18.3084198879,-15.1578435017,16.4665540726
-18.3342290377,-15.1745294197,16.4633648513
-18.2903432628,-15.1087936081,16.6157092673
-18.3600882363,-15.1760640177,16.5256873946
-18.4318191426,-15.2663241397,16.4120849386
-18.5414143038,-15.3780228005,16.2191147866
-18.4441563853,-15.2556472062,16.4705048962
-18.4492745155,-15.2440414892,16.5154649643
-18.4478097286,-15.2143318498,16.5812356032
-18.5322201903,-15.2997300028,16.4466930253
-18.4336558754,-15.2201258526,16.6699028613
-18.5651639487,-15.3642653321,16.4531648927
-18.5168313811,-15.3030328242,16.6005975465
-18.6847599274,-15.4654471707,16.3114434288
-18.5466654547,-15.2916954649,16.6614762751
-18.6714939346,-15.421353255,16.4358366918
-18.572156729,-15.3151208596,16.6757988719
-18.617798041,-15.3544260891,16.6199080066
-18.5548619512,-15.2953715487,16.7799599564
-18.7531770077,-15.4925970767,16.4193923783
-18.5668957622,-15.3065622941,16.8223627621
-18.6003895365,-15.3415455512,16.777801588
-18.7118248423,-15.4760049583,16.5530156429
-18.6894749589,-15.4377145084,16.6338056691
-18.5735340353,-15.3019708376,16.9103302049
-18.79321598,-15.5363996543,16.477326032
-18.7785767752,-15.5036264028,16.5415911163
-18.6124621836,-15.343867378,16.898524991
-18.7547826335,-15.5009530674,16.6223721809
-18.8191997002,-15.5720111452,16.5054694946
-18.7419556728,-15.4750391663,16.7047859437
-18.7730141257,-15.4743192986,16.7039562244
-18.7506631448,-15.4574210617,16.7570428802
-18.7623234908,-15.4756202091,16.7439328032
-18.8576573418,-15.5886679101,16.5543685515
-18.7415787949,-15.4655332372,16.8072753283
-18.8125490989,-15.5468055554,16.6914009714
-18.8834702622,-15.6256874443,16.560383208
-18.8198047423,-15.5638159053,16.7049020261
-18.9373332326,-15.6654776336,16.4961184855
-18.7632848691,-15.4847364653,16.8682202307
-18.76942806,-15.4911279955,16.8665327338
-18.6937975022,-15.3961257841,17.0405960921
-18.7847906474,-15.4968588872,16.8640569953
-18.8922561115,-15.6287195821,16.6384643611
-18.7829592463,-15.5038540603,16.8891795978
-18.76086287,-15.4773551377,16.9535136518
-18.9332233736,-15.662652191,16.6102777893
-18.7044115429,-15.4322326175,17.088128139
-18.7555599366,-15.4859476718,16.9885113142
-18.7625070435,-15.4816222149,17.0039979119
-18.753778154,-15.4622876809,17.0383117333
-18.8642997028,-15.5618412607,16.8609846854
-18.9012096626,-15.6015058292,16.8004228013
-18.8879911191,-15.5870094453,16.8471396852
-18.7550600851,-15.4695595408,17.1134523348
-18.8494357755,-15.5658031198,16.9327800832
-18.9244944572,-15.6568590467,16.7683266187
-18.9232406649,-15.6472753454,16.7821590879
-18.755179335,-15.4814318705,17.1306747374
-19.0206860298,-15.7362062667,16.6209897008
-18.9891769086,-15.7056025084,16.702033026
-19.0041140933,-15.7239528015,16.6731291806
-18.9147625927,-15.6341689832,16.8607537314
-18.8560464693,-15.5714613248,16.9863444922
-18.9491236971,-15.6775832492,16.7991206814
-18.889174575,-15.6225301688,16.9199642209
-18.9357075123,-15.6557709627,16.8450885041
-18.9761071172,-15.7135891332,16.7482406983
-18.8636241854,-15.615108741,16.9701580407
-18.8710839718,-15.6088122864,16.9679620329
-18.7850693524,-15.5166808625,17.1538315976
-18.9511330702,-15.6979287281,16.8193233237
-18.9086978769,-15.657186721,16.9103787583
-18.8891825548,-15.6510770879,16.9422494706
-18.8192430532,-15.5500880619,17.1108275902
-18.7769651469,-15.4988039671,17.2117164746
-18.8577489236,-15.5867125268,17.0583129608
-18.9761314115,-15.721901687,16.8248583076
-18.7495183695,-15.4729847735,17.3124873252
-18.9542715641,-15.7058129567,16.8835286642
-18.9846413659,-15.7329548986,16.83358581
-18.8199610014,-15.5504405392,17.1863797853
-18.8926043112,-15.6261864473,17.0416247588
-19.0306590632,-15.7697649702,16.7676954753
-19.0807176994,-15.8126986611,16.6783481398
-18.8610084591,-15.5790362583,17.1457039551
-19.0021756684,-15.685339859,16.9062220032
-19.0746043031,-15.7772942955,16.7457322954
-18.9999094738,-15.7301540568,16.880281785
-18.8932146365,-15.6203134804,17.102517122
-18.9834212793,-15.7307041825,16.910857829
-19.0102756686,-15.7500710457,16.8693026805
-19.0537675669,-15.779096171,16.8084250629
-18.9367682689,-15.668567382,17.0431717472
-19.0556207962,-15.7982158156,16.8117656624
-18.9317133733,-15.6742180296,17.0670964531
-19.0487364732,-15.8076991348,16.8197884203
-19.0002240467,-15.7397877426,16.9389174669
-18.9570637524,-15.6960357958,17.0341457708
-19.0151903706,-15.7530291142,16.9196466659
-18.9591676972,-15.6901408151,17.0483719461
-19.0570775139,-15.7774472356,16.8631006351
-19.1642485719,-15.8924456116,16.6471382307
-19.012477413,-15.7444021041,16.95137386
-19.06689848,-15.7777603063,16.8630731424
-18.9021215725,-15.6015195885,17.2035774596
-18.9955820824,-15.7005259883,17.0227281433
-19.0384900193,-15.7537140917,16.9240948325
-18.9101607083,-15.6062770805,17.2091275382
-18.952368124,-15.6409269023,17.1303720239
-19.0427930925,-15.7381317423,16.943616339
-19.0805436427,-15.7726031798,16.8866933603
-19.1571869249,-15.869609667,16.7281915993
-18.9342871971,-15.6353919948,17.1937662508
-19.120876766,-15.8265949703,16.8125486723
-19.1179681356,-15.8251990931,16.8195896988
-19.1961576599,-15.8986917396,16.6651840245
-18.8622060401,-15.5060899014,17.4102842849
-19.1010804283,-15.7614794413,16.9275477112
-19.18645056,-15.8494207887,16.7658914447
-18.9098047535,-15.5660186545,17.3366929398
-19.0340217371,-15.6934709527,17.0803293785
-18.9743250516,-15.6375987012,17.2015783901
-19.0201602888,-15.7022306689,17.0980380321
-19.1005578055,-15.7930615277,16.9174080351
-19.0471581422,-15.7329363007,17.0243039495
-19.0077210719,-15.7004732356,17.1033787075
-19.121876158,-15.8250810825,16.8678246952
-19.1305288787,-15.8398889736,16.8503254585
-19.0326357464,-15.7143055921,17.0673423933
-18.9851851727,-15.6769861015,17.1473362249
-18.9905737911,-15.6808820402,17.1517870359
-18.8364738841,-15.5064919342,17.4848314313
-19.1137719284,-15.8064399611,16.9189546708
-18.9472576188,-15.634987536,17.2671899736
-19.0830350482,-15.7957656242,16.9754541313
-18.9585686788,-15.6682408533,17.2513352802
-19.0018552069,-15.7115182894,17.1609023426
-19.1810289864,-15.8980031772,16.7902404744
-19.0040754707,-15.7098030308,17.1632935379
-18.936052619,-15.6448078819,17.2992622104
-18.9872408007,-15.698654049,17.1888597069
-19.1296596362,-15.8579827516,16.8836611732
-19.0292889877,-15.7409130989,17.1123476711
-19.0321513811,-15.7196195765,17.1361664298
-19.1002978592,-15.8058768003,16.9769815483
-18.9582916934,-15.6362073792,17.2932544469
-19.1100709217,-15.7852545015,17.0129268465
-18.9845161032,-15.6604064098,17.2548080274
-19.1388976181,-15.8198376695,16.9391833316
-19.0641331489,-15.7500360328,17.080987074
-18.9558260886,-15.6276031354,17.3256627338
-18.8660584209,-15.5434811872,17.5027376692
-19.1740835831,-15.8793290612,16.8569627727
-19.0906450882,-15.8048730445,17.0170686081
-18.9914737912,-15.7011537465,17.2320223091
-19.1573534999,-15.8787049001,16.895302503
-19.1025948822,-15.8150538367,17.0097893848
-19.1421395137,-15.8345549216,16.9411736151
-19.130992892,-15.8167832686,16.9815533793
-19.1353817607,-15.8206582276,16.9883614469
-19.0360727972,-15.7226688053,17.1826515332
-19.1486485981,-15.8393444604,16.952293955
-19.1173435145,-15.8276623726,16.9996976126
-19.0812069258,-15.8028830448,17.0545157256
-19.0993711926,-15.8222328481,17.0101579827
-19.1858880321,-15.9202453445,16.8182108144
-19.2090682428,-15.9453387373,16.7651949974
-19.1308902883,-15.8700657964,16.9198048452
-18.9944646885,-15.7176498291,17.2101609096
-19.1684189938,-15.8964678027,16.8589556159
-19.0254139564,-15.7576534567,17.1388489243
-19.1667390345,-15.9143515936,16.8456252905
-19.1671830083,-15.9115934173,16.8483747063
-19.0401636452,-15.7688915938,17.1191663048
-19.1008940378,-15.8271632173,17.0037592567
-19.0206416777,-15.7374603083,17.1811512852
-18.9360650285,-15.6578682164,17.3496027939
-19.0302355956,-15.7337174041,17.177679137
-18.9402927623,-15.6271858178,17.3781702886
-19.0731013474,-15.7587305901,17.1078057172
-19.0434388655,-15.7329841353,17.1556148682
-19.067055988,-15.7550216616,17.113726424
-18.9320895315,-15.6196522239,17.3867321786
-19.1664453503,-15.8691431224,16.8912885216
-19.042194071,-15.7086125371,17.1679176701
-19.1232977989,-15.8170116354,16.9801513812
-19.0932524107,-15.7975908609,17.0284552837
-19.1144172017,-15.8255893692,16.9665093892
-19.1667359659,-15.8917942884,16.8480607059
-19.0254787963,-15.7549423047,17.1350196485
-19.126205516,-15.8616351759,16.9277745085
-19.1158204462,-15.8506868235,16.9428799452
-19.1151070032,-15.851272846,16.9512587207
-19.2774209484,-16.0236050583,16.6161727302
-19.1723704651,-15.9276911621,16.8153362913
-19.1635571656,-15.8914847749,16.8663247278
-18.9788743377,-15.6932021746,17.2491228624
-19.1245602904,-15.8336615848,16.957884694
-19.0228076054,-15.7284196939,17.1621320583
-19.0894642862,-15.7984945141,17.015214436
-19.1355092383,-15.8561372567,16.9200256467
-19.2006987265,-15.9117271817,16.7916084698
-18.9903709739,-15.7021810739,17.2165180797
-19.036586724,-15.7740496783,17.0988066573
-19.0954488555,-15.8345675228,16.9848566263
-18.9322629746,-15.6395123136,17.3433628871
-19.0974581638,-15.8464870684,16.972884598
-19.1047267647,-15.8476460563,16.9573429688
-19.0542289111,-15.7857970636,17.0791407356
-19.1796392726,-15.925595371,16.8079196308
-19.019603821,-15.7624793387,17.1294473883
-18.9762252259,-15.7135888597,17.2164603964
-19.0429501413,-15.7759411426,17.0776598732
-19.0120135751,-15.7414312737,17.138635736
-19.1260500763,-15.8467354404,16.9192745786
-18.9898254825,-15.7168388473,17.1921892955
-19.0221355639,-15.7482056741,17.1318341497
-19.1875347114,-15.9334752895,16.7825042255
-19.1348027498,-15.8730433949,16.8968325576
-19.099735761,-15.8318859975,16.9713030206
-18.9210859357,-15.6446217508,17.3321261063
-19.0435975203,-15.782815303,17.0655283179
-18.9289284526,-15.6523548408,17.3178587842
-19.1677444778,-15.9171926953,16.8193006071
-19.1773095533,-15.9270465589,16.7902993066
-19.1030353639,-15.8638410955,16.9306148481
-19.1752834864,-15.9388296423,16.7848390255
-19.0525938172,-15.8195116095,17.0503070128
-19.0498672823,-15.8147645655,17.0550274458
-18.967143584,-15.7326557101,17.211832978
-18.9418733698,-15.6862171901,17.2915840698
-18.9683846467,-15.7030004728,17.2482780068
-19.1043673791,-15.82949911,16.9762408633
-19.0614618577,-15.7722437953,17.0634353725
-18.9628754335,-15.6635114033,17.2706290496
-18.9487266573,-15.6343276136,17.3209295291
-19.0781489165,-15.7685878316,17.0595570793
-19.2810540853,-15.9944651979,16.6243001663
-19.1240800628,-15.8447242906,16.9308409281
-19.0515891733,-15.7647317967,17.0879697309
-19.1373098498,-15.872161055,16.8954345396
-19.1259721042,-15.8412352281,16.9417650622
-19.0869892694,-15.8025804606,17.0275584477
-19.3188462686,-16.0280658795,16.564327555
-19.130706624,-15.8244324301,16.9612067703
-19.0747362938,-15.7636276668,17.077720372
-19.0239179313,-15.6920443567,17.2058161058
-19.1501129804,-15.8284062918,16.9416036114
-19.1396796727,-15.8206108163,16.9511981186
-19.0863981186,-15.7499908418,17.0715454643
-19.0425196951,-15.7022382632,17.155045443
-19.1692107637,-15.8699915487,16.8554096729
-19.0126631529,-15.7172253765,17.1644887617
-19.0480455653,-15.7348309049,17.1144153288
-19.1901030883,-15.8953593732,16.8210830247
-19.0238491575,-15.7253792813,17.1739355903
-19.0872467037,-15.8057507687,17.0441186093
-19.1212022589,-15.8419590876,16.9711228126
-19.022473092,-15.7230151116,17.1904940872
-19.1138093948,-15.8277768525,16.998380743
-19.006649668,-15.7172721132,17.214308892
-19.1949593351,-15.9272823587,16.8114652434
-18.9849105137,-15.6941702837,17.256529088
-19.0649886832,-15.7742097989,17.0946285149
-18.9785638263,-15.6796032438,17.2704480267
-19.219010777,-15.9174678305,16.7947994768
-18.9854982169,-15.6601360678,17.2868261027
-18.9785646896,-15.6657474944,17.2895184216
-19.1290024561,-15.8203142995,16.9865272001
-19.1213755299,-15.8138159377,16.9962088648
-19.0346908272,-15.7391354592,17.1759938226
-19.1099543364,-15.8189744992,17.0178743885
-19.1419819378,-15.8273496489,16.980018564
-19.0144589361,-15.6754867219,17.2685533655
-19.0900865416,-15.767314925,17.088203792
-19.0987760131,-15.7801280851,17.0668271571
-19.1105513937,-15.7731573421,17.0550163753
-19.1113437139,-15.7906659181,17.0332539733
-19.0374085987,-15.7160002222,17.1742705088
-18.9972081429,-15.6861149608,17.2447419748
-19.069170731,-15.7982897716,17.0613811543
-19.1405253041,-15.8838172998,16.9104619126
-18.9964591571,-15.7302343484,17.2191501198
-19.0364936363,-15.792765941,17.1045144604
-18.9897810242,-15.7308847212,17.2055069492
-19.0787118252,-15.8171468187,17.021308635
-18.9980338784,-15.7233090128,17.193555078
-19.0816103736,-15.8050354875,17.0254583747
-19.2134868334,-15.9404474647,16.7592987256
-19.0509299811,-15.769366747,17.0927347488
-18.9538628307,-15.6629532449,17.2977552292
-19.159025757,-15.872076013,16.8785627891
-19.0164839498,-15.7196530865,17.1649174967
-19.0208435188,-15.7157933639,17.1596907085
-19.1249046885,-15.8283307818,16.9415303265
-18.9632043934,-15.6658032789,17.2658139427
-18.9134811404,-15.6106996287,17.3771152127
-19.0471293609,-15.7632854629,17.0997472487
-18.9709854843,-15.6845249281,17.2445773976
-19.1588509889,-15.8761353746,16.868871576
-19.0572735235,-15.7715558813,17.0757684228
-19.1722934169,-15.8969684788,16.8473043353
-18.9620473618,-15.6655941085,17.2846489432
-19.0488871858,-15.7474212732,17.1279130235
-19.0853129024,-15.7782628878,17.0569349195
-19.167228269,-15.8673310695,16.8856454128
-19.1096569246,-15.805727747,17.002486005
-19.2237125334,-15.9314368845,16.7565295901
-19.1214162794,-15.8241396184,16.9696038645
-19.0914308539,-15.7896749836,17.0317705339
-19.0562020431,-15.748203281,17.1029210746
-19.0261360272,-15.7255651202,17.1677901009
-19.1481484389,-15.8424174822,16.9342570314
-19.0594573273,-15.7511799437,17.1170568018
-19.1273540057,-15.8260770312,16.9754626426
-19.0888722504,-15.7895534688,17.0573797962
-19.1672758386,-15.8854205285,16.8853945121
-19.1135637976,-15.831322664,16.9932848504
-19.0350784394,-15.749627296,17.1465989946
-19.0550210871,-15.7608954683,17.1127826823
-19.0455352543,-15.7749568225,17.1157183592
-18.9331404424,-15.6689971815,17.3257498572
-19.0643931102,-15.8036133476,17.0624742148
-18.8998334677,-15.6308009205,17.4124377651
-19.1363139289,-15.8433628122,16.9602965409
-19.0364123664,-15.7359478765,17.1802969277
-19.0352529458,-15.7369257426,17.1739265178
-19.1631328461,-15.8614019028,16.915578602
-19.0389689915,-15.7268518271,17.1787784664
-19.1290338222,-15.8312777499,16.9855784252
-19.1658840082,-15.8599142258,16.9160750717
-19.184158165,-15.8889395217,16.8659826205
-19.0594509029,-15.7568767063,17.1254866339
-19.163154904,-15.858147964,16.9197404018
-19.2009973012,-15.9066104118,16.8316885699
-19.0674421992,-15.7781071882,17.1018853621
-19.0532868172,-15.7863672345,17.09809751
-19.0753160766,-15.7934744859,17.0808818983
-19.1070690154,-15.8267340123,17.0064691008
-19.0995008982,-15.8393736687,16.9961008639
-19.1818803366,-15.9200758192,16.8258989017
-19.0439073693,-15.773942451,17.118957211
-19.0256434451,-15.7521791334,17.1504189047
-19.10873387,-15.8618540555,16.9651460693
-18.9599860997,-15.7178121317,17.2543131938
-19.0439891656,-15.7888560722,17.0976852541
-19.1222870162,-15.8661053966,16.9365036259
-18.837521995,-15.5540796963,17.5542218521
-19.0881944053,-15.8103923895,17.041180865
-18.9677571117,-15.6747422269,17.297230425
-19.1396711992,-15.8721312859,16.9331871011
-19.0209305423,-15.7520788039,17.1598611538
-19.061211863,-15.7716287431,17.1019813125
-19.1257545378,-15.8473424311,16.9707620678
-19.0755525818,-15.7975045898,17.0723280093
-19.0311674133,-15.7479677702,17.1645869988
-19.1638526019,-15.9017007698,16.8755904321
-19.1448633614,-15.8775876748,16.9198065681
-19.0271041722,-15.7498694234,17.1667423105
-19.1193007754,-15.8541956122,16.9620208438
-19.092676187,-15.8366506935,17.0117443248
-18.9643853167,-15.7066532373,17.2604148994
-19.1209703486,-15.8972167943,16.9164131085
-19.1793279732,-15.9697819873,16.7886118833
-19.1521269817,-15.9427316751,16.8420352165
-18.9200907018,-15.7052823298,17.3102257341
-18.9372232145,-15.7131887913,17.2771010122
-19.0097031954,-15.790561207,17.1164203013
-19.0516470859,-15.845494906,17.0170834504
-18.9520198101,-15.7190455431,17.2327393294
-18.9161250533,-15.682506028,17.3108993146
-18.9056348488,-15.6682473525,17.3321465148
-19.0519059734,-15.844922593,17.005205317
-18.9800724697,-15.764136588,17.1510657558
-19.0178330645,-15.8017437673,17.0774758708
-18.9397621179,-15.7094086731,17.2456454912
-18.9719802262,-15.7161920476,17.1967573889
-18.9850571153,-15.7376882421,17.1511565909
-19.0076863015,-15.7584604354,17.1033247474
-19.2421603746,-15.9872586651,16.6438277948
-18.9449884935,-15.6766556639,17.2657805589
-19.0754345708,-15.8361574953,16.9744066
-18.9504878017,-15.6998921557,17.2331636852
-19.0049764743,-15.7623586209,17.1145223358
-19.0764027983,-15.8367954186,16.967082453
-19.074072443,-15.8409175012,16.9620843876
-19.0072954153,-15.7693730821,17.0948543396
-19.1358334507,-15.8910796418,16.8403689056
-19.1401503689,-15.8779173324,16.8597539801
-19.0331729751,-15.7793679128,17.0669979194
-19.0155381013,-15.7634130107,17.0975192169
-19.0255550904,-15.7684809812,17.0903207113
-19.1357709196,-15.8657984978,16.8835534546
-19.1665895482,-15.8713959343,16.8455736391
-19.0866571593,-15.8144271976,16.9881861289
-19.1007304366,-15.8235974175,16.9564082197
-19.0465238249,-15.7633272369,17.0759816729
-18.9269857845,-15.6271565722,17.3250991039
-18.9195807032,-15.6250109803,17.3523864145
-19.1312615291,-15.8387596738,16.9195793283
-18.9612690444,-15.6643520067,17.2648824645
-19.1138462976,-15.8057807332,16.9796827281
-19.1271677221,-15.8238130377,16.9404054825
-18.9964976804,-15.7083772389,17.1934338255
-19.0542298101,-15.748279441,17.0894748784
-19.1662115995,-15.8817433783,16.8462378343
-19.0533766535,-15.7602052707,17.0809612432
-19.0834178377,-15.8084655114,17.0063149439
-19.1302302326,-15.878509831,16.8905338749
-18.968315961,-15.7076332989,17.2267041828
-19.0709346182,-15.8069643447,17.022733904
-19.1134697847,-15.8566535543,16.9230846608
-19.135937623,-15.8679977928,16.8903398691
-19.094994226,-15.8160149814,16.9753967829
-19.0634681007,-15.7941507372,17.0258798547
-19.1033877855,-15.8234007207,16.9555333711
-18.9939941851,-15.7271702868,17.1549413623
-18.9682195614,-15.7046927941,17.2033361641
-19.0690867796,-15.8262525976,16.9765680262
-19.1138096004,-15.8830761541,16.8769334172
-18.9442958299,-15.6930069288,17.2346020642
-19.0567069913,-15.8216676974,16.9990309848
-19.0266906242,-15.7980877922,17.0513883241
-19.0133492168,-15.7869327651,17.0783977527
-19.0188783798,-15.7911685269,17.0620306759
-19.0955848589,-15.8702784647,16.9018275255
-18.9974335258,-15.7590083438,17.1145015845
-18.8776795501,-15.6219579862,17.3718797959
-19.1066623364,-15.8556076411,16.9135859774
-19.1253533472,-15.87557891,16.8579812577
-19.023250803,-15.772552592,17.070047307
-18.9435842139,-15.6893507146,17.2348636466
-18.9320918472,-15.7025319364,17.2336836144
-18.9871733443,-15.7526006337,17.1297259877
-18.9546117552,-15.7167632846,17.193130587
-19.066797429,-15.8342753889,16.9615633536
-19.0734639673,-15.8250658598,16.9569661641
-19.009259548,-15.7364773228,17.10522752
-18.9103681134,-15.6225339068,17.3386151757
-19.1250237817,-15.8373367962,16.9199903291
-19.0726913695,-15.7782705699,17.0368681776
-18.9965367961,-15.70058693,17.1848757334
-19.2250694527,-15.9471459863,16.708638225
-19.1398515645,-15.8518982733,16.8892689319
-19.1794456075,-15.8841680155,16.8090578959
-19.1349490835,-15.8505182056,16.8769260922
-18.8492397992,-15.5351306724,17.4868899474
-18.9810120183,-15.7074841989,17.2105187923
-19.0404983488,-15.7600686475,17.0947961039
-18.9976863644,-15.7214208502,17.1743366451
-19.0521080496,-15.7887293807,17.0548899293
-19.121968641,-15.8634767534,16.9035881599
-18.9434804889,-15.6840559082,17.255604754
-19.0912712246,-15.8310129742,16.969626554
-19.1020421082,-15.8174560099,16.9851256626
-19.070467333,-15.7745833567,17.0513150582
-19.2044755938,-15.8915167262,16.7978739408
-19.0961844746,-15.7682015322,17.0327056221
-19.0522300748,-15.7253050128,17.1142356744
-19.1000237773,-15.7809133935,17.0022206949
-19.0844076538,-15.7769608663,17.0162584441
-18.8543497139,-15.5158277359,17.5128643265
-19.2148499454,-15.8884875247,16.7711507548
-19.1533042278,-15.8328251293,16.8902274179
-19.306945325,-15.9955493721,16.5698661807
-19.1442207543,-15.8149829699,16.9396519656
-19.0806303535,-15.738603881,17.0764319594
-19.1389512091,-15.7967668631,16.9531486279
-19.0028941944,-15.6544924778,17.2320456275
-19.1603135325,-15.8278552033,16.8900549903
-19.1493953228,-15.805242308,16.912539889
-19.0390604773,-15.6944086711,17.1342992028
-19.1610576792,-15.8344651928,16.884582143
-19.1357341476,-15.817694233,16.9285528889
-19.0689490608,-15.765521734,17.0502299059
-19.1058062682,-15.8062809708,16.9607513988
-19.12902572,-15.8170985805,16.9287087483
-19.1695391362,-15.8506635901,16.8681463093
-19.1150372741,-15.8030425415,16.9778894042
-19.1212721656,-15.823332366,16.9436329812
-18.9833505799,-15.6720413228,17.226284662
-19.1555168173,-15.8528069582,16.8698448098
-19.0688084013,-15.7998599179,17.0270518756
-18.9760629599,-15.7148257681,17.205338037
-19.0001943005,-15.7172211035,17.180420716
-19.0437091441,-15.7710780201,17.0729114716
-19.0600422937,-15.7993476281,17.0308147933
-19.1022614102,-15.8508197723,16.9430329733
-19.1535453972,-15.9117722416,16.8307280981
-18.929394924,-15.6752690537,17.2887184209
-19.0691734816,-15.8218942058,17.0076845856
-19.0004247071,-15.750022492,17.1459461949
-19.040492203,-15.7989460204,17.054257753
-18.9438893854,-15.7171436875,17.2462491906
-18.8965219734,-15.6716782503,17.344432777
-19.0508910103,-15.8190604928,17.0422608287
-19.0682588479,-15.8599902953,16.9850958909
-19.0255243423,-15.8125001131,17.0778418674
-18.8475063937,-15.6312966112,17.442168258
-18.962773913,-15.7478600592,17.2010580812
-19.0845159793,-15.8723142019,16.951873946
-18.8811218725,-15.6500124216,17.3781774467
-19.0274032526,-15.8065812202,17.0850781245
-19.0332149481,-15.7981133515,17.0948197724
-19.0959508962,-15.8601479656,16.956842907
-19.2395461154,-16.029735916,16.6641378986
-19.035198839,-15.7946630524,17.1096841926
-18.9957596705,-15.7363316768,17.2019564603
-19.1600214772,-15.9035031859,16.8742230759
-19.0633557092,-15.797221239,17.077193087
-19.0394924266,-15.7720514205,17.1230480625
-19.0742472831,-15.8073638473,17.0532238439
-19.1530300563,-15.8955212718,16.8794393362
-19.0680430077,-15.8264388464,17.0376263609
-19.0280455833,-15.7565256162,17.1578654325
-19.1173086855,-15.8545023539,16.9685243222
-19.0396398546,-15.7651011939,17.1445646256
-19.0051405108,-15.7160952728,17.2170112785
-19.1419221787,-15.8459555403,16.9484363798
-18.9291384608,-15.617830317,17.3834882254
-19.0794628896,-15.7931254033,17.0562510801
-19.1069155372,-15.8131937895,17.0128008965
-19.0112614054,-15.7260380398,17.1917698518
-19.0687486192,-15.7797724008,17.0744783286
-19.0831934221,-15.7839290417,17.0505770416
-18.9702748548,-15.675057205,17.2669665054
-18.932454198,-15.6485849728,17.3212586182
-19.0899696877,-15.8038552026,17.0065865096
-18.9354187609,-15.6547527775,17.3137084471
-19.1159682073,-15.8538264241,16.9317252939
-19.0089926974,-15.7362238684,17.1538995938
-19.1123779524,-15.8276989016,16.9543029387
-19.1185457898,-15.8218871794,16.9571408969
-19.1440256729,-15.8519018886,16.9109692568
-19.1451722546,-15.8756855897,16.8984329456
-19.0035181164,-15.7192069033,17.1930102038
-19.280005939,-15.9955688459,16.6360275997
-18.9562022718,-15.679539415,17.2826905043
-19.0967212689,-15.8200750095,17.0053417726
-18.9956841358,-15.7077040948,17.2220153306
-19.1551514211,-15.868970118,16.9067482874
-18.9463148749,-15.6341581634,17.3593872319
-19.0494624487,-15.7508930926,17.1353507477
-19.0723152632,-15.7705516748,17.0943734001
-18.9319670762,-15.5913742634,17.4199406538
-19.1048001132,-15.769675884,17.0653055715
-19.1012075122,-15.763992686,17.0742331454
-19.0799222523,-15.7295327288,17.135441161
-19.0110999183,-15.6655269287,17.2673720125
-18.9958499031,-15.6306193958,17.3164736698
-19.0894943686,-15.7185688605,17.1334645846
-19.0010925647,-15.6448584713,17.3165262391
-19.0269128211,-15.6738241111,17.2490278298
-19.016687664,-15.6794509152,17.2504478125
-19.1106459144,-15.7781708494,17.0470676016
-18.9613314861,-15.6405754726,17.3400125211
-19.218511912,-15.9436475974,16.7838344691
-19.0780215632,-15.7862116086,17.0766076637
-19.0895945617,-15.7982859603,17.0470778051
-18.9908834019,-15.6976388367,17.2528841701
-19.1613087211,-15.8838963349,16.8833572782
-19.0522484732,-15.7415655518,17.1394484362
-18.9677382902,-15.6596148616,17.3242262393
-19.0824104037,-15.7781064547,17.0876215536
-19.0366301564,-15.7220680337,17.1960556842
-19.0995889692,-15.7773396254,17.0760506146
-19.0417772422,-15.7265355215,17.1850452892
-19.0419856357,-15.7232111169,17.1825613499
-19.0730647677,-15.7823863534,17.0942191828
-19.0392007727,-15.747525785,17.1557472478
-19.0925334315,-15.8042511398,17.0351931806
-19.066635908,-15.7858742753,17.0743614822
-19.0616631419,-15.7641573902,17.0918981853
-19.0800766011,-15.7930881516,17.0419447932
-18.9481984851,-15.6813339047,17.2842791357
-18.9714080813,-15.7275252396,17.2102899858
-19.0245128247,-15.7951193146,17.0852449784
-19.0705464601,-15.8329257891,17.015895
-19.0847655011,-15.8427532988,17.0116986217
-19.0551331647,-15.7980641329,17.0830048931
-19.0777602027,-15.8300466863,17.027631929
-19.0115598187,-15.7544770445,17.1569148219
-19.0390174749,-15.7893392789,17.0891354305
-18.9064963822,-15.6508366372,17.3629233052
-18.9717218634,-15.6967975565,17.2654793605
-19.0569643381,-15.7863528261,17.0866879138
-18.9980084626,-15.7080542998,17.2150629276
-19.1648928718,-15.8926891478,16.8577858123
-19.2256741345,-15.9416879399,16.7400284196
-19.1302008931,-15.8393380775,16.9381260653
-19.173332581,-15.8815258037,16.8581982534
-19.2140282739,-15.9075257863,16.788341509
-19.2617875827,-15.960241412,16.7187069204
-19.141480916,-15.8341405849,16.9656447314
-18.9805219929,-15.6693276279,17.3032340885
-19.1451035407,-15.856930147,16.9581765595
-19.1131973817,-15.8273464205,17.0181308069
-19.0703112377,-15.773355804,17.1095270731
-19.0742016975,-15.7922407737,17.0934195387
-19.016457835,-15.7373332604,17.2189733634
-19.0682466677,-15.7861942232,17.105680285
-18.8884970089,-15.5955270836,17.4740313476
-19.1215008135,-15.8480133831,16.9821641961
-19.1876875645,-15.9254306198,16.84663294
-19.2001310158,-15.9274597501,16.8198913695
-19.0463683739,-15.7584720706,17.1547782537
-19.1284807906,-15.8557625788,16.9870193829
-19.0381192311,-15.757524286,17.1837903778
-19.0132914979,-15.7386355193,17.2251791446
-18.9970066075,-15.725930936,17.2489272304
-18.9968237028,-15.7229761457,17.2444679869
-19.1601787335,-15.8854952189,16.9079860708
-19.0371406115,-15.7563823739,17.1716422299
-19.137547603,-15.863068805,16.9706792998
-19.0857130951,-15.8080147102,17.0753633688
-19.1254026315,-15.8624773523,16.9813716563
-19.2140990286,-15.9513952023,16.7903135323
-19.0274727592,-15.7448881281,17.1703858507
-19.185321107,-15.9041650304,16.8619764347
-19.01776726,-15.7272486215,17.2013672194
-19.1976173374,-15.9102917513,16.8334236652
-19.217018047,-15.9384170105,16.7896094013
-19.107809373,-15.8332522219,17.0035657702
-19.1226516032,-15.8483774096,16.9688502835
-19.1135020486,-15.8512493599,16.9700383401
-18.9699395781,-15.6977922604,17.2771985766
-19.1436200739,-15.8809643719,16.9406972919
-19.2499589245,-15.9791699652,16.738623105
-19.1087710242,-15.8252527254,17.0347410878
-19.204582787,-15.9358945172,16.8224978946
-19.0943244516,-15.8024677262,17.0723355234
-19.1769654936,-15.8624611146,16.9239472546
-19.2188375169,-15.9036911097,16.8470946086
-19.0083884386,-15.6847740011,17.2725497359
-19.0777195462,-15.7476359951,17.1255140891
-19.0222247201,-15.7200193472,17.1991593728
-19.1708597204,-15.8959073637,16.8699282662
-19.0644301518,-15.776045513,17.0965504673
-18.9618064682,-15.6668259512,17.3148330065
-18.9842532413,-15.6822384637,17.2781868261
-19.1020109737,-15.8116026813,17.0411565696
-19.0911746863,-15.8080665215,17.0562440209
-19.0506961199,-15.7578128053,17.1378562809
-18.896594756,-15.5896778863,17.4786352284
-19.1080809221,-15.8055800037,17.0646009461
-19.0115994503,-15.6954228279,17.2708450128
-19.1074834396,-15.7903673838,17.0786305459
-19.1897826576,-15.8615249321,16.9223460391
-19.0488603692,-15.7086638805,17.2135934533
-19.0840401477,-15.7320219856,17.153065951
-19.0700557332,-15.704584759,17.1860879746
-19.0884609012,-15.7211090136,17.1493737893
-19.3268097416,-15.9508470094,16.6758596396
-19.1016615774,-15.7055675076,17.144894592
-18.9947930251,-15.5891091611,17.3777155087
-19.1978675778,-15.8151569028,16.9401101488
-19.1637375296,-15.7848105521,16.9919791343
-19.0910868991,-15.705983909,17.1437955039
-19.1637601768,-15.7697286331,17.0093097675
-19.2351644452,-15.8376984273,16.8657790023
-19.2265160559,-15.8168344169,16.8958992424
-19.2030720858,-15.8007628803,16.9277894623
-19.2186502469,-15.8367098203,16.8839353961
-19.0980306471,-15.7132043983,17.1331299222
-19.0719992652,-15.6952259152,17.1807279583
-19.1068817775,-15.7368984058,17.1064658453
-19.0856131793,-15.7166827342,17.1417980664
-19.0335446675,-15.6922308784,17.216012201
-19.1116720578,-15.7687262286,17.0538499917
-19.1964327135,-15.8679144892,16.8668104385
-19.0823093812,-15.7398395322,17.101707709
-19.0770769863,-15.7400097899,17.0991720574
-19.0854017272,-15.7729928407,17.0623353406
-19.1516571553,-15.8376348374,16.9276499939
-19.0554286836,-15.7479386928,17.1126683338
-19.119325059,-15.8072052831,16.984960674
-18.9667505202,-15.6657026636,17.2797325086
-19.1568951913,-15.8564678773,16.8977798616
-19.0566662693,-15.734453772,17.1256070425
-19.0221214181,-15.6982365479,17.2074811481
-19.0950156368,-15.8003162795,17.0356714633
-19.0997410901,-15.7953946706,17.029953582
-19.0085544328,-15.6874972432,17.2268262823
-19.0679078905,-15.7527378198,17.0958457376
-19.2349074188,-15.9400905359,16.7426012699
-18.9946754224,-15.6965533813,17.2226291277
-19.1510323115,-15.8759069492,16.8853718706
-19.1464570802,-15.894923962,16.874527322
-18.9983399108,-15.7470156644,17.1678112329
-19.0464028084,-15.8000615744,17.0748183551
-18.9994542749,-15.7486119974,17.175930823
-19.1294164102,-15.8838744102,16.917664904
-19.1484548412,-15.9034258168,16.8746718322
-18.9322562206,-15.6764792922,17.313250486
-19.1250860528,-15.8408611802,16.9508634835
-18.9137817397,-15.6182288291,17.4026780534
-19.1121450472,-15.8257984931,16.9905479552
-19.2706231947,-15.998529869,16.6720877541
-19.1263104671,-15.868095192,16.9565248314
-19.0704618598,-15.8138929266,17.0616399214
-19.0850467418,-15.836319488,17.0232228308
-19.1167331382,-15.857622643,16.9632851344
-19.2005020694,-15.9455805831,16.7943923539
-19.1010824925,-15.8125380396,17.0302921281
-19.1466094576,-15.8664437767,16.9269145736
-19.033717036,-15.7692363293,17.1508902584
-19.1858079856,-15.932099337,16.8286121139
-19.0925456519,-15.8113216656,17.0483621569
-19.110593385,-15.8496391827,16.9932413927
-19.0617077072,-15.8106906821,17.0845433768
-19.1597268416,-15.8965554824,16.9025829257
-19.0996381051,-15.8193716874,17.0237096786
-19.1724758935,-15.9157393465,16.8538052986
-19.1317317918,-15.8855167525,16.9366955561
-19.1215877985,-15.8637222257,16.9690325826
-19.1354588247,-15.8811801795,16.9371028024
-19.0885474507,-15.8625998142,17.0070085556
-18.9072082685,-15.6755907222,17.3880896633
-19.0585958308,-15.8471681375,17.0579354097
-19.2030812366,-15.9914358962,16.7684378353
-19.0048963818,-15.7967855655,17.1613210247
-19.0661309772,-15.8514718114,17.0413456025
-18.9512349165,-15.7061730113,17.2949248965
-18.9582112073,-15.7182198653,17.2767023816
-18.9862376051,-15.7358544848,17.2389538216
-18.9775429302,-15.7229452211,17.2485715122
-19.0606131318,-15.8118921107,17.0903459821
-19.0571693354,-15.8299170826,17.0858588887
-19.0696138145,-15.8321770236,17.0602365764
-18.984986673,-15.7432864091,17.2280268662
-19.0722146745,-15.8360104931,17.0476116364
-19.080400225,-15.8345373157,17.0326744255
-19.1641063033,-15.9193035629,16.8587173205
-19.0867616383,-15.842831192,17.0207473269
-19.1169611301,-15.8809629447,16.9450470693
-19.0859735596,-15.8485484992,17.0056358109
-19.0560524036,-15.7918437752,17.0862970285
-18.9917965547,-15.7192928127,17.2205149443
-19.163634625,-15.8999433425,16.8599801479
-18.9961170967,-15.7230644032,17.2168457273
-19.0383522002,-15.765629662,17.1433077539
-19.1449162673,-15.8747882418,16.9203883311
-18.9987639437,-15.6990568958,17.2352030377
-19.1147326269,-15.8239528406,17.0011907483
-19.1095580797,-15.8191385507,17.0014143527
-19.2592133007,-15.9724687249,16.7068635094
-19.0473061659,-15.7451286993,17.152905891
-19.038482639,-15.7321329838,17.1616676671
-19.1362661708,-15.8371695662,16.9459921186
-19.0989099215,-15.7736469057,17.039046915
-19.145004407,-15.8121338465,16.9569419144
-19.1440747814,-15.8294664268,16.943634578
-19.2613095773,-15.9873483117,16.6761540442
-19.0877743037,-15.8077643485,17.0302456524
-19.0786455119,-15.7866565473,17.0593988763
-19.1143875656,-15.8124668001,16.9941106499
-19.1098485161,-15.8143045273,16.991193729
-19.1028119843,-15.8038592252,17.0121010735
-18.9752458572,-15.6588497189,17.2852894952
-19.104164302,-15.7967412185,17.0080282507
-19.0925184379,-15.781082881,17.0280129642
-19.0800282171,-15.7649977696,17.0534110113
-18.9460943974,-15.6091362599,17.3556494738
-19.1810371844,-15.8650771389,16.863125999
-19.0095521569,-15.6953074981,17.201840573
-18.9384033827,-15.60852757,17.379438925
-19.029353095,-15.6972082991,17.2140049551
-19.0958163804,-15.7803892768,17.0664541119
-19.2474792093,-15.9440550138,16.745894773
-19.094935031,-15.7840535747,17.0606454843
-19.0388600431,-15.7303407579,17.1749824992
-19.069211958,-15.7575794899,17.107229197
-19.1074718647,-15.7775532797,17.0427781077
-18.8989695966,-15.5608626689,17.4709646643
-19.180364112,-15.8638903706,16.8893529941
-19.2428439169,-15.9421919501,16.7410059695
-19.2099211546,-15.9124534489,16.800209953
-18.9777270609,-15.6684358838,17.2758986498
-19.2395855776,-15.9379696505,16.7401784277
-19.111647461,-15.8044388912,17.0039654512
-18.9337068092,-15.607893323,17.3860030669
-19.1680320924,-15.8550714615,16.9016493931
-18.9927583554,-15.6797279126,17.2498694696
-19.0778746232,-15.7649526497,17.0842642854
-18.9849162015,-15.6847258333,17.2622687849
-19.1497188545,-15.8558921467,16.9229362537
-19.0773264229,-15.783213038,17.0729398152
-19.0265287328,-15.7238995783,17.1749667215
-19.0961695967,-15.7516870347,17.0913257689
-19.0426020811,-15.6910332944,17.2140367027
-19.073820019,-15.7269940017,17.1421247975
-19.0151866065,-15.6650781051,17.2717055701
-19.248995832,-15.8973962946,16.8009809868
-19.1033839027,-15.7510539427,17.0931071508
-19.1145728209,-15.7743498061,17.0551099313
-19.2133199392,-15.8865467472,16.8385770576
-19.1300030316,-15.804644822,17.0058300341
-19.1636400831,-15.8178270038,16.9579804433
-18.9182772434,-15.5729037836,17.4562923842
-19.1033775478,-15.7568968008,17.0806306761
-19.1730087991,-15.832468982,16.9262541355
-19.1481307317,-15.8045762407,16.9792522046
-19.0181290392,-15.664883927,17.246963437
-19.2572687196,-15.9362578389,16.7506891055
-19.2352458929,-15.924366194,16.8014047292
-19.1795346678,-15.8835292885,16.8968375767
-19.0259804601,-15.7122725507,17.220678715
-19.1298367148,-15.8240544152,17.000258275
-19.2612415244,-15.9798149303,16.7134935295
-19.0532375518,-15.7587806492,17.1413605425
-19.0496034258,-15.7586092595,17.1428760498
-19.0832424011,-15.8054624766,17.0664201541
-19.1537038693,-15.8829706699,16.9133520134
-19.1288448417,-15.8745338623,16.9483301127
-19.0471036615,-15.7795156329,17.1373603805
-19.1482296793,-15.8865901034,16.9305363081
-19.0521233735,-15.7876213885,17.1239813052
-19.2361623958,-15.9871856047,16.7525459206
-19.1244161279,-15.857136807,16.9926580951
-19.1321798575,-15.8699517192,16.9722953762
-19.1632559145,-15.9156461015,16.9077171687
-19.0598428656,-15.7915879863,17.1223486524
-18.9898725412,-15.7063060126,17.2770708066
-19.1754559286,-15.9007446901,16.8893847291
-19.0352723516,-15.7392997052,17.1851885802
-19.1182316161,-15.8304524774,17.0135709009
-19.0771303564,-15.765418742,17.1202468912
-19.0350818311,-15.7143155303,17.2209369777
-19.1009346764,-15.7716576274,17.0956045292
-19.1615784779,-15.8669538075,16.9424570012
-19.0951512457,-15.8073128661,17.0651912994
-19.0736285143,-15.7717074344,17.1178440252
-19.0545652832,-15.7534687018,17.1615007604
-19.01609645,-15.7089572571,17.2507757699
-18.9549600878,-15.6513729949,17.3647925157
-19.0880725414,-15.7898020416,17.0853533864
-18.989521768,-15.6693957503,17.2987727712
-19.0845364974,-15.7786965722,17.1088256481
-19.1972664226,-15.8987095754,16.8735831829
-19.0241777013,-15.7170408154,17.2425369756
-19.1517110684,-15.8556266236,16.9805818179
-19.0690604741,-15.7744428939,17.1365596412
-19.0544894977,-15.7738218364,17.158849509
-18.9639317527,-15.6891065994,17.329823596
-19.192893462,-15.9255863789,16.8631211392
-18.9964279669,-15.720192235,17.2720896289
-19.1028051276,-15.825007129,17.0476394739
-19.0708497768,-15.7975258906,17.1055329444
-19.0648730416,-15.7846802485,17.1119816816
-19.1013553789,-15.8015172029,17.0640029885
-19.1470177587,-15.8484685763,16.9734956347
-19.1291348942,-15.8144946553,17.026159876
-19.1646364633,-15.8610780913,16.9416457548
-19.0793874008,-15.7725481384,17.11074277
-19.0672035065,-15.7610966192,17.1268015588
-19.0942016653,-15.7873755068,17.0767525824
-19.0771643963,-15.7902634886,17.0931390649
-19.0560647123,-15.76575801,17.1385075866
-19.0494732406,-15.7481135998,17.1610474167
-19.11745572,-15.8354502586,17.00286097
-19.1255013235,-15.8390576129,16.9885952759
-19.0822538687,-15.7844549559,17.0811182578
-19.0634788485,-15.767729324,17.1058837391
-19.0317726872,-15.7317615102,17.1693233596
-18.9405519673,-15.6501811056,17.3398609761
-18.9949458044,-15.6931458838,17.2357842891
-19.1935860684,-15.8867082178,16.8570056183
-19.1386307921,-15.8419626739,16.9505568528
-19.0450022818,-15.7210947928,17.1541241016
-19.1548303156,-15.8301030717,16.9286886525
-18.9857036765,-15.663711263,17.2573917258
-19.1349581832,-15.8336880167,16.9277565472
-19.1853050231,-15.900637203,16.8110266753
-19.1147467429,-15.8263257471,16.9620664165
-19.1107873283,-15.812966091,16.9811441273
-18.9752089069,-15.6778199334,17.2484168593
-19.061133448,-15.750390205,17.0766790137
-19.1190602102,-15.7601988145,17.0197140535
-18.9875318238,-15.6344376237,17.2763566397
-19.1205651652,-15.7601142446,17.0143711185
-19.0886211805,-15.7251377296,17.082110468
-19.1242176856,-15.7811684644,16.9886116162
-19.1298141398,-15.8192981272,16.9448795261
-19.2324321483,-15.9237366262,16.735604612
-19.0291121679,-15.7193597492,17.139014747
-19.035584403,-15.7488476741,17.0925865164
-19.0795907721,-15.7858498314,17.0041258355
-19.0035523962,-15.6803862808,17.1843710944
-19.0188692053,-15.7070764243,17.1488331388
-19.2073336707,-15.9052023691,16.7636845199
-19.0630733707,-15.7684195248,17.0516990938
-19.0626705065,-15.7609266199,17.0662341944
-19.0591158915,-15.7702833205,17.0746655551
-18.9968302157,-15.6994921052,17.205871077
-19.1083706387,-15.8281895914,16.9659831291
-19.0464977937,-15.7497960421,17.1014371685
-19.0865459434,-15.7678976193,17.0464395046
-19.124391623,-15.8219096429,16.9553638306
-19.1703971807,-15.8767360537,16.8475787407
-19.046634815,-15.7523097435,17.0902999046
-19.0254388636,-15.7279717124,17.1292294021
-18.9860892731,-15.6895262882,17.2005178237
