0.05374127086278885,0.07312643208797073,0.0895714708105794
-5.23344151676,-4.02333906315,4.19043937763
-7.50951225354,-5.85671854614,6.35976386827
-9.14453408559,-7.32384221353,7.26672943934
-9.94216251107,-7.9535594164,8.81095102852
-10.8337239827,-8.80120597374,9.38015030564
-11.5077816173,-9.43232195417,9.93609559508
-11.889020189,-9.75206382062,10.8127372542
-12.5534599139,-10.4224031984,10.8276877851
-12.9185845338,-10.742688546,11.3014386414
-13.1265471902,-10.9688647776,11.8918143265
-13.560408555,-11.3950539351,11.9601108077
-13.8488123581,-11.6981036946,12.1876747846
-14.0667870163,-11.9405971078,12.485318727
-14.1955967449,-12.0653574825,12.9051463943
-14.358394936,-12.1901170123,13.1952844421
-14.7145852401,-12.5476102023,13.0038401733
-14.8589336827,-12.7022249091,13.1959417933
-14.8540793564,-12.6822898304,13.6500718004
-15.0437331742,-12.8514071637,13.6868188265
-15.2309883497,-13.0311276195,13.6870073492
-15.3995433336,-13.2203979777,13.6819881129
-15.3553885876,-13.1634435252,14.0918388764
-15.4666399613,-13.2586832684,14.1940813942
-15.7633473584,-13.5495470313,13.8555335672
-15.8252244336,-13.6205215144,13.994897784
-15.8426015199,-13.6681994442,14.2076884148
-15.8751960399,-13.7054143549,14.3502415616
-15.9638385204,-13.7848009276,14.3841545228
-15.9761201672,-13.7816333534,14.5503275084
-16.0970971319,-13.8948789504,14.5019655811
-15.9759270035,-13.7804399902,14.9021431705
-16.2138280069,-14.020930556,14.590695534
-16.1138415791,-13.8958504238,14.9524180259
-16.2908738762,-14.0894361763,14.7208257108
-16.3898028249,-14.1558190608,14.7278868451
-16.4564472529,-14.1644465778,14.7674797996
-16.5521722265,-14.2736386905,14.6676622079
-16.2779840911,-13.9813121602,15.3474896834
-16.5090695706,-14.2686242964,14.9034285408
-16.5838464461,-14.3829526748,14.8121785523
-16.4760692873,-14.2378217045,15.1692149573
-16.6836069149,-14.4507815168,14.8213041277
-16.4673288476,-14.2367307105,15.3530798825
-16.6557449665,-14.4412126124,15.0080309183
-16.6903404948,-14.4941265975,14.9947380927
-16.6123244321,-14.4067890452,15.2069656823
-16.7200630371,-14.5483105157,15.0211707223
-16.707371688,-14.5235047344,15.1113780486
-16.6129143317,-14.3995806951,15.3731898159
-16.7200348939,-14.5123459841,15.2095191755
-16.6611400454,-14.4704401537,15.3257709027
-16.7037535162,-14.4976003922,15.3085414891
-16.7998582596,-14.60617238,15.1409034821
-16.8609995323,-14.6445480273,15.0740193605
-16.7351592793,-14.5202143802,15.3712080308
-16.8274800972,-14.6206837866,15.2009424694
-16.7626569743,-14.5661878262,15.3277720036
-16.8776053634,-14.6600576015,15.1884868555
-17.0289325075,-14.8162001767,14.8929441578
-16.7208787736,-14.4964612582,15.5431975387
-16.8029102386,-14.5872561261,15.4011436073
-16.8247838494,-14.6026222975,15.3901112715
-16.9180275627,-14.6973337527,15.2195188173
-16.7839689545,-14.5506150686,15.5212102065
-16.7730849601,-14.5493968863,15.5328290755
-16.8693512085,-14.6761583802,15.3080936766
-16.864787883,-14.6630458979,15.3417877061
-16.840959859,-14.6236222006,15.4146127664
-16.8408202073,-14.6228230258,15.4527909921
-16.7390020761,-14.5327169146,15.6975924994
-16.8285264331,-14.594005302,15.5426341448
-16.796511385,-14.5440329283,15.628769527
-16.9813997507,-14.7580199184,15.24897381
-16.8734259375,-14.6414194427,15.4612343203
-17.0138765904,-14.7747644007,15.1987910902
-16.9378081113,-14.6569908145,15.4225377651
-16.943868503,-14.6636018508,15.4150051647
-16.9202575049,-14.6489625091,15.4530865128
-16.8988070856,-14.6350127771,15.5091365983
-16.9401336926,-14.6776258401,15.406153747
-16.9740407304,-14.726441709,15.3430475476
-16.8505947758,-14.6294997105,15.5595163209
-16.9254066003,-14.7530793705,15.3675480073
-16.9435654644,-14.7549382001,15.3505625959
-16.8232368152,-14.6390893057,15.5734211562
-16.8323365835,-14.6451437204,15.5627054447
-16.7872550335,-14.5925099242,15.6818265612
-16.9170435394,-14.6740664356,15.4527384329
-16.9030498869,-14.6396731628,15.5141711346
-16.9014314972,-14.6923868517,15.4482857976
-16.9759126779,-14.7611828424,15.2903540389
-16.8957067289,-14.693131096,15.4301436353
-16.8296468891,-14.6345024258,15.5683183273
-16.8197823272,-14.6023273888,15.6163596709
-16.8875205813,-14.6777704501,15.4757861904
-16.9089524962,-14.7366876674,15.3963254924
-16.9544155412,-14.796597093,15.2799885636
-16.8866533495,-14.6807205719,15.4628606873
-16.9347677546,-14.7482227715,15.3403755169
-16.8079345848,-14.6250236134,15.5908126644
-16.8636380564,-14.6344232908,15.5250636039
-16.7540387427,-14.4989693896,15.7751327112
-16.9510299201,-14.76833176,15.3201826001
-16.870220592,-14.682824229,15.5016709618
-16.990663544,-14.8242982063,15.2547057878
-16.8676285157,-14.6920672006,15.5130292611
-16.9853402468,-14.8066175156,15.2601675122
-16.774446546,-14.5618871645,15.736059304
-16.8733172124,-14.672946672,15.5204074346
-16.868765785,-14.6722405513,15.5217082541
-16.8810645554,-14.702519753,15.4764341941
-16.8542886172,-14.6801184142,15.5231921857
-17.0362141783,-14.8747470394,15.137797794
-16.9911558347,-14.8312344273,15.2245947383
-17.01610997,-14.8328083285,15.1940607809
-17.0017656049,-14.8268339672,15.2415883753
-17.0364549121,-14.8369208539,15.1894066979
-16.9559861999,-14.7119745136,15.4090514073
-17.0787968713,-14.8314826783,15.1532656922
-16.9044120156,-14.6503330108,15.5064157931
-16.9358598409,-14.6891207683,15.4461130584
-16.8873133277,-14.6410448158,15.5226428158
-16.8758016951,-14.6226952803,15.5685537172
-17.0343710491,-14.8318450325,15.2015346785
-16.7963799374,-14.5910299806,15.7002613264
-16.9270389689,-14.7352862174,15.4189208534
-16.8872667387,-14.6968424358,15.4955133075
-16.8842875728,-14.6642807394,15.5426443852
-16.9603021847,-14.7537062344,15.3986490177
-16.9038891078,-14.7101725811,15.5040119637
-16.9134556111,-14.7143277055,15.4937883298
-17.0468513755,-14.8497819366,15.2402477312
-17.0487906374,-14.8486280435,15.2205108676
-17.0473680282,-14.8370787091,15.2245575063
-17.0467811898,-14.8390919425,15.2170322753
-17.0211462093,-14.801304813,15.2872496332
-16.9009305961,-14.70283593,15.5076019281
-16.8925015579,-14.6835739554,15.5188081005
-17.0103694473,-14.7888858115,15.2839991694
-16.8047497116,-14.5968085012,15.719354916
-16.996647612,-14.7850735102,15.3145946941
-16.9466087633,-14.7133801653,15.4306060657
-17.0092378126,-14.7472076558,15.3325671182
-16.9592180233,-14.6979647544,15.417282774
-17.0653712465,-14.8352229849,15.1608518043
-16.9399546041,-14.6616580069,15.4626143158
-17.0107858733,-14.7494075722,15.3244980958
-16.9101635837,-14.6509162897,15.5299500464
-16.9537786426,-14.694779741,15.4391347076
-17.0035955479,-14.777283885,15.3071742399
-16.8397817826,-14.6094291211,15.6366851641
-17.0355293548,-14.8387895446,15.2004424977
-16.9446775495,-14.7211402193,15.4229379054
-16.9751870404,-14.757805598,15.3686487707
-16.9453590071,-14.6838988737,15.4801218957
-16.9978358359,-14.7503026512,15.3483787877
-16.8119099214,-14.5490734751,15.7459613667
-17.0875729746,-14.8611291187,15.1254719064
-16.8693088554,-14.6442834481,15.5662656528
-16.8777739929,-14.6476795065,15.5620522054
-17.0806491047,-14.8950584933,15.1061465275
-16.9014364358,-14.688077667,15.5133036204
-16.7862526542,-14.545482139,15.7823898524
-17.0694464125,-14.8578994733,15.19361486
-16.9567784801,-14.732208153,15.4300203014
-16.9992924777,-14.8005629628,15.3019817474
-17.0588916161,-14.9074716249,15.139722502
-16.8851955595,-14.6931924373,15.5497085604
-17.1314041369,-14.9560684485,15.0255348378
-16.8927956295,-14.7028625849,15.5322874611
-16.8572287376,-14.6362788105,15.6394953928
-16.9768774396,-14.7258770142,15.4007972712
-16.9127662656,-14.6828672066,15.5100329252
-16.9293954162,-14.691974113,15.4703311661
-16.9836406197,-14.7747993368,15.3456569678
-16.9576518438,-14.7282880204,15.4424281401
-16.8895032347,-14.6478100697,15.5653499164
-16.9096842217,-14.626467284,15.5864806076
-16.9813387529,-14.7380396176,15.3967418111
-16.9247016784,-14.6923218667,15.4930307141
-17.0036727404,-14.7711985133,15.3342057351
-16.9426116773,-14.6901608391,15.4807546473
-16.9946775756,-14.777620643,15.3367726053
-16.9009897062,-14.6652323615,15.5512257791
-17.0256636246,-14.8009794703,15.3078241315
-16.8750695694,-14.6578020884,15.5922841065
-16.8726279296,-14.6793767201,15.5998649715
-16.9702868168,-14.7803450221,15.4084066518
-16.9513125429,-14.7477606744,15.4783777582
-17.1201749671,-14.9027612459,15.1387920777
-16.9699724457,-14.7312309992,15.454774424
-16.9927937297,-14.7350129429,15.4298848257
-17.0296509002,-14.8129416416,15.3209047479
-17.0112078088,-14.7826479718,15.3658019452
-17.0469899082,-14.8025041449,15.3184036468
-17.026118827,-14.7873108022,15.3480624804
-16.9511641579,-14.6990480297,15.5094955688
-16.9831610031,-14.7225578642,15.4579325377
-16.7868133686,-14.5329655933,15.8555113335
-17.0709414002,-14.8536846348,15.228894343
-16.9748092888,-14.7548175185,15.4198471674
-16.8595350209,-14.6375694463,15.6629298827
-16.7872154033,-14.5794613278,15.8061470714
-16.9834771219,-14.7397491486,15.4581282507
-16.9037674833,-14.6552325714,15.5914982842
-16.9686931959,-14.7084050228,15.4607572441
-16.9871530795,-14.708088227,15.4323970192
-16.9539681653,-14.66586281,15.5464859197
-16.9063002977,-14.626684514,15.6277640556
-17.0667648515,-14.8440853978,15.2377883176
-16.9611403838,-14.7782579526,15.4027113968
-16.8974686253,-14.7246124168,15.5139111008
-16.9047355314,-14.6969768363,15.5246101708
-16.8792069494,-14.6782188235,15.5543365163
-16.9588442339,-14.800318632,15.3865258462
-16.9341341038,-14.7340421888,15.457011783
-16.9752457474,-14.784587442,15.3518361253
-16.83682783,-14.6322380028,15.659090871
-16.8745954374,-14.6784536685,15.5502848888
-16.8791394505,-14.6823619038,15.545656908
-17.0499937166,-14.8385657594,15.2338974351
-16.8645654501,-14.6469689894,15.6002940484
-16.9956203111,-14.7898626223,15.322207855
-16.9133894233,-14.7039892748,15.4823179662
-16.7713404299,-14.5313361602,15.8018988869
-17.0434992145,-14.8293046475,15.2468081537
-17.0949357752,-14.8621416635,15.1403119943
-16.8852119941,-14.5968268867,15.635489906
-16.9787618233,-14.7150514717,15.4265414174
-17.0645493779,-14.7947627643,15.2432031754
-17.0257284456,-14.7323685974,15.3523523866
-17.1076379596,-14.8336532236,15.1695409597
-16.9140105936,-14.5780530152,15.6261060027
-16.9830123878,-14.6506538864,15.4640250212
-16.9350967116,-14.6127647282,15.5432845543
-17.1650667013,-14.8663591527,15.0555503242
-16.9560495635,-14.6751081148,15.4503770855
-16.814304206,-14.566639981,15.7011740887
-17.0075895234,-14.8018290025,15.259067547
-16.9985140562,-14.7967946165,15.2581013746
-16.9930680866,-14.7720949672,15.2666094563
-16.9053777448,-14.7035912569,15.4468505148
-17.0050466021,-14.8256855248,15.2297783392
-16.8387837662,-14.6451290454,15.5857583294
-16.8119753205,-14.6614674148,15.601200484
-16.7221263963,-14.5209657716,15.8476487294
-16.9000268072,-14.693772287,15.5091993202
-16.9228883837,-14.7532573987,15.4049971034
-16.8994942413,-14.6684745707,15.5194140076
-16.8143514127,-14.5671641548,15.711986857
-16.947504258,-14.7150602288,15.4130053987
-16.9333889947,-14.7034476832,15.438877093
-17.0412952727,-14.8581840908,15.1981125175
-16.9649132627,-14.7911544259,15.3235960089
-16.8845669478,-14.7060153554,15.5038352013
-16.9253335498,-14.7281941231,15.4566087042
-17.0026649729,-14.7798745709,15.3597152411
-17.0279427711,-14.8086441457,15.2956287766
-16.8630752938,-14.6459073317,15.6250249291
-16.7987905695,-14.602654449,15.7227483795
-17.0304782783,-14.8624635703,15.2174297183
-16.8967044812,-14.6978022556,15.5252250134
-16.9703971777,-14.7739822817,15.3556466094
-16.888032208,-14.6683513493,15.5579682376
-16.9302173164,-14.7383183864,15.4548072264
-16.8345182472,-14.6056763377,15.6756194926
-17.0728440241,-14.8771272006,15.1423123523
-16.8213249816,-14.5992417345,15.6929035125
-17.0385139301,-14.8424325269,15.2350328842
-16.9428419641,-14.7647460745,15.4081700159
-16.803336898,-14.6000311204,15.7567271144
-17.0616398962,-14.886746389,15.2230022592
-16.8717082253,-14.6756475796,15.6468924517
-16.9178432304,-14.7086594662,15.5657113351
-16.9543630573,-14.7488562194,15.5090268791
-17.1182962877,-14.9098991348,15.1781839723
-16.9798580778,-14.7444013059,15.4938018045
-17.0501695994,-14.8184425842,15.3268801949
-16.9707918241,-14.7361225105,15.4894584025
-16.9365794025,-14.7257425277,15.5250253982
-17.0391312247,-14.812234698,15.3461777916
-16.9912795364,-14.7576530963,15.4240000372
-16.946169937,-14.6992468411,15.528474046
-16.9419895624,-14.7065629659,15.5206042552
-17.0910630849,-14.8787960227,15.1877887475
-16.92707137,-14.6995848378,15.5360126088
-16.9148032478,-14.6911580219,15.5583190823
-16.8919061791,-14.6713508348,15.5986512152
-16.8661761201,-14.5809547466,15.7195087924
-16.912157589,-14.6526710878,15.6050022503
-17.1394853519,-14.8949456796,15.1031758741
-16.9946437811,-14.7178417678,15.4290012705
-16.8338209634,-14.5630022502,15.7689275379
-17.0320401587,-14.832251401,15.2918289143
-16.8327693588,-14.6043730695,15.7426830846
-16.8609506182,-14.6330220886,15.6701804029
-16.7925333475,-14.5729224524,15.8056993985
-16.8852925618,-14.688745061,15.6211856177
-17.0079360107,-14.7936658797,15.4190499228
-16.914007452,-14.7172139244,15.5788350834
-17.0425781373,-14.8730092412,15.2821354831
-17.0083700415,-14.8419860086,15.343432091
-16.9497837101,-14.7687787764,15.4714255779
-16.9433392818,-14.7447407127,15.5046754624
-16.9948680373,-14.7862597308,15.3864992438
-16.8810747918,-14.6719258597,15.6151871125
-16.906832606,-14.6940657398,15.5581853784
-17.0704242524,-14.8815180277,15.198292318
-16.9668700939,-14.7600188097,15.4643688979
-17.032061527,-14.84703823,15.3157084404
-16.9389701395,-14.7581128955,15.4959509546
-17.0440314878,-14.8689006886,15.2820217732
-16.8368944145,-14.6505004007,15.6895917434
-17.0760137076,-14.9073755107,15.1902668567
-17.0631266429,-14.8704344751,15.2348696592
-16.9729986573,-14.7645772047,15.4381041305
-17.0245520763,-14.8162255554,15.3324667662
-17.0094679088,-14.7985136499,15.3675137487
-17.0913202887,-14.9077485692,15.1642843648
-17.0107117277,-14.8465632058,15.3223893532
-16.9976678821,-14.8546451226,15.3270904916
-17.0587800107,-14.9063612281,15.1897256389
-16.9520885837,-14.7916217392,15.4023227334
-17.0001633248,-14.8569900249,15.2895684605
-17.0721375063,-14.9275751165,15.1304684628
-16.9556926567,-14.7752266765,15.3968650252
-16.8902681254,-14.6720391626,15.5674506405
-16.9555959548,-14.7452075359,15.4160293517
-16.8042778063,-14.5513774936,15.7651319683
-16.8917791778,-14.6648241191,15.5769571751
-17.0673909075,-14.8288448528,15.2350715455
-16.9965480458,-14.759625739,15.3724259917
-16.9702519081,-14.7568372033,15.4012482037
-16.940683014,-14.7050132958,15.4827922629
-17.0025927139,-14.8181854438,15.310351865
-16.8722968364,-14.679853009,15.5687960744
-16.9824912049,-14.8159694307,15.2997659818
-16.9253327997,-14.7166153753,15.456029974
-16.8086050782,-14.5955139339,15.6882778214
-16.969915362,-14.7545549841,15.3777864456
-16.8780997239,-14.6471302945,15.5763874775
-17.1006632243,-14.939087729,15.0794188745
-16.871585341,-14.6373913579,15.6504211742
-16.8796229795,-14.629813363,15.6465708184
-16.9333515181,-14.6556709984,15.5724039724
-16.9289727643,-14.6639411985,15.5759401922
-16.9111225078,-14.6557010866,15.5963634984
-17.013869176,-14.7764531642,15.3761403999
-17.0109584759,-14.7847802595,15.3703705996
-16.8424151126,-14.6246635892,15.7138197171
-17.0091547287,-14.7886261697,15.3530220047
-16.9510546102,-14.7180098889,15.4878385308
-17.0316772279,-14.7598799549,15.4090626115
-16.99715714,-14.7530361443,15.462173314
-16.9414615619,-14.7010588307,15.5541935915
-16.9373229593,-14.7116254485,15.5538802268
-16.8880976761,-14.6499376316,15.6655299751
-16.9912521855,-14.7660185891,15.4295914833
-17.0301768947,-14.8497443148,15.3052369056
-16.998917686,-14.7997452799,15.370892176
-16.9015139458,-14.7089538603,15.540206126
-16.933121638,-14.7264491657,15.4780019257
-16.860346058,-14.6319138556,15.6665854774
-16.8615423336,-14.612299913,15.6967992239
-16.8880213664,-14.6220503044,15.6731966698
-16.7924946998,-14.5640845238,15.8239893219
-17.0153211264,-14.8101744635,15.3739230567
-17.0575839726,-14.8592053881,15.277778664
-17.051198237,-14.8374768278,15.2995415357
-17.0189257411,-14.7925137916,15.3843674608
-16.8135230159,-14.5600320466,15.8539785863
-17.0085225401,-14.7978922789,15.3975107484
-17.0205989895,-14.7967817211,15.3867195014
-16.9534153267,-14.7279598513,15.5487099023
-17.0825726439,-14.8814362654,15.254621273
-17.0405331523,-14.8098984765,15.3610450642
-16.9408190785,-14.7562891377,15.5217968364
-16.9317579185,-14.8001970915,15.4888132504
-16.9739831982,-14.8447902113,15.4201179671
-16.8734859214,-14.7304733179,15.6299030973
-16.8018643508,-14.6771340932,15.7422049723
-16.9865748986,-14.8527139704,15.3822792032
-16.8422635397,-14.6777155283,15.710763858
-17.1381869328,-14.9295499297,15.1847466848
-17.0039628211,-14.8017371122,15.4633186225
-16.963542557,-14.7279608765,15.5622722553
-17.1180087933,-14.8612019196,15.265002894
-16.9653385608,-14.7257166117,15.5468683229
-16.9397107899,-14.6858093817,15.6154473899
-17.0194549423,-14.776346834,15.432362242
-16.9876573271,-14.738960351,15.476587389
-17.0749544528,-14.8371583867,15.2594032875
-17.0663792541,-14.8281215702,15.2762119194
-16.9905727183,-14.7390237137,15.4296908309
-17.0747446752,-14.8304921429,15.2467570468
-16.8981341827,-14.6381428395,15.630291051
-17.064098064,-14.832791725,15.253840468
-16.9106271264,-14.6625900331,15.5743503723
-17.112298191,-14.8683953489,15.1549119355
-17.0225508733,-14.7616554952,15.3414527114
-16.9373440606,-14.692623717,15.5021163753
-16.8572176801,-14.6211370532,15.6895977961
-16.9438966853,-14.6982013506,15.5276707346
-16.8556272689,-14.5886432936,15.7251215888
-17.0613221993,-14.7879625516,15.3062074721
-16.9357379587,-14.6561985494,15.5460007669
-16.9639389056,-14.7157048307,15.4510731614
-16.901795757,-14.5998248934,15.6351304684
-16.9472696172,-14.6216510716,15.5744860112
-16.9915869054,-14.6672934189,15.4669195336
-17.0877806663,-14.7704201861,15.2687750917
-16.9393086396,-14.6230057021,15.5643387508
-17.0342986201,-14.770533012,15.3016281586
-16.884948518,-14.6050089088,15.6062614651
-17.0562794434,-14.7685660307,15.2576395473
-16.9868701594,-14.7106893532,15.3929867617
-17.0273006125,-14.7665836149,15.3173857379
-16.9976247766,-14.7415911249,15.3850024015
-17.0110060573,-14.7789345216,15.323978222
-16.8460568928,-14.6003278833,15.6557296162
-16.8025427664,-14.563744607,15.7415896211
-16.9937640626,-14.768380871,15.325716698
-16.9263053706,-14.668795106,15.4932930539
-17.1019440561,-14.8472587036,15.1206846007
-17.1255143886,-14.8657063571,15.0683271013
-17.0555820563,-14.7553977089,15.2567707651
-16.8352049113,-14.4967432702,15.795747355
-16.999083162,-14.6739525103,15.461393374
-17.029552182,-14.7037634235,15.4156864382
-16.9101197744,-14.5812623032,15.6438006664
-17.1424674953,-14.8509185819,15.1286509671
-17.1100131245,-14.8031595449,15.2243050588
-17.0758651381,-14.7826114038,15.2921060979
-17.0040029937,-14.7435816684,15.3931916933
-17.0518538388,-14.8160599081,15.2607128816
-17.0384711231,-14.7933347567,15.2676006788
-16.968320109,-14.74881121,15.3870591774
-16.914724694,-14.7102795406,15.4605889335
-16.7495841234,-14.5348294773,15.8316279911
-16.8660572117,-14.6839490973,15.5583117837
-16.9357761064,-14.7047569186,15.4751056653
-17.0125401006,-14.7910111562,15.3057066994
-17.1600319879,-14.9452367998,14.9855623628
-16.9263338183,-14.7048207195,15.4777289369
-16.860749047,-14.6279970612,15.5982717459
-16.9934657473,-14.7715123016,15.3017179742
-16.9639613965,-14.7240641042,15.3794829638
-16.8876431474,-14.6168112529,15.5618402485
-16.8628077796,-14.5990807469,15.5882569572
-16.9522771732,-14.7036199599,15.3869207385
-16.936493268,-14.6973197669,15.4135332078
-16.9998262458,-14.7389072589,15.309288259
-17.053779831,-14.8191014652,15.1885583601
-16.8323541038,-14.5744346074,15.6674439523
-17.0518562014,-14.8247042338,15.1857687038
-16.8126066078,-14.5669420576,15.6990606088
-17.1368167102,-14.8950435518,15.0365068028
-16.9468520836,-14.7173827383,15.4115386828
-16.955547967,-14.7275546496,15.3849930586
-16.9881904063,-14.7753810482,15.2939066024
-17.0873892677,-14.9212806512,15.0517592729
-16.9353861422,-14.759330639,15.3622101484
-16.8719716147,-14.7057331766,15.4841577172
-16.98226735,-14.8372080718,15.2323858904
-16.9811211174,-14.8020948744,15.2762566798
-17.02404317,-14.8340908463,15.1980679041
-16.838751699,-14.5995832711,15.6315063665
-16.9476156056,-14.7324946925,15.3935255739
-17.0257633907,-14.8102640299,15.2332033539
-16.9538538013,-14.7126885064,15.4133905791
-17.0150099647,-14.8062232004,15.2532552651
-16.9410030906,-14.7127624116,15.4177588561
-16.882569017,-14.6754487746,15.5107425467
-16.7930226052,-14.5972216516,15.6886713531
-16.9787591829,-14.8134346371,15.2775478633
-17.0311604144,-14.8405883231,15.2254852514
-17.0498980202,-14.8905846816,15.1756461916
-16.8987082653,-14.7225242591,15.4950751057
-16.9192580442,-14.740254192,15.4810972593
-16.9260598441,-14.7191667151,15.4862517252
-17.0775794813,-14.8846792758,15.1721967081
-16.942141388,-14.7737778502,15.4329372556
-16.8306525377,-14.6481928559,15.6734668456
-17.0235782137,-14.822653775,15.2856750766
-17.0142545472,-14.8067520332,15.2973822535
-16.9906213922,-14.8032396036,15.3125516389
-16.9034915093,-14.6850476605,15.5048489666
-16.8949289657,-14.7272265912,15.4949940154
-16.831493028,-14.6634051759,15.6263174934
-17.1187321558,-15.0131219831,14.9681242674
-17.1590259574,-15.0091307433,14.9192164784
-17.0549874687,-14.8905311887,15.1497676648
-16.8882032109,-14.6849533534,15.5422461212
-17.0378617766,-14.8579490597,15.2343932173
-16.9056801425,-14.6915373728,15.5321763437
-16.9325495785,-14.6988867268,15.5265791866
-17.060383158,-14.8743652456,15.2284900287
-17.0505537658,-14.8747856282,15.2120397786
-17.0990566953,-14.881037787,15.2013590569
-17.0596434701,-14.8068778855,15.3067471565
-16.9183412875,-14.6173736133,15.6287825651
-16.9049105808,-14.6051982393,15.6533032723
-16.9772157957,-14.6946239604,15.4750663725
-16.9553519132,-14.6548411295,15.5371018031
-16.9722563844,-14.7135787645,15.4516427921
-17.1045772477,-14.8380308608,15.1862550751
-16.9118117918,-14.6365430652,15.5811536606
-16.962223286,-14.7104495303,15.4751388646
-17.0921052916,-14.8759021023,15.1720984896
-16.8865397868,-14.6222022992,15.6422983529
-16.9682576547,-14.7083691849,15.4774140283
-17.1092193177,-14.8666394209,15.1574494339
-17.0090024836,-14.7813898345,15.3500871673
-16.8864977938,-14.6642238609,15.575976793
-17.0095201477,-14.8266127563,15.2837554007
-16.9288540152,-14.7360421013,15.4470111222
-16.9652266581,-14.779573374,15.3577974864
-16.8409669707,-14.6557863138,15.6156519343
-16.847457767,-14.6545966666,15.6101668102
-16.8585541393,-14.6682260195,15.5804693706
-16.8231446005,-14.5916424294,15.6924567163
-16.8544133407,-14.612646857,15.6376904692
-17.023980868,-14.7988522334,15.2749182226
-16.965446777,-14.7335453156,15.4033691695
-17.0275050741,-14.808014469,15.2702653008
-16.843820009,-14.6435416282,15.6476309922
-17.0182013341,-14.8466826277,15.2499952848
-16.9486509437,-14.7475555404,15.4091151122
-16.8971719156,-14.690566376,15.516604394
-16.9953220305,-14.7835909272,15.32857914
-16.9432281835,-14.7330031285,15.4421455307
-17.066896917,-14.8485656561,15.1843272558
-16.9214460682,-14.6924738987,15.5292533924
-16.9524317841,-14.7192183173,15.4637973169
-16.9163305077,-14.6916943284,15.5180816369
-16.9398492291,-14.7309162858,15.454784084
-16.992570064,-14.7745083759,15.3517194166
-17.0001670464,-14.7633822076,15.3531890742
-16.9853694053,-14.7434511456,15.4001856606
-16.9984771108,-14.757562674,15.3676626281
-17.0720677121,-14.8242375618,15.2235826955
-16.9699656397,-14.7424277844,15.4396775263
-17.1298697536,-14.9363374506,15.0954414129
-17.0096147938,-14.8193207719,15.3113055427
-16.8978738749,-14.690663471,15.5608840181
-17.0019508889,-14.7841013769,15.3586281066
-16.8061359763,-14.5579317792,15.7919656578
-16.863834725,-14.6220703769,15.6571748648
-16.9075538374,-14.6744938633,15.5511210942
-16.8723315912,-14.6530633386,15.5916646291
-16.9353932964,-14.7223432882,15.4453184594
-16.9297444076,-14.7051196334,15.455927858
-16.9590252254,-14.7561280319,15.3561184091
-16.8982228486,-14.6953382394,15.4760107608
-16.8513378752,-14.6458118269,15.5915044807
-16.8372842569,-14.6332417408,15.6233122767
-17.123506982,-14.911831691,15.0448190892
-17.0869900559,-14.848043341,15.167352015
-16.9778660282,-14.7086411051,15.4175045579
-16.8316729351,-14.5762330782,15.7048793877
-16.9626662744,-14.7002724791,15.434097036
-17.050807995,-14.7971193033,15.2465960469
-16.9367141323,-14.6877326229,15.5086180444
-16.9142477169,-14.6466412967,15.5661862616
-16.9185712505,-14.6644379587,15.5355348139
-17.0328818916,-14.8087887528,15.283932666
-16.8906685451,-14.6743777209,15.5820187786
-16.9958597007,-14.7638125612,15.3925387252
-16.9827243069,-14.7615400589,15.4097548478
-16.8452855913,-14.6242551267,15.695352173
-16.9267701923,-14.6798682676,15.5536758301
-17.0139505704,-14.7325361556,15.4264109386
-16.8436567849,-14.5682787836,15.7716663984
-17.0336601749,-14.7721119966,15.3489351143
-16.8646971914,-14.5782951352,15.7193730869
-17.0922335602,-14.8079426253,15.2516266144
-16.9548244887,-14.6526452958,15.5357209332
-17.004756339,-14.7063780142,15.4287023327
-16.803975786,-14.5034505567,15.8578800464
-17.1092653373,-14.8453694127,15.2171901908
-17.0734187637,-14.8006404941,15.2839390438
-16.8489511013,-14.5715613883,15.7401767757
-17.025539227,-14.7673955892,15.3639284904
-16.9913828174,-14.7538805065,15.3945137162
-16.9771803788,-14.697320907,15.4615778815
-16.9834304613,-14.7024394948,15.442152202
-16.8600562409,-14.5845345008,15.6921990168
-17.0322900147,-14.7912550456,15.3120605507
-17.0520268253,-14.8139026979,15.2631795328
-16.9338879796,-14.7008673601,15.4842222071
-16.8564067421,-14.6174048519,15.6389205531
-16.9423439422,-14.724628089,15.4396987103
-17.1950408319,-14.9639312362,14.9415576531
-16.8995681125,-14.649519596,15.5769223651
-16.9755063194,-14.7824327226,15.3585165915
-17.0038277898,-14.7760310035,15.3343391481
-16.8358096637,-14.5698167343,15.711498036
-16.9170900133,-14.6719139866,15.5136422688
-17.1442362368,-14.9036698033,15.0464391894
-17.0150547813,-14.7767092559,15.2991162011
-16.94219444,-14.6631659648,15.5153000903
-16.9647543399,-14.659921644,15.4906040748
-17.0023335763,-14.6769897064,15.4205073952
-16.9783623759,-14.6547582867,15.5027998086
-17.055226022,-14.7543126953,15.3242139575
-17.0448389171,-14.7534847935,15.354851354
-17.1608091986,-14.8919608638,15.0787795754
-16.9694065692,-14.6962991832,15.4706239371
-17.061409533,-14.8151180288,15.264605237
-17.0283152886,-14.7843020264,15.3058816309
-16.9956587703,-14.7436803327,15.3769486863
-17.0773566451,-14.8460944039,15.1863276303
-16.9670392011,-14.7328529421,15.3986407088
-16.9318290724,-14.6988307027,15.4804387598
-17.0148684582,-14.8005223374,15.2827176423
-17.0086908159,-14.7944136858,15.2871672227
-17.0345746719,-14.822470968,15.2541169609
-16.9060861732,-14.69542604,15.5209266099
-17.0083377809,-14.8055781469,15.3058423671
-16.9675225385,-14.8134894819,15.3581169913
-16.8964561133,-14.751734192,15.4715829872
-16.8744916311,-14.7576872996,15.4967713869
-16.8818141766,-14.7599460864,15.4676046017
-16.9287904989,-14.8059775067,15.4090020328
-16.8640576635,-14.7139331471,15.5519356666
-16.7942168502,-14.6258051797,15.7025954386
-16.9414057005,-14.7874884767,15.3851411011
-16.7871686101,-14.6076281017,15.7264115352
-17.1053043148,-14.9067962243,15.1041781462
-16.8384715283,-14.6301397499,15.6827484019
-17.0804679027,-14.8692358145,15.2107845444
-16.8625116735,-14.632477729,15.6780181901
-16.8718842091,-14.6623576708,15.6223774739
-16.997617074,-14.7989834819,15.3430881772
-17.0138711114,-14.8020712073,15.316580776
-16.7833950686,-14.5632037525,15.8027806563
-16.906884139,-14.7286662209,15.5230569949
-17.0250944023,-14.8288098076,15.2989403964
-17.051368174,-14.8384617136,15.248569617
-17.0088385014,-14.792585736,15.3361378116
-16.9323341768,-14.7086717809,15.5043281793
-17.0226699006,-14.8064810664,15.3105561417
-16.9712037583,-14.7898955401,15.3919494797
-17.002923429,-14.7936870053,15.3509595884
-17.0087833998,-14.8052433276,15.3124729571
-16.9385008245,-14.7490974615,15.4410273015
-17.0824755876,-14.895804662,15.1391907102
-16.989732842,-14.7759454287,15.3420807773
-16.9370784059,-14.7102248101,15.4450756592
-17.0187627384,-14.819426082,15.2436801834
-16.9366024521,-14.7536529406,15.4161311816
-16.993598027,-14.8296844101,15.3062036432
-16.9692068908,-14.7826467893,15.3801565665
-16.9535506404,-14.7596504905,15.4124312918
-17.0103116104,-14.840314356,15.2814369917
-16.8838522923,-14.7126779249,15.5289632081
-17.0566717123,-14.8902691789,15.1581128601
-17.0147646877,-14.7901468774,15.2990068542
-17.0350505711,-14.7989943738,15.267751995
-16.8973949469,-14.667201203,15.5372744608
-16.914152342,-14.6831842609,15.4832510609
-16.9496736776,-14.7475534924,15.3660774413
-16.9687022761,-14.734650737,15.3783618687
-16.7844364701,-14.5124397305,15.8136183433
-17.0256210877,-14.7861313344,15.2732884448
-16.8059140372,-14.5361735369,15.767115786
-16.9903783024,-14.7556310194,15.3716819634
-17.0081880225,-14.8083594332,15.2963104741
-16.8507712561,-14.6324758636,15.6304453864
-16.9051983969,-14.6812465333,15.5266128221
-17.0977215838,-14.9135541501,15.0858966092
-16.9512865556,-14.7610243997,15.3768638776
-16.9487035209,-14.7583082091,15.3737309038
-16.9279291828,-14.728853753,15.4329855806
-17.0811282451,-14.8708226524,15.1477969656
-16.8332530276,-14.597438149,15.6744682955
-16.9746440793,-14.7625618889,15.3730679741
-17.1009139522,-14.8966150735,15.1073820217
-16.9631024924,-14.7244384434,15.4458428553
-16.9473263962,-14.6922288615,15.5098080619
-16.9327473834,-14.6777372926,15.571667599
-17.0000306487,-14.7864107218,15.4028977
-17.0059799302,-14.8053228569,15.370237978
-16.973852272,-14.7316030091,15.4700999852
-16.8447601291,-14.5917112574,15.7380687762
-17.0167164084,-14.7958786077,15.336402515
-17.0897803983,-14.8868225565,15.1682661491
-17.022124034,-14.8308049807,15.3147709932
-17.0647962568,-14.8155791887,15.289366621
-16.9747174477,-14.7496535728,15.4198090974
-16.9814592008,-14.7141510276,15.4710189659
-16.8743903853,-14.6238227913,15.6623931737
-16.8518176987,-14.6070024026,15.7057605745
-17.0128079323,-14.7763203864,15.3782568803
-16.8802521432,-14.6388496963,15.6376347063
-16.9017033282,-14.6615657634,15.5932431523
-17.0242467005,-14.796328447,15.3280202754
-16.8610629208,-14.6203475886,15.6625979237
-16.9074769872,-14.6826373645,15.561404819
-17.0911319418,-14.9006829934,15.1444655277
-17.1072617767,-14.9266591406,15.1168786516
-17.0139149571,-14.8332761512,15.3160651711
-16.9135046196,-14.719678208,15.5128234113
-16.7548619369,-14.5369711548,15.8761866868
-17.0615796489,-14.9129947733,15.2255030122
-16.9082910797,-14.747055496,15.5399231331
-16.9966765359,-14.8096516526,15.4185417518
-16.8654065472,-14.6535758119,15.6921736163
-16.9871771116,-14.7774711744,15.4316870401
-16.9184136829,-14.7048502891,15.5651839869
-16.9820534031,-14.7656307505,15.4197437389
-16.9374951664,-14.7193381031,15.51133691
-17.0307877526,-14.7939766401,15.3511623981
-17.2657651269,-15.023929775,14.8746857939
-16.8903237671,-14.6377602315,15.6489376317
-17.020489997,-14.8220653992,15.3353326246
-16.9830145234,-14.7984911605,15.3982711483
-16.9941453881,-14.7918742749,15.3924126269
-16.9838984982,-14.8380718117,15.3599571627
-16.8616262324,-14.7197169501,15.6061493027
-16.8820517204,-14.7254788802,15.5734466231
-16.8853159932,-14.7105584327,15.5664048949
-17.0068444631,-14.8703342163,15.2760367221
-16.9000013332,-14.70249899,15.5452280589
-16.8402441671,-14.6219507226,15.6966295506
-16.947024337,-14.7510196674,15.4491625656
-17.068116308,-14.8568289253,15.1992425821
-16.9386112362,-14.730579426,15.4452038483
-16.8173122031,-14.6025494554,15.7033390534
-16.7555679703,-14.5558062063,15.7995043518
-16.9408310647,-14.696024932,15.4660874545
-17.0098932771,-14.7531160115,15.3345673925
-17.0053636087,-14.7580977614,15.3329030401
-17.0822126096,-14.8504269124,15.1685453518
-16.9854343401,-14.7677759184,15.3751149223
-17.0533680008,-14.8348173024,15.2316928095
-16.9557325673,-14.7301234507,15.4162818193
-16.863527812,-14.6381177757,15.6178633749
-16.8716419008,-14.6594005012,15.5995333861
-17.0867767585,-14.8755204473,15.1585246051
-17.0191822071,-14.8283081819,15.2689837703
-16.9736108394,-14.7816095252,15.3498087525
-16.9248250838,-14.740284018,15.4450430879
-17.0659436922,-14.878166369,15.177816506
-17.0114500622,-14.8207062174,15.2882050421
-16.8808929194,-14.6793681278,15.5566955908
-16.9797164144,-14.7630481679,15.3750371236
-16.8313143581,-14.6268873885,15.672015518
-16.9466368958,-14.7589216953,15.421950728
-16.8978579881,-14.6996845333,15.5292488265
-16.9226873042,-14.7375193676,15.4482095984
-16.8631242431,-14.6805955637,15.5771810352
-16.9193878883,-14.716971872,15.5034383749
-16.9774472618,-14.8163122088,15.3498925122
-16.8254982509,-14.667059185,15.6721371782
-16.9681677526,-14.830234157,15.3650685404
-16.990786181,-14.8318731343,15.3495916859
-16.9858637246,-14.801362414,15.3759677086
-16.840837635,-14.643704405,15.702954556
-16.9368970113,-14.7465072877,15.5039600871
-17.0813535529,-14.8948990163,15.2192389789
-17.1295400252,-14.9517529597,15.0787171245
-16.743267409,-14.5092518872,15.9183271492
-16.9196115971,-14.7096811733,15.5424886987
-16.9706199894,-14.7816429107,15.3986424684
-16.9345014182,-14.735042885,15.4708774145
-16.8965473077,-14.6947283412,15.5430390685
-16.9649741176,-14.8091098352,15.3650193973
-16.9682799283,-14.8121177333,15.338975981
-17.0259782025,-14.8652404762,15.2344022583
-16.8545287365,-14.6742308897,15.6033159011
-17.0250163617,-14.8515847879,15.2359796741
-17.08873112,-14.9236588914,15.1025704878
-16.9493894661,-14.7818656007,15.4425457541
-17.0141256,-14.8353850505,15.3054061648
-16.965684623,-14.7941655543,15.4030927156
-16.9411519297,-14.7679792643,15.4359601816
-16.9052638884,-14.6912894419,15.5480382691
-17.00427266,-14.779656156,15.3406747576
-16.9095451807,-14.6577052034,15.58694653
-17.0779802514,-14.8329211936,15.2174827851
-16.9430251002,-14.7276814182,15.4652460205
-17.0649764148,-14.8341681297,15.2615513143
-16.9846158709,-14.7360581994,15.4546851384
-17.0602180517,-14.7977730367,15.2999790376
-16.9675769241,-14.674252548,15.5601125175
-16.9054367402,-14.6225223295,15.6890065239
-16.9269197307,-14.6182172071,15.6618441567
-17.0795304049,-14.8147492422,15.3147583118
-17.0728439718,-14.8571871951,15.260239969
-16.9618369453,-14.7274465858,15.5019275844
-16.9635046765,-14.7015355804,15.5055579817
-17.1229669202,-14.846574219,15.1816499515
-17.0578605584,-14.781058315,15.317310691
-16.8850607815,-14.6328704875,15.6329025187
-17.0153901434,-14.7820771853,15.3486353207
-17.0167904199,-14.8071974983,15.3088656351
-16.9927270752,-14.804148397,15.3488614936
-16.9753295452,-14.78809598,15.3858982975
-16.9561339658,-14.7730132122,15.4430087581
-17.1122389811,-14.9627722251,15.0948040111
-17.1267355697,-15.0240335376,15.0368149359
-17.0366436296,-14.943137025,15.20074034
-16.9063548853,-14.7815933506,15.4893385518
-16.80671159,-14.6642030597,15.6994613751
-16.8817508128,-14.7084995129,15.5650538511
-17.0417238968,-14.8548312359,15.2495159185
-17.0051226582,-14.7859195107,15.340623233
-17.0483680968,-14.8351922184,15.2501889863
-16.9347268939,-14.7456770454,15.4667490282
-16.9461304062,-14.7545414031,15.4312424671
-16.9774541764,-14.7514915244,15.3989237215
-17.0312145961,-14.815018749,15.2771928435
-16.8274657554,-14.5792357962,15.7607555688
-16.9048859292,-14.6673162226,15.5911648001
-16.9938386059,-14.7849475789,15.3879992953
-16.9120488918,-14.6792559579,15.5903382864
-17.0550750778,-14.8198131192,15.3062800119
-17.001248725,-14.7747109277,15.3879251214
-16.8395252007,-14.6011733855,15.7094906112
-16.7868692488,-14.5523728516,15.7933921396
-16.8523814258,-14.6168048268,15.6609759272
-16.7270483897,-14.479314643,15.9479435313
-17.053890052,-14.8796881627,15.2290476878
-16.949481828,-14.760965119,15.4583800309
-16.933712893,-14.7495951931,15.4825764227
-17.0749285487,-14.8645160609,15.2288637317
-17.0783999341,-14.8496206547,15.23553311
-17.1345853053,-14.9247970353,15.0946991281
-16.8394216705,-14.6095909175,15.7198429821
-16.9823465472,-14.7426002321,15.4384064438
-17.0782767928,-14.8337087096,15.2245987545
-16.9603221326,-14.7071131315,15.4666542192
-17.0029150453,-14.7699501397,15.3581299024
-17.0131293326,-14.7606771697,15.3391433727
-16.9832985397,-14.6955113063,15.4296861408
-17.0184750354,-14.7966330024,15.3019856606
-16.990327461,-14.7701194204,15.3470063294
-16.8529553562,-14.6215033751,15.6272918777
-16.9747437703,-14.7361946778,15.4082967906
-17.0779886162,-14.8245968712,15.2295800978
-16.9836622463,-14.7333884411,15.4072580199
-17.0079902037,-14.7810915494,15.3372115809
-16.9492751005,-14.7140246049,15.4595338024
-16.8827641321,-14.6496375368,15.5955328093
-17.0009051656,-14.7832530621,15.332412645
-16.862459874,-14.6061051966,15.6663000473
-16.9182803766,-14.6665838258,15.5635236812
-17.0580117666,-14.8201301564,15.257682914
-17.1912894489,-14.9678353859,14.9574363373
-17.080580947,-14.8250347023,15.2038495104
-16.9064920055,-14.6576566493,15.5411262944
-16.9716867914,-14.6927876586,15.4578769153
-17.0786213971,-14.8145576524,15.2091282733
-17.064691329,-14.8268673003,15.2285422959
-16.98598581,-14.7782708843,15.378421086
-17.1474476218,-14.9301235563,15.0431052579
-16.9525869668,-14.730364644,15.4528935451
-17.0457297784,-14.806090973,15.2670416853
-16.9579396456,-14.716959253,15.4346349521
-16.9233185306,-14.6723278616,15.509583038
-16.9172538159,-14.6638937092,15.5092546229
-17.0018478052,-14.7597817508,15.3288343849
-16.8738622895,-14.6280609981,15.5926971002
-17.0177501588,-14.8137070138,15.2640293788
-16.9417148346,-14.7324511092,15.4120011709
-16.9657297394,-14.7728445188,15.3559434085
-16.8088726379,-14.6055341156,15.6701423503
-16.895304208,-14.7106750805,15.4796969935
-16.8014704437,-14.5838589419,15.698367494
-16.8889193814,-14.6622197973,15.5348782807
-16.9787521484,-14.7863675475,15.3154983309
-17.0598868195,-14.8890368746,15.1166439865
-16.9883946806,-14.7943439353,15.2921423477
-16.8066926706,-14.6280837471,15.6407472625
-17.0639072811,-14.8827596668,15.1187618484
-17.0701082056,-14.8721482632,15.115857714
-16.8824184274,-14.6504490591,15.5302137099
-16.8264824869,-14.5957602052,15.6424831678
-16.9152194809,-14.7136701061,15.4476614638
-16.9671942489,-14.7790931865,15.316575691
-17.0324875773,-14.8320272241,15.2527509601
-16.9384604492,-14.7305017032,15.4641132177
-16.7927482301,-14.5818588794,15.7657108024
-17.0190341642,-14.8093393663,15.2897974368
-16.8615847212,-14.6514007894,15.6061575113
-17.0027043275,-14.8093562159,15.321768646
-16.8515764555,-14.6471137852,15.6258193025
-16.9776633774,-14.7753733657,15.3503905411
-16.8466945738,-14.6393574705,15.6045412111
-16.9510875008,-14.7340486346,15.4073753774
-17.0342276711,-14.8456258403,15.220481579
-17.0384661416,-14.8494614664,15.2255815761
-16.7740110514,-14.5395214993,15.8067625648
-17.0023136415,-14.7570262682,15.3519795367
-17.1035623727,-14.8746682181,15.1292035487
-16.873063756,-14.642173265,15.6124000163
-16.9761502508,-14.7233500959,15.415262683
-16.9576300525,-14.6852643827,15.4731417082
-17.0451710209,-14.7938513432,15.2568994297
-16.9560233101,-14.7449476429,15.3863199437
-17.0512838354,-14.8268742595,15.1970281313
-16.9400166819,-14.6992205417,15.4255750278
-16.9365028564,-14.6913646785,15.4615078346
-16.866749766,-14.6440609939,15.5788939658
-17.0676767075,-14.833023139,15.1861965021
-17.1146611112,-14.9317827751,15.0509726085
-17.0424275282,-14.8342042147,15.2238558145
-16.7798399764,-14.5167655346,15.8142154013
-16.8453526721,-14.5908098905,15.6621678204
-17.0107878037,-14.7837033784,15.2984635059
-16.9258640958,-14.6791546836,15.4889710447
-17.0147406495,-14.7664997572,15.3080244585
-16.8620800353,-14.6389249313,15.5863347635
-16.9223286136,-14.7193634874,15.438905542
-16.8542765947,-14.635169457,15.5735764713
-16.9933402253,-14.7787634441,15.2711949376
-16.8819081035,-14.6495762369,15.5329757287
-16.9815135271,-14.7326535118,15.3177764302
-17.0352426582,-14.7638284627,15.2196621425
-16.9277771265,-14.6689073368,15.4515739374
-16.9762634272,-14.6981335038,15.3970452231
-16.9678301195,-14.6640194063,15.4282857611
-16.9227526988,-14.6207571836,15.5058783592
-16.9481117151,-14.6523431663,15.4535746644
-16.8882095777,-14.6088104386,15.5627064628
-17.0239106588,-14.7719708356,15.2691785693
-16.8886510529,-14.6566612064,15.5253166079
-16.929131565,-14.7024174651,15.4683477235
-16.8734740835,-14.6588865956,15.5710714483
-16.8881935609,-14.7017762081,15.5012779678
-16.933180964,-14.7447855752,15.3941011446
-16.9900676868,-14.7992722034,15.2729783044
-16.7401425918,-14.5206209496,15.8140245085
-16.8785903484,-14.6493428148,15.5521041543
-16.9418548622,-14.7131354568,15.409517801
-16.8105174369,-14.5574456085,15.7065750591
-16.9507965493,-14.7201461187,15.3880121644
-16.7515563068,-14.5078907049,15.8183379869
-16.935904512,-14.6931165095,15.4459204882
-16.9697781544,-14.7048175928,15.4246990912
-16.9805557285,-14.7127456723,15.3997614405
-16.9618937565,-14.7373691567,15.4068468055
-16.9364926801,-14.7259393215,15.4348194876
-16.8796671629,-14.6634010337,15.5686347236
-17.0019290263,-14.7830883553,15.3266123594
-17.0224825584,-14.785133068,15.287069814
-16.9913479641,-14.7213172947,15.4066293342
-16.9578250973,-14.738369387,15.415636716
-16.905291221,-14.6758343457,15.5349093171
-17.0241711792,-14.7815015158,15.3149536096
-16.9486245018,-14.6986109525,15.4848673338
-17.1531354965,-14.9591735573,15.0165106821
-16.9553936645,-14.7613220646,15.4401704994
-17.1480526927,-14.9474034728,15.0916671133
-17.1034362751,-14.8962642142,15.1629045264
-17.088873272,-14.8828043817,15.1775786404
-16.9121585017,-14.6546391975,15.5739188499
-17.062917025,-14.7994302036,15.275524539
-16.8734441715,-14.6174384326,15.650310332
-16.9417260867,-14.7087668262,15.4816741832
-17.0187075052,-14.7971055625,15.3016038378
-16.8219578294,-14.574910828,15.7339358025
-16.9485379022,-14.7123540336,15.4453877485
-16.8793316297,-14.6423863507,15.5751787774
-17.023661774,-14.7833203538,15.2885597952
-16.878032523,-14.6202687469,15.583685818
-17.0653261203,-14.8310436658,15.1726907701
-17.1297005641,-14.9190705684,15.0352753667
-16.8662445649,-14.638631516,15.6178940704
-17.0189862128,-14.7702070426,15.3225545992
-17.0471721507,-14.7976628322,15.2509445721
-16.9329366685,-14.7115074901,15.4664273208
-17.1069062863,-14.8820688979,15.1113111276
-16.8672405791,-14.5667700862,15.6767435061
-16.8475803085,-14.5548847263,15.7023695571
-16.9966395027,-14.7047378245,15.4011814127
-16.9925531717,-14.6959676213,15.4072207774
-16.9759544921,-14.7091816837,15.39510628
-16.9573810091,-14.7076424166,15.3980143598
-16.9277187269,-14.6933686,15.462673797
-16.9466157233,-14.7290313082,15.4041882745
-17.021088098,-14.7844761792,15.2543889968
-16.9657018654,-14.7668362253,15.3413743664
-16.8581071863,-14.6352047071,15.600285593
-16.8716269832,-14.6690616464,15.5567288527
-17.0098060286,-14.8312997526,15.2590254531
-16.9146481452,-14.6773121397,15.523923966
-16.9606396778,-14.7360688961,15.4038514283
-16.8520289305,-14.6643601938,15.5862964637
-16.9457782905,-14.7548749577,15.4022451229
-16.7001548579,-14.5108593638,15.9211151359
-16.9209367123,-14.7081512284,15.481069978
-16.9493474074,-14.728654936,15.4186115715
-16.8939838585,-14.6606293601,15.5230190951
-16.941626506,-14.6619270929,15.5110735052
-17.1684868056,-14.9333701933,15.0054183942
-17.102034778,-14.8874333605,15.1091840592
-16.9690622612,-14.7168771707,15.3914435517
