-0.0985943520342812,0.09715237202019691,-0.020530635924259383
-0.671160762936,-0.577586442243,0.679469364076
-0.838106994866,-0.573101001622,0.679469364076
-0.806977848668,-0.701908355961,0.679469364076
-0.840224200162,-0.723612495972,0.779469364076
-0.918035112526,-0.673800244955,0.679469364076
-0.805235027701,-0.629633759027,0.779469364076
-0.869674149894,-0.648082904295,0.679469364076
-0.903076269761,-0.533721177825,0.679469364076
-0.92249628244,-0.616584409338,0.779469364076
-0.848302547355,-0.548879721948,0.879469364076
-0.956813942283,-0.717508680274,0.779469364076
-0.926195781686,-0.64410176318,0.779469364076
-0.896706523882,-0.692317350941,0.679469364076
-0.821606924139,-0.53907008743,0.679469364076
-0.832497247628,-0.715845189046,0.679469364076
-0.744842301133,-0.564678073857,0.779469364076
-0.830738737358,-0.681308916695,0.679469364076
-0.874929135023,-0.606042743826,0.679469364076
-0.852274855494,-0.647063725558,0.779469364076
-0.865695274463,-0.63356999986,0.679469364076
-0.869408861431,-0.702603852358,0.679469364076
-0.911992616754,-0.622098442734,0.679469364076
-0.936667609035,-0.699763391736,0.679469364076
-0.920739387857,-0.716180187337,0.679469364076
-0.874820829223,-0.769471386245,0.779469364076
-0.839120590306,-0.701659938413,0.779469364076
-0.808770557278,-0.688949414668,0.879469364076
-0.870286333487,-0.715195931946,0.779469364076
-0.957478846795,-0.742724419963,0.679469364076
-0.778540512682,-0.693150526613,0.679469364076
-0.774268188451,-0.556784696667,0.779469364076
-0.82408526652,-0.702108549855,0.679469364076
-0.763595560841,-0.630223454728,0.779469364076
-0.869922748422,-0.497144467816,0.779469364076
-0.765508031599,-0.670658177438,0.779469364076
-0.85717778673,-0.655079582698,0.679469364076
-0.8229328421,-0.652195425969,0.779469364076
-0.800061644761,-0.677697821669,0.679469364076
-0.883932656008,-0.581402415838,0.679469364076
-0.735616458859,-0.68971955447,0.779469364076
-0.869621526567,-0.695622697125,0.679469364076
-0.942093736336,-0.536796044382,0.679469364076
-0.901027252471,-0.649334734077,0.579469364076
-0.928851815646,-0.561028435779,0.679469364076
-0.753817679508,-0.724606456307,0.679469364076
-0.779923144621,-0.610581213296,0.779469364076
-0.760765314532,-0.581963561483,0.779469364076
-0.895783612971,-0.675438930967,0.579469364076
-0.764020288167,-0.661375678222,0.679469364076
-0.810858188003,-0.641326419746,0.679469364076
-0.802355301676,-0.62468818889,0.779469364076
-0.824188678937,-0.609570057883,0.679469364076
-0.771960866297,-0.691835716082,0.679469364076
-0.795964453811,-0.707435419695,0.679469364076
-0.929235247464,-0.488564396432,0.679469364076
-0.800981837321,-0.658286366305,0.679469364076
-0.856686572924,-0.610771658926,0.779469364076
-0.890369523034,-0.605791026362,0.679469364076
-0.84823263936,-0.686172842526,0.579469364076
-0.76699999416,-0.633942909513,0.679469364076
-0.733361382862,-0.657313069165,0.679469364076
-0.785652967959,-0.541802011143,0.679469364076
-0.7282887968,-0.648239977061,0.679469364076
-0.882653009293,-0.733214378787,0.579469364076
-0.803586528024,-0.656904429082,0.779469364076
-0.775997531948,-0.609493861586,0.679469364076
-0.84005708631,-0.596800563614,0.679469364076
-0.972511465019,-0.667548057018,0.579469364076
-0.718661539768,-0.661724591113,0.779469364076
-0.780722751096,-0.668060377057,0.779469364076
-0.847407733253,-0.75930840995,0.679469364076
-0.927300038319,-0.68815076753,0.779469364076
-0.786022641164,-0.713956592463,0.779469364076
-0.741387353175,-0.670648099808,0.879469364076
-0.953029118506,-0.648722890147,0.779469364076
-0.808975460354,-0.737370310071,0.679469364076
-0.847275639604,-0.640561148204,0.779469364076
-0.828119419404,-0.698861459244,0.679469364076
-0.823657963383,-0.621998755287,0.779469364076
-0.770129595899,-0.630349600374,0.779469364076
-0.808450984376,-0.652342517095,0.879469364076
-0.783692998283,-0.596314250781,0.779469364076
-0.900420390281,-0.620499469911,0.679469364076
-0.825784512577,-0.66314609685,0.779469364076
-0.806940375837,-0.671071017214,0.679469364076
-0.835364122228,-0.716298761239,0.679469364076
-0.916728606212,-0.628483084685,0.679469364076
-0.875995952048,-0.637954047839,0.779469364076
-0.920734652132,-0.686838860947,0.779469364076
-0.831873089024,-0.792726685301,0.779469364076
-0.850994254287,-0.801310217026,0.679469364076
-0.835867064374,-0.583879908787,0.779469364076
-0.847256378175,-0.653372846462,0.779469364076
-0.897926257773,-0.537934559292,0.779469364076
-0.856271769926,-0.602615493104,0.679469364076
-0.822028743695,-0.640899613996,0.779469364076
-0.885408120782,-0.622765216542,0.679469364076
-0.83528702087,-0.711670199406,0.679469364076
-0.849140191994,-0.666237386771,0.679469364076
-0.758544604108,-0.712475765327,0.679469364076
-0.776894231574,-0.612330165859,0.679469364076
-0.816674965004,-0.589399051609,0.679469364076
-0.775617718898,-0.634399168574,0.779469364076
-0.824128043145,-0.611867687603,0.679469364076
-0.852929124271,-0.601727944811,0.679469364076
-0.851465902488,-0.583839596171,0.679469364076
-0.788290636947,-0.718716232282,0.579469364076
-0.813766477436,-0.636797801529,0.779469364076
-0.824104959591,-0.707073722588,0.679469364076
-0.776955090885,-0.721888658746,0.579469364076
-0.771208917708,-0.674863022356,0.679469364076
-0.833270033118,-0.644326386517,0.679469364076
-0.882707077519,-0.657934693569,0.679469364076
-0.798945548965,-0.716218454807,0.779469364076
-0.885813721273,-0.641540235167,0.779469364076
-0.7816163518,-0.639013393155,0.679469364076
-0.766169657434,-0.564066569165,0.679469364076
-0.75778300768,-0.603869623806,0.779469364076
-0.903962376027,-0.622046285512,0.679469364076
-0.865349951678,-0.663776796945,0.779469364076
-0.807711713811,-0.597015440192,0.779469364076
-0.789137290416,-0.628625867055,0.779469364076
-0.909269827245,-0.770216334882,0.679469364076
-0.938961497824,-0.65664968422,0.679469364076
-0.824488002206,-0.6012532571,0.779469364076
-0.842866741449,-0.654296231116,0.679469364076
-0.822112829411,-0.596056308785,0.779469364076
-0.760328079955,-0.657148985367,0.779469364076
-0.882580842676,-0.708501345326,0.779469364076
-0.899429721841,-0.63290572897,0.779469364076
-0.864023313247,-0.729783928779,0.779469364076
-0.958406631107,-0.663264015691,0.679469364076
-0.88596751569,-0.671436361569,0.779469364076
-0.900086260098,-0.702817759128,0.679469364076
-0.869611899877,-0.57008706823,0.779469364076
-0.782096070049,-0.679431060725,0.779469364076
-0.861200679824,-0.702507154498,0.679469364076
-0.784074628982,-0.559190057114,0.779469364076
-0.855672006528,-0.708754269122,0.679469364076
-0.974160825347,-0.679283204448,0.679469364076
-0.853232318797,-0.69112184397,0.679469364076
-0.78169547525,-0.682419797203,0.779469364076
-0.829996487578,-0.753415817825,0.679469364076
-0.933561668998,-0.702391108347,0.679469364076
-0.848813170707,-0.649506014975,0.779469364076
-0.801362514706,-0.67145387461,0.879469364076
-0.881919193625,-0.68110049553,0.679469364076
-0.815968244909,-0.669529207474,0.679469364076
-0.682909435826,-0.701307439258,0.679469364076
-0.831639042627,-0.613796860002,0.679469364076
-0.816821613433,-0.703350637815,0.679469364076
-0.89241390391,-0.535013074026,0.679469364076
-0.835670909301,-0.632889519975,0.779469364076
-0.861679291187,-0.719271051096,0.579469364076
-0.804301212728,-0.677427872266,0.679469364076
-0.795823219454,-0.67116670587,0.779469364076
-0.911692584935,-0.657826969329,0.679469364076
-0.810124775362,-0.609209823138,0.779469364076
-0.91755106221,-0.567986760929,0.779469364076
-0.866617000824,-0.765629922631,0.679469364076
-0.856404773813,-0.736686746302,0.679469364076
-0.841492903951,-0.740323211226,0.679469364076
-0.806578469841,-0.63233833375,0.679469364076
-0.80281524677,-0.64181633844,0.579469364076
-0.728639149882,-0.589914379356,0.679469364076
-0.91531730417,-0.671361311288,0.679469364076
-0.844962664698,-0.728253488489,0.679469364076
-0.904508665231,-0.650369943893,0.679469364076
-0.951753589012,-0.642494519338,0.679469364076
-0.867936952447,-0.766622697399,0.679469364076
-0.88235397589,-0.737353097198,0.779469364076
-0.783459980034,-0.714293949459,0.779469364076
-0.768685616507,-0.673688842293,0.679469364076
-0.840924770028,-0.674071590742,0.679469364076
-0.861825486356,-0.633696375689,0.779469364076
-0.803587427118,-0.686568403612,0.779469364076
-0.843972007671,-0.687657415169,0.779469364076
-0.892224847981,-0.646828728677,0.779469364076
-0.86634256719,-0.646382698438,0.779469364076
-0.833031429843,-0.712902850278,0.679469364076
-0.879271721503,-0.65966785542,0.679469364076
-0.810853781058,-0.638697206244,0.679469364076
-0.751117676698,-0.656996653395,0.679469364076
-0.792552883693,-0.65938350637,0.779469364076
-0.818896614479,-0.614065427141,0.679469364076
-0.778412801406,-0.67691693845,0.679469364076
-0.820752761028,-0.771292796717,0.679469364076
-0.8705853822,-0.724421292367,0.679469364076
-0.769635243395,-0.60279020142,0.779469364076
-0.844768887778,-0.56803157117,0.779469364076
-0.888196454937,-0.601450706564,0.779469364076
-0.849958094384,-0.699005603908,0.679469364076
-0.823564023412,-0.688537922337,0.679469364076
-0.953074179936,-0.597268251132,0.679469364076
-0.894770349473,-0.66660509085,0.679469364076
-0.850070297939,-0.662825744062,0.779469364076
-0.918421554349,-0.718665961904,0.579469364076
-0.826505566027,-0.669718010905,0.779469364076
-0.828064768902,-0.725813456462,0.679469364076
-0.843818228016,-0.625010438886,0.779469364076
-0.779571085864,-0.614401873289,0.779469364076
-0.857298557498,-0.758742163255,0.579469364076
-0.813894376931,-0.703463462696,0.679469364076
-0.757212744776,-0.669393446205,0.679469364076
-0.818754325724,-0.640445005538,0.679469364076
-0.908262986135,-0.605888647068,0.679469364076
-0.856453788958,-0.670716178671,0.679469364076
-0.796650624691,-0.617147574728,0.779469364076
-0.770143767115,-0.672996035289,0.679469364076
-0.665961973431,-0.662269379934,0.779469364076
-0.793077661304,-0.618506603606,0.679469364076
-0.72681325899,-0.732820791526,0.679469364076
-0.830465234971,-0.666725724646,0.779469364076
-0.863234568,-0.584148820943,0.779469364076
-0.796164022204,-0.63361716429,0.779469364076
-0.918580163854,-0.725241077241,0.779469364076
-0.876969219941,-0.61655605878,0.779469364076
-0.954878991735,-0.641158292543,0.679469364076
-0.905643047158,-0.620514603429,0.779469364076
-0.861658626836,-0.587523489718,0.779469364076
-0.916568859029,-0.676320430202,0.679469364076
-0.823326107517,-0.72054796368,0.679469364076
-0.801302672919,-0.709409443072,0.579469364076
-0.847693228647,-0.578379198676,0.679469364076
-0.912640690767,-0.621829836062,0.679469364076
-0.817535367548,-0.653855854585,0.679469364076
-0.903241417018,-0.68273603572,0.779469364076
-0.900666625256,-0.725918462561,0.679469364076
-0.819873320383,-0.611970163376,0.779469364076
-0.795780975327,-0.653051183528,0.679469364076
-0.79087447724,-0.712747730059,0.779469364076
-0.882629560649,-0.664543114536,0.679469364076
-0.788608803382,-0.698936672243,0.679469364076
-0.836778206693,-0.699773345382,0.679469364076
-0.842042745764,-0.679122162872,0.679469364076
-0.854914619284,-0.655532339973,0.679469364076
-0.825312255315,-0.660345907082,0.779469364076
-0.907977315202,-0.734420310572,0.779469364076
-0.830300327968,-0.718965563944,0.779469364076
-0.934366816134,-0.647294780861,0.779469364076
-0.812613516851,-0.691591831797,0.679469364076
-0.831255250908,-0.681032841791,0.779469364076
-0.882607339257,-0.677806016854,0.679469364076
-0.917010250898,-0.65563429996,0.679469364076
-0.85476379608,-0.73850246968,0.679469364076
-0.883176604467,-0.709035008768,0.679469364076
-0.887194443944,-0.574578143016,0.679469364076
-0.745978709352,-0.594542309232,0.779469364076
-0.795108219602,-0.593681090828,0.679469364076
-0.924895642538,-0.569964447216,0.679469364076
-0.848413661963,-0.794479315728,0.679469364076
-0.835799348887,-0.676427395541,0.679469364076
-0.828880300011,-0.639201321993,0.779469364076
-0.787749808727,-0.613998450106,0.779469364076
-0.896462454375,-0.715638733611,0.679469364076
-0.877154956293,-0.636068999387,0.679469364076
-0.728868375405,-0.580251588102,0.779469364076
-0.823748960895,-0.672383749024,0.679469364076
-0.905670671559,-0.666363538284,0.679469364076
-0.751491928437,-0.696357086053,0.779469364076
-0.775607864142,-0.553148484384,0.779469364076
-0.866303515172,-0.737057199313,0.679469364076
-0.868081823527,-0.673901164073,0.679469364076
-0.839163998761,-0.776036916727,0.679469364076
-0.860845299437,-0.607075135408,0.679469364076
-0.794076838942,-0.57997965778,0.679469364076
-0.851059150091,-0.585561304676,0.679469364076
-0.866673924983,-0.675187513315,0.679469364076
-0.761837873887,-0.627670262216,0.679469364076
-0.836707466607,-0.591164879801,0.779469364076
-0.835100008141,-0.614674593252,0.679469364076
-0.799225028813,-0.60169903432,0.779469364076
-0.768376480251,-0.747919901226,0.679469364076
-0.818106718346,-0.673951169544,0.779469364076
-0.866765785729,-0.621377214042,0.679469364076
-0.784217230058,-0.680619995255,0.679469364076
-0.853587481711,-0.707589100553,0.679469364076
-0.927544503583,-0.732232125102,0.679469364076
-0.823808044484,-0.632032127171,0.779469364076
-0.752884743791,-0.6435681164,0.679469364076
-0.80283646886,-0.719719578161,0.679469364076
-0.792309868918,-0.661667228808,0.679469364076
-0.833759953274,-0.726475955662,0.679469364076
-0.787530696689,-0.734306794561,0.779469364076
-0.885497486778,-0.684219941666,0.679469364076
-0.807282953766,-0.686031936286,0.679469364076
-0.782808442053,-0.684934358777,0.679469364076
-0.798218823893,-0.812923434518,0.579469364076
-0.713932617126,-0.601996475372,0.779469364076
-0.852896953573,-0.636350485517,0.679469364076
-0.771680939452,-0.722526036789,0.779469364076
-0.829451283636,-0.729034061307,0.679469364076
-0.806939830501,-0.610055851454,0.779469364076
-0.868038275976,-0.642622166321,0.679469364076
-0.905722130541,-0.608656705344,0.779469364076
-0.85118314773,-0.626726360647,0.779469364076
-0.836199900555,-0.487513181053,0.879469364076
-0.787633245183,-0.688171165739,0.779469364076
-0.914549206645,-0.689224533024,0.579469364076
-0.797184868814,-0.595101127481,0.679469364076
-0.745654605565,-0.578149203005,0.779469364076
-0.8647523327,-0.665055346974,0.679469364076
-0.735453599832,-0.586519340005,0.679469364076
-0.755716897105,-0.64110457185,0.679469364076
-0.823485164249,-0.627274990628,0.579469364076
-0.875131722183,-0.677441968879,0.779469364076
-0.872265167336,-0.669500714667,0.779469364076
-0.871261256735,-0.594615468591,0.679469364076
-0.816411346657,-0.703070707379,0.679469364076
-0.861925981436,-0.630302179045,0.879469364076
-0.83022649253,-0.582693198007,0.779469364076
-0.847748231959,-0.625961512102,0.679469364076
-0.766422160457,-0.530393215034,0.779469364076
-0.82500476581,-0.651300680372,0.779469364076
-0.849124423427,-0.689764498377,0.679469364076
-0.861249498362,-0.660140503078,0.779469364076
-0.840798197805,-0.570550539059,0.779469364076
-0.884617105669,-0.62493552161,0.779469364076
-0.900278618603,-0.619488524733,0.779469364076
-0.858614683281,-0.712420575201,0.779469364076
-0.907681745024,-0.703382186387,0.679469364076
-0.818963103872,-0.684155381076,0.679469364076
-0.832372778006,-0.636818393233,0.679469364076
-0.862597668022,-0.639705760435,0.879469364076
-0.934932543452,-0.677371923127,0.679469364076
-0.857223991083,-0.665388558703,0.679469364076
-0.827061979399,-0.645158195049,0.679469364076
-0.81356969983,-0.586901118661,0.679469364076
-0.819273716365,-0.576055697644,0.779469364076
-0.840591258826,-0.6421664028,0.679469364076
-0.816765132835,-0.667177978094,0.579469364076
-0.881211593027,-0.67968037904,0.779469364076
-0.937709863131,-0.65325988948,0.779469364076
-0.814476735318,-0.680776929857,0.679469364076
-0.820347674005,-0.676626220619,0.679469364076
-0.663737392104,-0.712648824385,0.679469364076
-0.859470498248,-0.716400124712,0.579469364076
-0.868557114235,-0.58437710472,0.779469364076
-0.798563511256,-0.638794605937,0.679469364076
-0.893042603393,-0.584365060038,0.779469364076
-0.851720484194,-0.636080385612,0.679469364076
-0.837907648154,-0.608756403387,0.679469364076
-0.855186145516,-0.610536523978,0.679469364076
-0.786684763957,-0.701210851786,0.679469364076
-0.710811878022,-0.785218903109,0.679469364076
-0.784468164444,-0.708575731842,0.679469364076
-0.768743361151,-0.678176366085,0.679469364076
-0.806676518006,-0.682573616233,0.679469364076
-0.872723290532,-0.708904738266,0.679469364076
-0.89810178463,-0.767069466471,0.679469364076
-0.863006163354,-0.750793308777,0.679469364076
-0.838970183796,-0.634223576032,0.779469364076
-0.900244752147,-0.702362597717,0.679469364076
-0.770838666895,-0.625514462138,0.779469364076
-0.830244437434,-0.587207787718,0.779469364076
-0.878110468681,-0.58899249023,0.679469364076
-0.848637284251,-0.584283851319,0.679469364076
-0.800650799612,-0.681872912593,0.679469364076
-0.808086095387,-0.516603478645,0.779469364076
-0.835179640123,-0.714688814281,0.679469364076
-0.835573757065,-0.579239600309,0.779469364076
-0.857692454937,-0.553502752032,0.679469364076
-0.921990127016,-0.701970831364,0.679469364076
-0.916218932863,-0.665409768278,0.579469364076
-0.832676256841,-0.606706476729,0.679469364076
-0.771894904987,-0.61330064865,0.779469364076
-0.798350832432,-0.642850330369,0.679469364076
-0.795352755156,-0.600317006451,0.679469364076
-0.792384083748,-0.606477553903,0.679469364076
-0.764020823538,-0.690303196936,0.679469364076
-0.747614533996,-0.671522159179,0.779469364076
-0.835828785337,-0.533310415367,0.679469364076
-0.813089245946,-0.67720764378,0.679469364076
-0.809235678948,-0.624239596683,0.779469364076
-0.824923317948,-0.581287929806,0.679469364076
-0.749827110916,-0.680345368792,0.779469364076
-0.886582696764,-0.668046337373,0.779469364076
-0.795439600149,-0.718587253523,0.779469364076
-0.698136496943,-0.587950632846,0.779469364076
-0.855661885464,-0.615153877028,0.579469364076
-0.811798297893,-0.598503296861,0.679469364076
-0.702238204115,-0.552728987867,0.779469364076
-0.780393615732,-0.686897041177,0.679469364076
-0.928133517027,-0.606395082224,0.679469364076
-0.901567101555,-0.612024187215,0.879469364076
-0.885307434289,-0.668279733209,0.679469364076
-0.835088278092,-0.652449073159,0.679469364076
-0.873107574869,-0.705494942557,0.579469364076
-0.933917309123,-0.598334697616,0.679469364076
-0.869123601232,-0.697331441269,0.779469364076
-0.916414779299,-0.685154375944,0.679469364076
-0.855584043538,-0.779839535072,0.679469364076
-0.824340376451,-0.652357561705,0.779469364076
-0.86198163861,-0.747823846378,0.779469364076
-0.871577026152,-0.694518780116,0.679469364076
-0.83340255281,-0.596259961854,0.679469364076
-0.862899447019,-0.59832736252,0.679469364076
-0.73108735895,-0.771876524187,0.779469364076
-0.846190833905,-0.686966111735,0.679469364076
-0.834333718836,-0.663002311074,0.779469364076
-0.858699491431,-0.63458031263,0.679469364076
-0.836756160731,-0.578881098541,0.779469364076
-0.850254187315,-0.701281556573,0.679469364076
-0.781955648418,-0.735976133257,0.679469364076
-0.901442462264,-0.710405617837,0.679469364076
-0.756893519676,-0.724010514614,0.879469364076
-0.889628525488,-0.612138360014,0.779469364076
-0.827997555166,-0.633716212438,0.779469364076
-0.887278756086,-0.603530123484,0.779469364076
-0.888055993904,-0.647810103253,0.679469364076
-0.708288347818,-0.621504348048,0.779469364076
-0.861985013053,-0.672180654494,0.779469364076
-0.810437684972,-0.661183322608,0.879469364076
-0.762837069498,-0.628937581606,0.879469364076
-0.942295369828,-0.694141728295,0.679469364076
-0.846048334839,-0.684723732227,0.779469364076
-0.851457530619,-0.759956520024,0.679469364076
-0.817763122793,-0.693026006905,0.779469364076
-0.897291876805,-0.677932575566,0.779469364076
-0.858996736563,-0.715589100074,0.779469364076
-0.80228241765,-0.654743616838,0.779469364076
-0.84304093112,-0.684623064646,0.679469364076
-0.75151733971,-0.581184870413,0.779469364076
-0.864100984559,-0.597113488675,0.679469364076
-0.783495744885,-0.71461547557,0.679469364076
-0.743602354716,-0.693626169419,0.679469364076
-0.849704806958,-0.615933391465,0.679469364076
-0.865154844229,-0.628204001531,0.679469364076
-0.741755333327,-0.600022465783,0.779469364076
-0.786652838486,-0.584787670378,0.679469364076
-0.870459539288,-0.519283988232,0.679469364076
-0.813882283038,-0.723700041563,0.679469364076
-0.827976881533,-0.647051563012,0.679469364076
-0.93716400137,-0.517960041865,0.679469364076
-0.764743171651,-0.694140381537,0.679469364076
-0.770907975287,-0.715845898368,0.779469364076
-0.80101315442,-0.733588317095,0.679469364076
-0.874638060989,-0.717127618771,0.779469364076
-0.895971171357,-0.670806436921,0.779469364076
-0.863235400126,-0.790449223729,0.679469364076
-0.952624180961,-0.728783669777,0.779469364076
-0.95938183432,-0.705909559761,0.679469364076
-0.840025757369,-0.616659236529,0.779469364076
-0.858752280169,-0.685697008238,0.679469364076
-0.937637105931,-0.67751514999,0.679469364076
-0.961687180726,-0.668291666344,0.679469364076
-0.713365423599,-0.666786502461,0.779469364076
-0.833021264444,-0.734953876203,0.679469364076
-0.84658351563,-0.743195281283,0.779469364076
-0.922039109776,-0.739111002202,0.679469364076
-0.90347602383,-0.702670588129,0.779469364076
-0.942906952998,-0.628150466685,0.679469364076
-0.83164047799,-0.708186161611,0.779469364076
-0.857439813344,-0.6701110225,0.679469364076
-0.781210911076,-0.630622404413,0.779469364076
-0.734381641343,-0.662066050948,0.779469364076
-0.753036057978,-0.608479563992,0.779469364076
-0.858846067887,-0.716614854652,0.679469364076
-0.692077462627,-0.636476747334,0.779469364076
-0.784301715498,-0.657100777526,0.779469364076
-0.852991282994,-0.580736115946,0.679469364076
-0.812180437212,-0.701354210797,0.679469364076
-0.80343340175,-0.698004759004,0.679469364076
-0.95505069827,-0.657116481847,0.679469364076
-0.913490806058,-0.684802177287,0.779469364076
-0.94164206259,-0.59692196005,0.779469364076
-0.858553653783,-0.757341333802,0.679469364076
-0.849986857449,-0.689124487288,0.679469364076
-0.833605079314,-0.717188200843,0.679469364076
-0.878698901278,-0.693134387762,0.579469364076
-0.864547291727,-0.598122060955,0.679469364076
-0.746257118697,-0.692105292075,0.679469364076
-0.812044139353,-0.543341680112,0.679469364076
-0.767997967739,-0.666854490176,0.679469364076
-0.720313619354,-0.602761569875,0.679469364076
-0.785521792255,-0.729267711839,0.679469364076
-0.777953565341,-0.635769933971,0.679469364076
-0.876562793482,-0.644324019813,0.679469364076
-0.865430247096,-0.712940733876,0.679469364076
-0.82471187649,-0.722930215105,0.779469364076
-0.865884843091,-0.751408184631,0.679469364076
-0.839402998549,-0.657993609286,0.779469364076
-0.848512357529,-0.812313487224,0.679469364076
-0.865587111034,-0.748523991294,0.679469364076
-0.847481790607,-0.760306131553,0.679469364076
-0.740058713815,-0.710984783279,0.779469364076
-0.753271582519,-0.652979568679,0.779469364076
-0.818746971582,-0.789741255406,0.679469364076
-0.872268243733,-0.686748924937,0.679469364076
-0.857685260956,-0.655371828878,0.679469364076
-0.764925389712,-0.736651277383,0.679469364076
-0.783081040004,-0.65611627156,0.679469364076
-0.733939105697,-0.643135865161,0.679469364076
-0.807926540279,-0.630333145813,0.779469364076
-0.769240742693,-0.687693383218,0.779469364076
-0.823260752934,-0.642051915514,0.779469364076
-0.747850735811,-0.639316604774,0.679469364076
-0.703959297753,-0.626075349525,0.779469364076
-0.84949491696,-0.637089017889,0.679469364076
-0.851323879624,-0.622640839745,0.779469364076
-0.804471017081,-0.63429949544,0.679469364076
-0.780813769365,-0.605578146354,0.679469364076
-0.740219716441,-0.641763486716,0.679469364076
-0.87884062574,-0.646131153619,0.679469364076
-0.756785145494,-0.677449345084,0.679469364076
-0.862886909888,-0.640060073609,0.679469364076
-0.843444493231,-0.657677072498,0.679469364076
-0.783110592422,-0.718713613819,0.579469364076
-0.825134903862,-0.696032434381,0.679469364076
-0.82667747671,-0.721415702871,0.679469364076
-0.73537926843,-0.66437583385,0.679469364076
-0.863436546368,-0.629392090074,0.679469364076
-0.805354114892,-0.620327815586,0.679469364076
-0.717282855835,-0.681733324481,0.779469364076
-0.727251360746,-0.695434370373,0.679469364076
-0.757606716908,-0.631698648725,0.779469364076
-0.875281361921,-0.659891951627,0.679469364076
-0.81976733573,-0.775797673136,0.679469364076
-0.872248928012,-0.586716483386,0.679469364076
-0.823720970863,-0.595757299169,0.679469364076
-0.905898497433,-0.688582787721,0.779469364076
-0.904681675603,-0.623358123481,0.779469364076
-0.796845816746,-0.8133616774,0.779469364076
-0.935175111656,-0.673497804816,0.679469364076
-0.825046793878,-0.644914356667,0.679469364076
-0.851836333279,-0.651608439463,0.679469364076
-0.857118936302,-0.695580871514,0.679469364076
-0.728357953283,-0.635613841163,0.779469364076
-0.917372019407,-0.667677540513,0.779469364076
-0.970739731035,-0.583046359125,0.779469364076
-0.959027151335,-0.637236691077,0.679469364076
-0.820422898466,-0.658521641578,0.679469364076
-0.897881732722,-0.593475408168,0.679469364076
-0.757726775594,-0.692375021432,0.679469364076
-0.808733876483,-0.625316917095,0.779469364076
-0.815833404766,-0.572391669199,0.779469364076
-0.819947904379,-0.581291426605,0.679469364076
-0.797748577132,-0.66386033868,0.579469364076
-0.836210325925,-0.654702687949,0.679469364076
-0.909001674901,-0.781591014408,0.679469364076
-0.84255499615,-0.676842683175,0.679469364076
-0.824188002894,-0.670823067946,0.679469364076
-0.774927356689,-0.75347006788,0.679469364076
-0.856665644177,-0.772591671141,0.679469364076
-0.93372959167,-0.705567312781,0.679469364076
-0.908458594782,-0.669465858649,0.679469364076
-0.880392179602,-0.528817659972,0.779469364076
-0.797035219554,-0.684429356633,0.779469364076
-0.919534525765,-0.583756595595,0.779469364076
-0.845828189761,-0.672656516905,0.779469364076
-0.828672827271,-0.691723136037,0.779469364076
-0.856821855788,-0.625074653805,0.679469364076
-0.913033775308,-0.600482053214,0.679469364076
-0.93277035379,-0.677834292116,0.679469364076
-0.854179809736,-0.706922164984,0.779469364076
-0.843520015219,-0.7315969762,0.779469364076
-0.861698042656,-0.664815894439,0.679469364076
-0.781745029295,-0.65550419498,0.779469364076
-0.826021543694,-0.686332313505,0.679469364076
-0.790599494053,-0.633524866908,0.779469364076
-0.869517985635,-0.593785028031,0.779469364076
-0.901405726947,-0.598798563194,0.679469364076
-0.843166526472,-0.579400854212,0.779469364076
-0.863985307649,-0.661607761252,0.679469364076
-0.896774477042,-0.627471962165,0.779469364076
-0.857843724695,-0.693653911013,0.779469364076
-0.900602245727,-0.626967992345,0.679469364076
-0.750425418115,-0.783586932495,0.679469364076
-0.864144559567,-0.616952809017,0.679469364076
-0.905273171917,-0.682737447575,0.779469364076
-0.836335965969,-0.635327539258,0.879469364076
-0.853774024699,-0.692240098848,0.779469364076
-0.928664445026,-0.630984729106,0.779469364076
-0.926168633154,-0.614185238383,0.679469364076
-0.790601695239,-0.704876060066,0.679469364076
-0.787694100274,-0.517449933202,0.679469364076
-0.847370772549,-0.645440756572,0.679469364076
-0.802603110002,-0.638465401612,0.779469364076
-0.820673852055,-0.665808274153,0.679469364076
-0.762469137699,-0.579669900935,0.679469364076
-0.877462436632,-0.676764918975,0.679469364076
-0.911827465482,-0.655734000145,0.679469364076
-0.758923871498,-0.706691061252,0.679469364076
-0.906658255702,-0.552947604572,0.679469364076
-0.771829614206,-0.628127719975,0.779469364076
-0.815249969394,-0.674363935191,0.679469364076
-0.771929218961,-0.674171039732,0.679469364076
-0.833135884805,-0.621757577234,0.679469364076
-0.834540276986,-0.612886383466,0.779469364076
-0.842612991598,-0.800037977114,0.679469364076
-0.77587628073,-0.716824115774,0.779469364076
-0.887280131519,-0.712016459223,0.679469364076
-0.77929910075,-0.639713607456,0.679469364076
-0.811596783063,-0.670331928691,0.679469364076
-0.800396586557,-0.668178942928,0.779469364076
-0.757861804859,-0.703602879716,0.679469364076
-0.843134437139,-0.67957584067,0.679469364076
-0.84883955714,-0.583820843406,0.679469364076
-0.744042245376,-0.746818400566,0.679469364076
-0.741358006425,-0.67698789507,0.679469364076
-0.882319410029,-0.547114963901,0.679469364076
-0.789368072311,-0.709079419009,0.679469364076
-0.80088575995,-0.659851741431,0.779469364076
-0.804762687038,-0.62767749306,0.779469364076
-0.960297841412,-0.593519331987,0.679469364076
-0.797289299733,-0.651661969874,0.779469364076
-0.835569272383,-0.573406564964,0.679469364076
-0.81691800548,-0.575238179081,0.779469364076
-0.967481485141,-0.65632789117,0.679469364076
-0.858372551459,-0.705595114325,0.679469364076
-0.841047757133,-0.618496773834,0.679469364076
-0.842862202278,-0.648629082683,0.679469364076
-0.793283120723,-0.614467426769,0.779469364076
-0.801946999778,-0.659947091124,0.679469364076
-0.788746565394,-0.652728921645,0.779469364076
-0.746521282997,-0.658881560101,0.779469364076
-0.823903844311,-0.675142162479,0.679469364076
-0.80537320725,-0.619697530047,0.779469364076
-0.827866984451,-0.786510841212,0.579469364076
-0.823446883965,-0.63409728377,0.679469364076
-0.853409319488,-0.652874196223,0.579469364076
-0.778842537865,-0.624160415779,0.779469364076
-0.865555827998,-0.701940238346,0.679469364076
-0.855691537946,-0.664644108799,0.679469364076
-0.869721791921,-0.70681131594,0.679469364076
-0.843482405386,-0.660046508397,0.679469364076
-0.87883912129,-0.719687170524,0.679469364076
-0.850148879033,-0.6893208913,0.779469364076
-0.929135999882,-0.568359328695,0.679469364076
-0.872525097587,-0.775354612649,0.679469364076
-0.841053149387,-0.752984331329,0.779469364076
-0.879340915957,-0.724024164094,0.779469364076
-0.813168961739,-0.617757659501,0.779469364076
-0.875834019749,-0.681504717609,0.779469364076
-0.881060466465,-0.662516172247,0.779469364076
-0.827142144464,-0.729908937544,0.679469364076
-0.767561360723,-0.651337697206,0.679469364076
-0.76505769003,-0.62979062968,0.779469364076
-0.741534575771,-0.631312685148,0.679469364076
-0.808507091859,-0.666317220335,0.679469364076
-0.772828295705,-0.754566045016,0.679469364076
-0.863502838941,-0.59710711508,0.779469364076
-0.785434952482,-0.670441992036,0.679469364076
-0.871108681552,-0.61271576384,0.779469364076
-0.791842261554,-0.631886804319,0.779469364076
-0.751472286822,-0.80365031812,0.779469364076
-0.836442955212,-0.665700589347,0.679469364076
-0.787087628611,-0.621775713602,0.679469364076
-0.758884831164,-0.592990791847,0.779469364076
-0.738217305518,-0.612232168549,0.779469364076
-0.75878146189,-0.672941079064,0.679469364076
-0.800011572731,-0.625704635095,0.779469364076
-0.848216821276,-0.681018966767,0.679469364076
-0.850332250259,-0.702238664548,0.679469364076
-0.840090838978,-0.624811864577,0.679469364076
-0.736922688501,-0.621388038971,0.879469364076
-0.756912981611,-0.690932335242,0.779469364076
-0.721829439446,-0.711845301419,0.679469364076
-0.788612103851,-0.611321531141,0.779469364076
-0.894515538152,-0.696453325395,0.679469364076
-0.835887545523,-0.636014353853,0.679469364076
-0.713124752991,-0.70438251658,0.779469364076
-0.806198695325,-0.696283505865,0.679469364076
-0.87987926661,-0.612244361172,0.679469364076
-0.847845052993,-0.58325950253,0.779469364076
-0.862442561075,-0.653505984377,0.679469364076
-0.929127017834,-0.707362062781,0.579469364076
-0.7559493953,-0.763647495087,0.679469364076
-0.891954988754,-0.544569393462,0.579469364076
-0.873993703186,-0.645153721078,0.579469364076
-0.739241712097,-0.642343150632,0.779469364076
-0.851356594346,-0.585029297427,0.779469364076
-0.852955057988,-0.660757674147,0.679469364076
-0.886146382735,-0.646586279645,0.779469364076
-0.82801886804,-0.752606003099,0.779469364076
-0.88457401988,-0.729675577704,0.579469364076
-0.832053563178,-0.809094282275,0.579469364076
-0.826719190471,-0.603668832295,0.679469364076
-0.804992102051,-0.629872613902,0.679469364076
-0.830253607839,-0.689600592377,0.779469364076
-0.828331914436,-0.725640584416,0.779469364076
-0.931762861539,-0.651884331855,0.679469364076
-0.847974949107,-0.674981840158,0.679469364076
-0.816578254111,-0.566424878693,0.779469364076
-0.773485244291,-0.590069217215,0.779469364076
-0.758329240678,-0.587455762202,0.779469364076
-0.853175728642,-0.751665328166,0.679469364076
-0.899775486582,-0.630215217637,0.679469364076
-0.848560037216,-0.673085738764,0.779469364076
-0.860632109377,-0.674301502248,0.779469364076
-0.798895656751,-0.682971845388,0.779469364076
-0.811341702065,-0.656768311557,0.779469364076
-0.860980492026,-0.635984590887,0.679469364076
-0.758410914949,-0.753820590404,0.679469364076
-0.714264697303,-0.706641535638,0.679469364076
-0.807563846707,-0.644481642365,0.779469364076
-0.876573337,-0.711137932904,0.779469364076
-0.911730615714,-0.803569029569,0.679469364076
-0.86987516666,-0.695060056851,0.779469364076
-0.802982654236,-0.644459403311,0.779469364076
-0.845287854331,-0.667545067485,0.679469364076
-0.819972575244,-0.694238991408,0.679469364076
-0.913679630382,-0.771078131638,0.679469364076
-0.905946677736,-0.69722548851,0.779469364076
-0.857680924136,-0.709938470955,0.779469364076
-0.869181469969,-0.785943802829,0.679469364076
-0.886461935665,-0.628607242769,0.779469364076
-0.824366513722,-0.706353038516,0.779469364076
-0.811707268982,-0.680913245797,0.779469364076
-0.825218048008,-0.625032946487,0.879469364076
-0.78491638343,-0.684168487679,0.779469364076
-0.845078604153,-0.652209367455,0.679469364076
-0.864522273875,-0.635177687209,0.679469364076
-0.79538686862,-0.510291290208,0.779469364076
-0.86731482626,-0.625353962463,0.579469364076
-0.730511022923,-0.612621670259,0.779469364076
-0.842285623677,-0.716362667719,0.779469364076
-0.871789767957,-0.659005915289,0.679469364076
-0.842685527394,-0.663125347585,0.879469364076
-0.852551090064,-0.70347003675,0.679469364076
-0.922153235993,-0.617786796789,0.679469364076
-0.866243270229,-0.722107675387,0.679469364076
-0.825061950609,-0.596809714634,0.779469364076
-0.891102842697,-0.696441459733,0.679469364076
-0.912517558329,-0.634433577437,0.779469364076
-0.872198229565,-0.64179305397,0.779469364076
-0.922395604889,-0.688622902644,0.679469364076
-0.862390327373,-0.564770511262,0.679469364076
-0.859090098964,-0.737824535238,0.779469364076
-0.838162433745,-0.700833444448,0.679469364076
-0.808240430521,-0.678517655721,0.879469364076
-0.791127799449,-0.710955000017,0.779469364076
-0.924649738806,-0.668773106662,0.679469364076
-0.922508710996,-0.617069288794,0.779469364076
-0.851359809446,-0.686816551514,0.579469364076
-0.801956457883,-0.514204366987,0.679469364076
-0.792974755179,-0.628866314469,0.679469364076
-0.804940712242,-0.685936542385,0.679469364076
-0.836211864858,-0.690419785664,0.679469364076
-0.826218876852,-0.626631434902,0.779469364076
-0.893859060592,-0.672619874198,0.679469364076
-0.824031378275,-0.701609349147,0.679469364076
-0.85663243773,-0.665827303119,0.679469364076
-0.845137333023,-0.662250587608,0.679469364076
-0.733909633737,-0.717672608676,0.679469364076
-0.757445624591,-0.626538840681,0.779469364076
-0.81532623127,-0.648748095523,0.679469364076
-0.785210123907,-0.586947097699,0.779469364076
-0.743656438951,-0.655623792066,0.679469364076
-0.827650736637,-0.590795608349,0.679469364076
-0.804962656989,-0.639197147797,0.679469364076
-0.862826580619,-0.70636311824,0.679469364076
-0.695453748221,-0.684178954755,0.779469364076
-0.756992957235,-0.575623672554,0.779469364076
-0.82322959635,-0.647140070353,0.779469364076
-0.803835546048,-0.68334294935,0.779469364076
-0.880687393406,-0.661982507599,0.679469364076
-0.870342669329,-0.616099382059,0.679469364076
-0.881202252192,-0.661288785503,0.779469364076
-0.876316312361,-0.630791929289,0.679469364076
-0.85321352048,-0.658011791854,0.679469364076
-0.818669451093,-0.799694299813,0.779469364076
-0.946220057982,-0.72652782445,0.679469364076
-0.831586504595,-0.681913873206,0.679469364076
-0.869677969194,-0.643688188302,0.679469364076
-0.903988939754,-0.583670403783,0.679469364076
-0.795409346183,-0.756411855668,0.579469364076
-0.872958213903,-0.66749215521,0.779469364076
-0.795802935249,-0.673469674608,0.779469364076
-0.785704146339,-0.692126654958,0.779469364076
-0.911788294733,-0.65351799106,0.679469364076
-0.873490742118,-0.658932864644,0.679469364076
-0.887288862231,-0.579490025,0.679469364076
-0.866606212861,-0.712006703596,0.679469364076
-0.863554303544,-0.649604013809,0.679469364076
-0.793442650152,-0.61213768461,0.679469364076
-0.827297438311,-0.70601680434,0.579469364076
-0.783806423276,-0.607775820769,0.679469364076
-0.778529207934,-0.729536732623,0.679469364076
-0.707300740156,-0.656000476334,0.779469364076
-0.851428992829,-0.662314359712,0.679469364076
-0.770160647587,-0.668678081915,0.679469364076
-0.763859424117,-0.593896130243,0.779469364076
-0.821892611907,-0.554934608206,0.779469364076
-0.817064632512,-0.524523263914,0.679469364076
-0.835265272418,-0.625233038928,0.679469364076
-0.847052106211,-0.551984613844,0.679469364076
-0.868240949484,-0.681853862609,0.579469364076
-0.769544595434,-0.71272684834,0.679469364076
-0.74235676052,-0.677952018082,0.779469364076
-0.766746110781,-0.632313753571,0.779469364076
-0.852516560936,-0.566155338207,0.679469364076
-0.805050210196,-0.765738715558,0.579469364076
-0.816088497791,-0.581548906983,0.779469364076
-0.860233842476,-0.671550168493,0.679469364076
-0.762186819066,-0.704539314897,0.679469364076
-0.836913361306,-0.643514753897,0.679469364076
-0.774616435191,-0.601046329836,0.679469364076
-0.843185459166,-0.570135794871,0.679469364076
-0.932184258533,-0.596846712394,0.679469364076
-0.824952845528,-0.702652822597,0.779469364076
-0.860228629348,-0.651264642431,0.679469364076
-0.811762250192,-0.606878911883,0.779469364076
-0.861912710468,-0.657147155996,0.679469364076
-0.928551439165,-0.602593543313,0.679469364076
-0.739883591989,-0.760793091241,0.679469364076
-0.865952099031,-0.692213035228,0.779469364076
-0.897733425515,-0.757340317106,0.679469364076
-0.80278781332,-0.668356296474,0.779469364076
-0.82765894716,-0.620058903628,0.679469364076
-0.827669298719,-0.688955334021,0.679469364076
-0.765298738511,-0.602050515889,0.879469364076
-0.835881071491,-0.682553009598,0.679469364076
-0.780079179486,-0.559588338269,0.779469364076
-0.802325417261,-0.754919797994,0.679469364076
-0.868702806145,-0.765728981481,0.779469364076
-0.837627930722,-0.766445979068,0.779469364076
-0.803732306416,-0.772527901285,0.779469364076
-0.955392877884,-0.706319117185,0.679469364076
-0.779362046837,-0.712111393144,0.779469364076
-0.886796684338,-0.696995114379,0.779469364076
-0.955669328405,-0.745474727167,0.679469364076
-0.879865929754,-0.668071659363,0.679469364076
-0.812440387155,-0.659064307716,0.779469364076
-0.936715634526,-0.525557428089,0.679469364076
-0.698420432735,-0.625678251221,0.779469364076
-0.80560284356,-0.667937891853,0.579469364076
-0.830438741561,-0.670758017313,0.679469364076
-0.769184895986,-0.612010198123,0.679469364076
-0.847334363338,-0.641592718829,0.579469364076
-0.766985036973,-0.621461945341,0.779469364076
-0.804325480834,-0.696662638035,0.779469364076
-0.926666774386,-0.629752236355,0.779469364076
-0.896141233812,-0.631135402437,0.779469364076
-0.844970032477,-0.695150770973,0.679469364076
-0.995203486041,-0.512381058567,0.779469364076
-0.85831485911,-0.777556876986,0.679469364076
-0.882623837311,-0.609677783692,0.679469364076
-0.82039698587,-0.688754324025,0.679469364076
-0.843299318917,-0.650487640432,0.679469364076
-0.846494346867,-0.584398870585,0.779469364076
-0.824571831339,-0.684093649153,0.779469364076
-0.904654306927,-0.664335733209,0.779469364076
-0.957476350978,-0.651710130497,0.779469364076
-0.849680937462,-0.645402730455,0.679469364076
-0.792485758302,-0.613981605246,0.679469364076
-0.79433019748,-0.727588231827,0.679469364076
-0.753165727121,-0.636102977669,0.679469364076
-0.839318885462,-0.707893715498,0.679469364076
-0.82565025775,-0.690324209344,0.679469364076
-0.85687137429,-0.705856402927,0.679469364076
-0.757461434916,-0.69666497165,0.779469364076
-0.836375734394,-0.633595411394,0.679469364076
-0.823908087584,-0.604450404252,0.679469364076
-0.922364357859,-0.640650827243,0.579469364076
-0.924540925978,-0.702295464601,0.579469364076
-0.818318439551,-0.635906282575,0.679469364076
-0.791467855821,-0.623481049179,0.779469364076
-0.938252048629,-0.630011029757,0.779469364076
-0.824401440311,-0.727552745588,0.779469364076
-0.734303402025,-0.703180945144,0.679469364076
-0.823933959342,-0.638321471875,0.779469364076
-0.758360193429,-0.63646903362,0.679469364076
-0.827563054143,-0.664515948867,0.679469364076
-0.851509648571,-0.603141586855,0.679469364076
-0.749658186262,-0.646565446732,0.879469364076
-0.939955803794,-0.633231225396,0.779469364076
-0.824522490733,-0.720001571997,0.779469364076
-0.891082555202,-0.625740038247,0.679469364076
-0.887179561731,-0.586389614676,0.679469364076
-0.804076398359,-0.685283330082,0.579469364076
-0.789833738539,-0.531435195695,0.779469364076
-0.838938874221,-0.50978828977,0.679469364076
-0.781874963053,-0.556472046998,0.679469364076
-0.896479927131,-0.633558047872,0.679469364076
-0.875393050128,-0.676949476918,0.679469364076
-0.884155007535,-0.705893746292,0.779469364076
-0.810867098601,-0.746416705581,0.779469364076
-0.82764554646,-0.745216597446,0.679469364076
-0.838215168787,-0.617108949297,0.679469364076
-0.827901870139,-0.714006984463,0.579469364076
-0.780321393133,-0.659644834291,0.679469364076
-0.812330009328,-0.570144145461,0.579469364076
-0.801654448965,-0.561579646836,0.679469364076
-0.835019208306,-0.653711208961,0.779469364076
-0.817538932981,-0.645919785383,0.779469364076
-0.906339140963,-0.621283148011,0.679469364076
-0.789086965872,-0.696370680229,0.679469364076
-0.79049394124,-0.595396403525,0.779469364076
-0.686804763061,-0.678828963255,0.679469364076
-0.736449930952,-0.638498102472,0.679469364076
-0.880218889149,-0.64190936288,0.679469364076
-0.844597826311,-0.752657956864,0.679469364076
-0.825403329885,-0.745250781382,0.679469364076
-0.884208288209,-0.627690648703,0.679469364076
-0.851214300971,-0.673512272466,0.679469364076
-0.87447232814,-0.617105935862,0.679469364076
-0.848988665086,-0.711762535596,0.679469364076
-0.739343909444,-0.661284742816,0.779469364076
-0.869360636134,-0.77206194609,0.579469364076
-0.842519199305,-0.673856563121,0.679469364076
-0.937880531275,-0.441648416921,0.779469364076
-0.824477765592,-0.694310990053,0.679469364076
-0.828544541037,-0.503579024551,0.779469364076
-0.854826361752,-0.687028960341,0.779469364076
-0.892336788763,-0.715436500191,0.779469364076
-0.911779992359,-0.688243202351,0.779469364076
-0.804220960543,-0.736580150181,0.679469364076
-0.742720127301,-0.655524071423,0.779469364076
-0.802608805709,-0.692540767663,0.679469364076
-0.832369972778,-0.703866358014,0.579469364076
-0.85277947181,-0.67399155781,0.679469364076
-0.86673797554,-0.62855754554,0.679469364076
-0.894061989254,-0.639256555521,0.679469364076
-0.88879253362,-0.574513164268,0.679469364076
-0.80379834123,-0.638260232164,0.679469364076
-0.860365714986,-0.668032403069,0.679469364076
-0.894655084734,-0.711053667469,0.779469364076
-0.781069021151,-0.741489728765,0.779469364076
-0.810798777872,-0.721871081898,0.779469364076
-0.862924322355,-0.629746521198,0.779469364076
-0.879282869433,-0.660127715333,0.679469364076
-0.86077580127,-0.63671475609,0.779469364076
-0.715175792265,-0.578122650418,0.779469364076
-0.861934319808,-0.600191765776,0.679469364076
-0.938491188912,-0.671010514517,0.679469364076
-0.90029529846,-0.665715619233,0.679469364076
-0.911311202653,-0.611134331544,0.679469364076
-0.908531010176,-0.705023378387,0.679469364076
-0.809341574128,-0.709766699322,0.779469364076
-0.873945557839,-0.651361755293,0.779469364076
-0.84418995167,-0.641867012448,0.679469364076
-0.811212842843,-0.724568944278,0.679469364076
-0.786289845232,-0.717035818045,0.679469364076
-0.895806797801,-0.702353762133,0.779469364076
-0.857849612651,-0.653479203468,0.779469364076
-0.925292669932,-0.803378739369,0.679469364076
-0.892223091131,-0.681550348161,0.679469364076
-0.887826679147,-0.668125095585,0.779469364076
-0.941667313089,-0.668129913819,0.679469364076
-0.842658274847,-0.742964099402,0.779469364076
-0.92083786398,-0.597019313735,0.779469364076
-0.880242177576,-0.592746793992,0.779469364076
-0.840237015102,-0.684086600952,0.679469364076
-0.890164792626,-0.645468323883,0.679469364076
-0.763815932178,-0.709087452071,0.779469364076
-0.867885427381,-0.632892997989,0.779469364076
-0.956431005003,-0.575780275898,0.679469364076
-0.934042713979,-0.652422267059,0.579469364076
-0.853907361695,-0.620973986393,0.579469364076
-0.850514755931,-0.620645107993,0.679469364076
-0.815977176504,-0.728138654848,0.679469364076
-0.852089110334,-0.701436471621,0.679469364076
-0.79525108481,-0.737093953413,0.879469364076
-0.840809125276,-0.638889570446,0.779469364076
-0.895766854245,-0.610712696422,0.779469364076
-0.766425724654,-0.688180062939,0.779469364076
-0.833304125392,-0.693313852304,0.779469364076
-0.829390195871,-0.725231311398,0.679469364076
-0.749928928996,-0.698112531556,0.679469364076
-0.908758559277,-0.761755993982,0.679469364076
-0.843069774515,-0.657390799695,0.679469364076
-0.747827878593,-0.622382598156,0.779469364076
-0.90918623489,-0.591235266414,0.679469364076
-0.953040389641,-0.627112208531,0.579469364076
-0.72858154785,-0.61329683271,0.779469364076
-0.797405450744,-0.648426989965,0.679469364076
-0.770092431076,-0.729554720949,0.779469364076
-0.813042165095,-0.620962627508,0.779469364076
-0.732783218601,-0.734703266741,0.779469364076
-0.836582248009,-0.714594874888,0.679469364076
-0.9621420198,-0.691570428808,0.779469364076
-0.915110766949,-0.645775447033,0.779469364076
-0.895321998647,-0.597886212811,0.679469364076
-0.892919381416,-0.620632063577,0.679469364076
-0.812730192113,-0.717276459742,0.679469364076
-0.864755337445,-0.642544010435,0.779469364076
-0.906565611735,-0.736721321981,0.679469364076
-0.82807772973,-0.646621834758,0.679469364076
-0.74451255214,-0.737560029992,0.779469364076
-0.734979265671,-0.744566485618,0.679469364076
-0.802059280936,-0.645132941624,0.679469364076
-0.683641902256,-0.710639269792,0.779469364076
-0.859891563551,-0.655682061062,0.779469364076
-0.827747317036,-0.647280633091,0.779469364076
-0.87795894867,-0.632281621172,0.779469364076
-0.83900419707,-0.82369488254,0.679469364076
-0.843986597421,-0.653780857112,0.779469364076
-0.942670925196,-0.594916343369,0.679469364076
-0.824379756282,-0.673847715008,0.779469364076
-0.734621974668,-0.693221698533,0.779469364076
-0.903460725936,-0.695450293403,0.679469364076
-0.844891675353,-0.736790589593,0.779469364076
-0.906182849905,-0.774212642397,0.779469364076
-0.913444523628,-0.690113965588,0.779469364076
-0.928255158641,-0.682455970778,0.679469364076
-0.767797082272,-0.763134069963,0.779469364076
-0.875731302358,-0.670530076414,0.679469364076
-0.825315759475,-0.678091052275,0.679469364076
