-0.0839186901965058,-0.007334681327575268,0.05592034919843433
-0.701850363833,-0.683694304887,0.555920349198
-0.691763970794,-0.566416785045,0.755920349198
-0.716910894505,-0.719301504364,0.655920349198
-0.77875318983,-0.724317486855,0.655920349198
-0.840935939253,-0.661472526097,0.755920349198
-0.773288675896,-0.630673943785,0.755920349198
-0.775495455488,-0.668559083244,0.655920349198
-0.810011972217,-0.779598879332,0.655920349198
-0.876792149188,-0.74100089927,0.555920349198
-0.795191495525,-0.661718132374,0.755920349198
-0.856098573673,-0.557685647262,0.755920349198
-0.784460885435,-0.831317351589,0.755920349198
-0.873527264743,-0.736317347908,0.655920349198
-0.832747312821,-0.689150004938,0.755920349198
-0.714548410475,-0.69815024116,0.755920349198
-0.645751912705,-0.538111876222,0.755920349198
-0.804324859832,-0.653900459029,0.655920349198
-0.831720447265,-0.558644207548,0.755920349198
-0.730020527312,-0.721831115681,0.855920349198
-0.838638877064,-0.656142292986,0.655920349198
-0.813283744817,-0.63475504472,0.655920349198
-0.72759261293,-0.605989900787,0.755920349198
-0.805997104734,-0.754528362263,0.655920349198
-0.803338501924,-0.683088113888,0.755920349198
-0.662706322831,-0.739041143405,0.755920349198
-0.761612520774,-0.643873574677,0.755920349198
-0.737782311179,-0.682923498665,0.755920349198
-0.85439564228,-0.75034438978,0.755920349198
-0.71180687957,-0.686328676513,0.755920349198
-0.670169225756,-0.577526485211,0.755920349198
-0.768487574139,-0.716852213906,0.755920349198
-0.76571720674,-0.623929452445,0.755920349198
-0.717184294161,-0.708083845632,0.755920349198
-0.757509222481,-0.652262313459,0.755920349198
-0.940393699575,-0.654952010138,0.655920349198
-0.806894200084,-0.680655282579,0.655920349198
-0.723995710813,-0.803589909979,0.755920349198
-0.807727965195,-0.600068272807,0.655920349198
-0.841576329831,-0.598718422598,0.655920349198
-0.823183159031,-0.678351775406,0.755920349198
-0.834866569702,-0.748653595598,0.655920349198
-0.772738652941,-0.728349142406,0.655920349198
-0.825654591787,-0.699592434964,0.755920349198
-0.779684656398,-0.663642242283,0.855920349198
-0.837222791272,-0.834860211336,0.655920349198
-0.710537757475,-0.66426472374,0.755920349198
-0.734164325646,-0.724540625161,0.755920349198
-0.767224414839,-0.655309738677,0.755920349198
-0.768208083278,-0.695254794976,0.755920349198
-0.787611761783,-0.665290290264,0.755920349198
-0.820195817561,-0.740134464619,0.655920349198
-0.820862136355,-0.807522651178,0.755920349198
-0.71357798638,-0.747609592271,0.655920349198
-0.849643119241,-0.712955118307,0.655920349198
-0.843471285237,-0.794523390168,0.755920349198
-0.771269686636,-0.694535455549,0.755920349198
-0.686313707789,-0.744258779475,0.755920349198
-0.844257748198,-0.613990885088,0.855920349198
-0.825770671206,-0.701869896058,0.755920349198
-0.890338687729,-0.745962576608,0.755920349198
-0.825181454345,-0.757430932309,0.855920349198
-0.802171125437,-0.697782727785,0.655920349198
-0.803203515262,-0.723548161678,0.655920349198
-0.783368357358,-0.753605313788,0.655920349198
-0.803223179592,-0.677271250373,0.655920349198
-0.658442903823,-0.767396818306,0.755920349198
-0.801103796057,-0.720729702239,0.655920349198
-0.800561791474,-0.690774390311,0.655920349198
-0.707461455787,-0.659938998894,0.755920349198
-0.756061472877,-0.733868041408,0.555920349198
-0.684085234772,-0.661787085304,0.655920349198
-0.767093028318,-0.718415870563,0.655920349198
-0.806508396349,-0.756667954503,0.655920349198
-0.893532359169,-0.670770486283,0.655920349198
-0.763585341695,-0.712776544292,0.755920349198
-0.849718545319,-0.625565547621,0.755920349198
-0.843681988166,-0.65256046512,0.655920349198
-0.839023487774,-0.747689677494,0.655920349198
-0.805905138029,-0.741457145912,0.655920349198
-0.727986260881,-0.786755686846,0.655920349198
-0.879915956345,-0.708717887107,0.655920349198
-0.911124167487,-0.71076445395,0.555920349198
-0.883872109744,-0.562034619571,0.755920349198
-0.814803836679,-0.675768383735,0.755920349198
-0.945802675667,-0.681043025769,0.755920349198
-0.874684257656,-0.728621123999,0.955920349198
-0.736753510029,-0.724667765353,0.855920349198
-0.929890251629,-0.715204165395,0.655920349198
-0.822856119721,-0.622057913081,0.855920349198
-0.733074098243,-0.664208020174,0.755920349198
-0.815838629555,-0.697677477953,0.755920349198
-0.89530995743,-0.749275477436,0.755920349198
-0.769060526765,-0.737109177104,0.655920349198
-0.737330053041,-0.645293131047,0.755920349198
-0.731207851605,-0.761270326716,0.655920349198
-0.716319835685,-0.751043422454,0.655920349198
-0.794197794782,-0.720371851371,0.655920349198
-0.82224387922,-0.752889791677,0.655920349198
-0.818192238968,-0.635929582074,0.755920349198
-0.711710248216,-0.745437129566,0.655920349198
-0.700698870386,-0.655029968123,0.755920349198
-0.757383485986,-0.714787023841,0.655920349198
-0.81582199105,-0.67331735865,0.655920349198
-0.831936813912,-0.684122667275,0.655920349198
-0.770464750779,-0.693446344764,0.755920349198
-0.824212318201,-0.748669850956,0.755920349198
-0.844531761339,-0.691775839227,0.655920349198
-0.879243938012,-0.728153852369,0.755920349198
-0.842576137323,-0.736159999025,0.755920349198
-0.893919903934,-0.745590092694,0.655920349198
-0.714210549364,-0.672272221072,0.755920349198
-0.780324197308,-0.724298204092,0.655920349198
-0.770030775668,-0.615603158087,0.755920349198
-0.870172786362,-0.631216844023,0.655920349198
-0.825871940584,-0.573159498357,0.655920349198
-0.692916763431,-0.767260104782,0.755920349198
-0.779338830865,-0.664567258432,0.855920349198
-0.805078420363,-0.694007982593,0.655920349198
-0.707852247379,-0.777993750092,0.655920349198
-0.812332139645,-0.684988973498,0.655920349198
-0.852151078578,-0.646357062694,0.755920349198
-0.793461262629,-0.615973908447,0.755920349198
-0.772728926591,-0.621387528923,0.655920349198
-0.7516830328,-0.774847237392,0.755920349198
-0.767358946256,-0.622282984344,0.855920349198
-0.789866634646,-0.687130803965,0.755920349198
-0.791192293689,-0.740718238137,0.655920349198
-0.824865075024,-0.737789198787,0.755920349198
-0.755656215621,-0.680044417245,0.655920349198
-0.761787825984,-0.707347092286,0.655920349198
-0.760514271953,-0.631836799072,0.755920349198
-0.788512324127,-0.719230610237,0.655920349198
-0.884358298843,-0.692329402683,0.755920349198
-0.855313295465,-0.649981575141,0.655920349198
-0.895814716911,-0.701266744141,0.755920349198
-0.823162895009,-0.62662915647,0.755920349198
-0.827895066995,-0.772560862572,0.655920349198
-0.813265539337,-0.670155498373,0.755920349198
-0.770648413275,-0.627548514542,0.755920349198
-0.759174873489,-0.606231053225,0.855920349198
-0.777760192752,-0.652137514682,0.755920349198
-0.78823154752,-0.722773961522,0.855920349198
-0.827045646711,-0.730150369508,0.855920349198
-0.705057051687,-0.831729344189,0.755920349198
-0.789176864686,-0.698986239661,0.755920349198
-0.744083914379,-0.674599658238,0.755920349198
-0.788026095792,-0.737134100286,0.655920349198
-0.769349820631,-0.739987995239,0.755920349198
-0.908069197577,-0.744494918452,0.655920349198
-0.875039558587,-0.746106880377,0.655920349198
-0.78491052505,-0.676186471942,0.655920349198
-0.800232356509,-0.743128912984,0.755920349198
-0.733435413741,-0.737117607443,0.655920349198
-0.85736564853,-0.691118530296,0.655920349198
-0.849609785168,-0.614659004689,0.755920349198
-0.821322889239,-0.702553093811,0.755920349198
-0.82311915055,-0.694846031901,0.755920349198
-0.776728196228,-0.832455445348,0.755920349198
-0.786108659974,-0.748080515983,0.655920349198
-0.83944876594,-0.702390765908,0.655920349198
-0.826555683237,-0.642794193088,0.655920349198
-0.793772832312,-0.685217969114,0.755920349198
-0.772947193399,-0.705329491387,0.655920349198
-0.768902306744,-0.808913018601,0.655920349198
-0.75116857623,-0.734493932558,0.655920349198
-0.744646589486,-0.70841108926,0.655920349198
-0.854196794261,-0.645259356986,0.655920349198
-0.790673784686,-0.559446485292,0.655920349198
-0.735447172948,-0.791027730582,0.655920349198
-0.817426907814,-0.670631547184,0.755920349198
-0.709008052798,-0.600288999597,0.855920349198
-0.616623166164,-0.68237971812,0.855920349198
-0.800890720126,-0.735968647403,0.855920349198
-0.789977563431,-0.645510862101,0.855920349198
-0.874580065728,-0.762556131686,0.755920349198
-0.842493381808,-0.703139368498,0.755920349198
-0.697856070692,-0.751032680461,0.655920349198
-0.728543979447,-0.729272888267,0.655920349198
-0.803572457054,-0.762966110262,0.755920349198
-0.763592283963,-0.636615174261,0.855920349198
-0.812479464506,-0.751419964124,0.755920349198
-0.794080138367,-0.706888636194,0.655920349198
-0.824706547409,-0.702482801277,0.755920349198
-0.852891925796,-0.760431727304,0.655920349198
-0.84487051102,-0.681567653248,0.655920349198
-0.84506977846,-0.712233968406,0.655920349198
-0.825592052301,-0.721268332486,0.655920349198
-0.830017398769,-0.669610292571,0.755920349198
-0.734706019435,-0.600854747857,0.755920349198
-0.824676214794,-0.657855086556,0.755920349198
-0.835510049879,-0.670859282699,0.855920349198
-0.823307084563,-0.700587334554,0.755920349198
-0.792638947763,-0.646218962915,0.755920349198
-0.748356502838,-0.813805014565,0.755920349198
-0.876695621708,-0.668369597301,0.755920349198
-0.815685488508,-0.73205796139,0.555920349198
-0.739557094247,-0.671474896665,0.755920349198
-0.748436595195,-0.711082626311,0.655920349198
-0.784739888621,-0.758101336126,0.655920349198
-0.841984155615,-0.628386201409,0.755920349198
-0.834522805772,-0.705047401202,0.655920349198
-0.789161180042,-0.636552765448,0.755920349198
-0.835665649441,-0.735685002972,0.755920349198
-0.939590175558,-0.661113181137,0.655920349198
-0.840294759612,-0.756955565821,0.755920349198
-0.822222480626,-0.59401335741,0.755920349198
-0.811346161267,-0.752667951744,0.655920349198
-0.809900696759,-0.687512405528,0.755920349198
-0.783151210005,-0.723035375997,0.755920349198
-0.880837285898,-0.697006811055,0.755920349198
-0.783899149053,-0.746390736364,0.755920349198
-0.759908112,-0.663981887954,0.755920349198
-0.872816578941,-0.739818681213,0.755920349198
-0.75153899109,-0.685071225354,0.855920349198
-0.89799675566,-0.726820330842,0.655920349198
-0.713027008521,-0.666904572923,0.655920349198
-0.816378387541,-0.664184268448,0.655920349198
-0.716987519507,-0.77848451885,0.755920349198
-0.800274229081,-0.710148850034,0.755920349198
-0.733212844776,-0.709862595139,0.655920349198
-0.785228303461,-0.612303914558,0.755920349198
-0.78462003796,-0.714561136918,0.655920349198
-0.780476718757,-0.712163660251,0.555920349198
-0.721195836093,-0.632644396484,0.655920349198
-0.7828583179,-0.698140519105,0.755920349198
-0.802118226037,-0.734857141197,0.855920349198
-0.876263473924,-0.676653712595,0.755920349198
-0.852194681078,-0.679302756075,0.755920349198
-0.767017801365,-0.69629583339,0.855920349198
-0.800625561976,-0.711454667018,0.755920349198
-0.789455460317,-0.699073390305,0.755920349198
-0.849415633489,-0.626253850554,0.855920349198
-0.848860839721,-0.688666509048,0.755920349198
-0.842037307586,-0.555202688432,0.855920349198
-0.925558692499,-0.678326753175,0.755920349198
-0.852194423324,-0.774212913011,0.755920349198
-0.823841449935,-0.666370383365,0.755920349198
-0.786676785471,-0.719216691092,0.655920349198
-0.832956745676,-0.665277458399,0.655920349198
-0.706668554118,-0.690459954045,0.755920349198
-0.677256790876,-0.688071538701,0.855920349198
-0.810724716067,-0.687877810835,0.755920349198
-0.812309012941,-0.646407029254,0.755920349198
-0.851554275255,-0.700485926561,0.655920349198
-0.836801512898,-0.764552682898,0.655920349198
-0.843516076774,-0.695872676607,0.555920349198
-0.825419279756,-0.565141140171,0.855920349198
-0.684193799074,-0.799744257018,0.755920349198
-0.854940538668,-0.754350921863,0.755920349198
-0.806200703774,-0.7651777726,0.755920349198
-0.863025355476,-0.77331726576,0.655920349198
-0.824886462514,-0.793711743062,0.755920349198
-0.727734344397,-0.72578422316,0.755920349198
-0.772137509942,-0.750949014812,0.755920349198
-0.806906688315,-0.634210871437,0.755920349198
-0.750627351948,-0.654438654057,0.755920349198
-0.795660047946,-0.833923007211,0.655920349198
-0.76254065219,-0.715383192236,0.655920349198
-0.83796731192,-0.586661147253,0.755920349198
-0.913233559234,-0.707910198012,0.755920349198
-0.714526693476,-0.73155527299,0.755920349198
-0.714835693043,-0.729661610825,0.655920349198
-0.886600275603,-0.641575717785,0.755920349198
-0.786782107651,-0.716405154774,0.655920349198
-0.874134774658,-0.677479183981,0.655920349198
-0.761818255686,-0.679202964892,0.655920349198
-0.740240632916,-0.69213633821,0.755920349198
-0.756164128576,-0.740540492677,0.755920349198
-0.857482198693,-0.638313998241,0.655920349198
-0.724650627854,-0.659565082139,0.755920349198
-0.847906084035,-0.617036465745,0.655920349198
-0.737485189827,-0.601008169137,0.755920349198
-0.768551948387,-0.655602218864,0.755920349198
-0.75957175274,-0.726456771195,0.655920349198
-0.806383607802,-0.672503089191,0.755920349198
-0.806840108901,-0.584877596422,0.755920349198
-0.771067229273,-0.722394844785,0.655920349198
-0.782934693143,-0.657839176866,0.755920349198
-0.780938909361,-0.676358226236,0.755920349198
-0.767977867912,-0.665306445525,0.755920349198
-0.849991151446,-0.680922278945,0.755920349198
-0.789064548106,-0.732232837803,0.855920349198
-0.753527483912,-0.741554054397,0.755920349198
-0.828519086818,-0.780825398815,0.655920349198
-0.724403031384,-0.748621624842,0.755920349198
-0.847021257536,-0.652214870084,0.755920349198
-0.685516533623,-0.633638916684,0.755920349198
-0.72281840939,-0.637670693144,0.855920349198
-0.658940265522,-0.691994907189,0.755920349198
-0.720857801745,-0.64788283923,0.755920349198
-0.836828405282,-0.717237228829,0.655920349198
-0.809972358217,-0.596852229017,0.755920349198
-0.840918715693,-0.684688572818,0.655920349198
-0.804696534451,-0.811031830651,0.655920349198
-0.738877943422,-0.620667240091,0.755920349198
-0.824330191409,-0.68088005663,0.755920349198
-0.864249900986,-0.676437833115,0.655920349198
-0.840854045463,-0.6148163881,0.755920349198
-0.879685665894,-0.619494330725,0.755920349198
-0.719791149417,-0.731889896685,0.755920349198
-0.675877787788,-0.648038434364,0.855920349198
-0.803037584458,-0.733723873392,0.655920349198
-0.734653822822,-0.806860029386,0.655920349198
-0.862262738247,-0.752327781372,0.655920349198
-0.85567163768,-0.792918420914,0.655920349198
-0.799739074348,-0.733201432388,0.555920349198
-0.852031955216,-0.586312804658,0.755920349198
-0.67265376008,-0.817024421988,0.855920349198
-0.727053382156,-0.6529437039,0.655920349198
-0.736784160589,-0.670305020982,0.755920349198
-0.80208095826,-0.667840613244,0.655920349198
-0.841997681776,-0.588410977665,0.755920349198
-0.856984019114,-0.673965131617,0.555920349198
-0.769264184019,-0.663635008641,0.755920349198
-0.74617446351,-0.668761274578,0.755920349198
-0.682934032978,-0.677523092858,0.655920349198
-0.761156728893,-0.733685238008,0.755920349198
-0.722107642736,-0.743763221411,0.755920349198
-0.77300836415,-0.728392603582,0.655920349198
-0.828410680205,-0.663290646374,0.755920349198
-0.826502037373,-0.698911195051,0.755920349198
-0.87986090353,-0.653188700013,0.755920349198
-0.812443857807,-0.720141038363,0.755920349198
-0.795676529675,-0.66687570283,0.755920349198
-0.828078874687,-0.714932110258,0.655920349198
-0.835812178215,-0.755469299199,0.755920349198
-0.851678728524,-0.711851697878,0.755920349198
-0.728212003221,-0.590299685393,0.755920349198
-0.819851765972,-0.635681161707,0.655920349198
-0.852346366539,-0.799368024455,0.755920349198
-0.965617446011,-0.681300794418,0.755920349198
-0.861722973544,-0.736833698277,0.655920349198
-0.815455393622,-0.72072800783,0.655920349198
-0.884111739843,-0.654055367183,0.655920349198
-0.721219243075,-0.642652013634,0.855920349198
-0.800933443525,-0.592052001477,0.855920349198
-0.806801980478,-0.690421261488,0.755920349198
-0.789161931054,-0.713395620647,0.655920349198
-0.725503873585,-0.661764478957,0.755920349198
-0.794106386037,-0.662146914633,0.655920349198
-0.754705027718,-0.724772312861,0.755920349198
-0.884183424709,-0.710944638663,0.755920349198
-0.800597430137,-0.814233598058,0.655920349198
-0.8774718077,-0.688659025833,0.755920349198
-0.89850234577,-0.66088175878,0.755920349198
-0.739582907471,-0.712090602707,0.755920349198
-0.66951731453,-0.643492282705,0.855920349198
-0.730056561701,-0.734750160769,0.655920349198
-0.880166404599,-0.638530929948,0.655920349198
-0.742898133019,-0.670997310219,0.855920349198
-0.919384187625,-0.635378647874,0.655920349198
-0.841019284204,-0.731882684823,0.655920349198
-0.800853829868,-0.777028075642,0.555920349198
-0.776057248443,-0.700356389151,0.655920349198
-0.948616502046,-0.633789724628,0.655920349198
-0.78928694415,-0.736402299928,0.655920349198
-0.791457075955,-0.727891508654,0.655920349198
-0.722286948616,-0.647499574013,0.755920349198
-0.73749354782,-0.615857150032,0.855920349198
-0.790308749187,-0.613850313055,0.755920349198
-0.825480032174,-0.689342893381,0.655920349198
-0.752343046793,-0.613748248036,0.755920349198
-0.879669541606,-0.766449032738,0.655920349198
-0.693267538333,-0.714003832888,0.755920349198
-0.830532401947,-0.695119071126,0.855920349198
-0.763118787519,-0.762081042276,0.855920349198
-0.902207778845,-0.655659962233,0.755920349198
-0.739359709648,-0.702266109016,0.755920349198
-0.754013228417,-0.609863406852,0.855920349198
-0.750741375398,-0.645000057752,0.855920349198
-0.801524193851,-0.729388900232,0.655920349198
-0.743273736646,-0.711198926581,0.755920349198
-0.854080229483,-0.682719820324,0.655920349198
-0.892810320398,-0.601236600913,0.855920349198
-0.805452987696,-0.640574771806,0.755920349198
-0.91350896022,-0.682463879121,0.655920349198
-0.88680267078,-0.731961746721,0.655920349198
-0.777324304367,-0.718096605766,0.755920349198
-0.700968822743,-0.710358777339,0.755920349198
-0.79446692844,-0.667205463059,0.755920349198
-0.771001913963,-0.698094543886,0.655920349198
-0.747329056602,-0.673433183673,0.855920349198
-0.797804579055,-0.789322510328,0.755920349198
-0.858180551227,-0.705184517824,0.655920349198
-0.843429325456,-0.696236396093,0.755920349198
-0.793172246601,-0.641823188954,0.855920349198
-0.856063306469,-0.708057327553,0.755920349198
-0.826928785918,-0.694948029161,0.755920349198
-0.832572333951,-0.578391726482,0.855920349198
-0.885110710875,-0.641727247513,0.755920349198
-0.79885082601,-0.662727745587,0.655920349198
-0.696431770123,-0.607966678756,0.755920349198
-0.745336974711,-0.720612011339,0.655920349198
-0.796502256806,-0.721869903493,0.755920349198
-0.701605557935,-0.740238581698,0.755920349198
-0.740018349094,-0.564032705495,0.755920349198
-0.754548169188,-0.646289108267,0.755920349198
-0.818782678513,-0.629083327619,0.655920349198
-0.69478855967,-0.729307706279,0.655920349198
-0.799956038167,-0.600385005273,0.755920349198
-0.772955615913,-0.698906654157,0.755920349198
-0.792375076774,-0.741641524543,0.755920349198
-0.759413927545,-0.782494863775,0.755920349198
-0.825315300262,-0.720459168814,0.755920349198
-0.844051726596,-0.621687489435,0.755920349198
-0.798986487648,-0.677251810654,0.755920349198
-0.732397020947,-0.651003055732,0.755920349198
-0.695936186559,-0.651728796517,0.855920349198
-0.785822151712,-0.809854644492,0.655920349198
-0.796531895447,-0.74482290581,0.755920349198
-0.771594538709,-0.633445695181,0.655920349198
-0.855828298401,-0.659782525461,0.655920349198
-0.710194158978,-0.776808712473,0.655920349198
-0.713432290877,-0.732616950909,0.855920349198
-0.740070688783,-0.79179336365,0.755920349198
-0.749766193367,-0.656549166212,0.755920349198
-0.848766218809,-0.647575659568,0.755920349198
-0.817930706001,-0.59811961416,0.755920349198
-0.800674329045,-0.707477726104,0.655920349198
-0.729322547788,-0.761962659934,0.855920349198
-0.881892176099,-0.753897148026,0.655920349198
-0.878633365976,-0.697081285923,0.655920349198
-0.882189051252,-0.618384053895,0.655920349198
-0.772016326271,-0.619558979876,0.755920349198
-0.713837533487,-0.681536794505,0.755920349198
-0.771573585357,-0.753092024731,0.655920349198
-0.883015864053,-0.603392002128,0.755920349198
-0.738971879254,-0.753463160564,0.755920349198
-0.781051926253,-0.772691480699,0.755920349198
-0.870245813935,-0.739829279499,0.755920349198
-0.800386332519,-0.631310003679,0.755920349198
-0.942997591775,-0.697683441087,0.755920349198
-0.83082916643,-0.711324066958,0.655920349198
-0.77365372761,-0.711529918632,0.655920349198
-0.775161562713,-0.777462984463,0.655920349198
-0.823674190361,-0.633420548522,0.755920349198
-0.73140930154,-0.727718402525,0.655920349198
-0.803269722917,-0.785135447214,0.655920349198
-0.857329675187,-0.57419359435,0.755920349198
-0.802063146336,-0.717262001995,0.655920349198
-0.841477703246,-0.655142912037,0.655920349198
-0.682286587025,-0.733303016514,0.755920349198
-0.852415468902,-0.664166890843,0.555920349198
-0.757082742485,-0.696960018936,0.755920349198
-0.82847229746,-0.658136198573,0.655920349198
-0.867383513836,-0.633726248541,0.855920349198
-0.773093557071,-0.652686933426,0.655920349198
-0.833136586439,-0.69139275523,0.655920349198
-0.864008322724,-0.703784471045,0.755920349198
-0.794302661433,-0.68215399517,0.755920349198
-0.829710953882,-0.714188726861,0.755920349198
-0.813004995337,-0.606847713313,0.655920349198
-0.759211018778,-0.79632867879,0.755920349198
-0.726070262614,-0.62458625861,0.755920349198
-0.793489073516,-0.653890871683,0.755920349198
-0.697983523285,-0.796497478022,0.655920349198
-0.794560760189,-0.723365682895,0.655920349198
-0.707110376213,-0.779041933478,0.655920349198
-0.854312501113,-0.69676935912,0.655920349198
-0.838940335083,-0.631174507281,0.655920349198
-0.825283749326,-0.737627255879,0.755920349198
-0.795546160691,-0.705083901733,0.655920349198
-0.768080641386,-0.772712368161,0.655920349198
-0.790412777756,-0.708820343881,0.655920349198
-0.83852384884,-0.766230669265,0.655920349198
-0.83417660185,-0.670325629609,0.755920349198
-0.80461676331,-0.641890122628,0.655920349198
-0.739598346815,-0.678057908407,0.755920349198
-0.82082538729,-0.707385503629,0.655920349198
-0.709635050976,-0.656055935807,0.755920349198
-0.940672916547,-0.711518656198,0.655920349198
-0.83103845349,-0.687425218604,0.755920349198
-0.874198013628,-0.608120794879,0.755920349198
-0.763776555498,-0.712866787963,0.755920349198
-0.743674751583,-0.585130063371,0.755920349198
-0.691571885951,-0.703096269529,0.855920349198
-0.798030415111,-0.691583897755,0.755920349198
-0.747313948052,-0.675464642933,0.655920349198
-0.801263984728,-0.693648256581,0.655920349198
-0.82311280237,-0.707249247998,0.655920349198
-0.797207387622,-0.714880508124,0.655920349198
-0.895007930829,-0.704165014835,0.655920349198
-0.771419750288,-0.722760479798,0.755920349198
-0.833766970904,-0.669304563221,0.755920349198
-0.777954619531,-0.632362184744,0.655920349198
-0.83347326626,-0.619066876135,0.655920349198
-0.7861786076,-0.615413907161,0.755920349198
-0.795845855633,-0.669129429293,0.655920349198
-0.803659885197,-0.686841257218,0.655920349198
-0.785432838309,-0.63998071319,0.655920349198
-0.745176817247,-0.62815311608,0.755920349198
-0.779065500877,-0.697885859724,0.755920349198
-0.766671435783,-0.659308571498,0.755920349198
-0.814946801593,-0.69168594693,0.755920349198
-0.809198145703,-0.649366241563,0.755920349198
-0.833520437631,-0.72182899513,0.755920349198
-0.796844639801,-0.651009880541,0.855920349198
-0.698343583769,-0.704343677102,0.755920349198
-0.734324195737,-0.729093596064,0.755920349198
-0.846573237278,-0.722204414986,0.655920349198
-0.793440178154,-0.52945843417,0.755920349198
-0.756391094155,-0.673327938281,0.755920349198
-0.816689702557,-0.676208832937,0.755920349198
-0.778480372041,-0.776853422492,0.655920349198
-0.844118406474,-0.792736584257,0.655920349198
-0.759217497043,-0.651687000681,0.855920349198
-0.895126286923,-0.643135858589,0.755920349198
-0.823334009504,-0.61911241982,0.755920349198
-0.78445626629,-0.703015909745,0.755920349198
-0.774596161308,-0.625040109248,0.755920349198
-0.800129617909,-0.559876948308,0.655920349198
-0.775484112753,-0.649103066086,0.755920349198
-0.847709534639,-0.656404429386,0.755920349198
-0.68027469011,-0.791882994473,0.655920349198
-0.927778321107,-0.696444139858,0.655920349198
-0.841189806192,-0.708633960892,0.755920349198
-0.836362891664,-0.596948593706,0.755920349198
-0.765499901025,-0.703284109354,0.655920349198
-0.695053619131,-0.66847557142,0.755920349198
-0.75324748204,-0.670716128653,0.755920349198
-0.696467318903,-0.696221593426,0.755920349198
-0.787384877158,-0.63437684016,0.655920349198
-0.85393988854,-0.656875580849,0.755920349198
-0.774835289833,-0.604148040926,0.855920349198
-0.801667506147,-0.706514207615,0.755920349198
-0.88034363125,-0.611997826078,0.755920349198
-0.852087379337,-0.712901279918,0.655920349198
-0.795247831152,-0.645137078569,0.755920349198
-0.80006770911,-0.732636936076,0.755920349198
-0.781428998567,-0.678094691223,0.755920349198
-0.787040170091,-0.760338463093,0.755920349198
-0.776089638301,-0.827328679754,0.855920349198
-0.808804159538,-0.791179088266,0.655920349198
-0.827442262682,-0.612888380709,0.755920349198
-0.77035810675,-0.658465781015,0.755920349198
-0.813449837679,-0.671592833484,0.755920349198
-0.747002385416,-0.705303641871,0.655920349198
-0.799786037686,-0.776617340247,0.755920349198
-0.747582480031,-0.693995076612,0.755920349198
-0.892702409106,-0.704452648799,0.655920349198
-0.716946638065,-0.749133394476,0.755920349198
-0.766662603462,-0.657901175593,0.855920349198
-0.83891673818,-0.716251645437,0.755920349198
-0.815707064971,-0.720434760409,0.655920349198
-0.742839889883,-0.757929894615,0.655920349198
-0.82471554686,-0.643708381367,0.755920349198
-0.779165929871,-0.56196026655,0.755920349198
-0.958403071677,-0.594770294324,0.655920349198
-0.879041049948,-0.787426745422,0.655920349198
-0.821737731629,-0.693547469382,0.755920349198
-0.860472484514,-0.668278020594,0.655920349198
-0.790463919477,-0.677496179571,0.755920349198
-0.725129289035,-0.802231582588,0.655920349198
-0.774138576628,-0.715541428257,0.755920349198
-0.84104348503,-0.653486159811,0.655920349198
-0.730749651079,-0.658028306985,0.755920349198
-0.700909936589,-0.464171999592,0.855920349198
-0.7075719725,-0.680247472693,0.755920349198
-0.855854865745,-0.674104975833,0.655920349198
-0.767195990834,-0.745599584755,0.755920349198
-0.758022136953,-0.74064990775,0.655920349198
-0.797060446771,-0.678392643696,0.755920349198
-0.728911928595,-0.67734513406,0.755920349198
-0.818790917231,-0.669607599432,0.655920349198
-0.762434998575,-0.689501362474,0.755920349198
-0.770344528054,-0.592704609624,0.755920349198
-0.703214967237,-0.755492201535,0.755920349198
-0.799034733376,-0.728350895607,0.655920349198
-0.814895057838,-0.683507620228,0.755920349198
-0.741659829883,-0.695207465819,0.655920349198
-0.774934334073,-0.736583329599,0.655920349198
-0.710918295129,-0.699998132259,0.755920349198
-0.729632380861,-0.62400855484,0.755920349198
-0.771933483725,-0.645823146162,0.755920349198
-0.678432420494,-0.752107785576,0.755920349198
-0.804650531655,-0.660246961621,0.655920349198
-0.866642553596,-0.72579450396,0.655920349198
-0.810156106856,-0.631861524161,0.755920349198
-0.776540002731,-0.706621810198,0.655920349198
-0.859285320286,-0.590129505298,0.655920349198
-0.79881628245,-0.676680763629,0.755920349198
-0.794499649549,-0.617131307507,0.755920349198
-0.831703146354,-0.583733014759,0.755920349198
-0.767495756579,-0.68819153472,0.755920349198
-0.774212337505,-0.836470222284,0.655920349198
-0.720902047121,-0.682501736345,0.755920349198
-0.703398659611,-0.744289369563,0.655920349198
-0.778481933419,-0.759130422897,0.655920349198
-0.704314776745,-0.785201498548,0.655920349198
-0.911650474698,-0.739922535486,0.755920349198
-0.8315507599,-0.861164444763,0.655920349198
-0.885009027344,-0.702467714766,0.755920349198
-0.852032829804,-0.688010003426,0.755920349198
-0.908660400762,-0.718456012675,0.855920349198
-0.919987257948,-0.77692901139,0.755920349198
-0.747338362187,-0.764484231556,0.755920349198
-0.675396233049,-0.691366076342,0.755920349198
-0.716903960963,-0.749221474113,0.555920349198
-0.718295870732,-0.717879072953,0.855920349198
-0.820056518334,-0.758137160174,0.655920349198
-0.770508826578,-0.745320472586,0.755920349198
-0.812641594534,-0.705666086222,0.755920349198
-0.686247434154,-0.778103353777,0.655920349198
-0.853058755677,-0.588997776143,0.755920349198
-0.744878553171,-0.713987334105,0.755920349198
-0.800485087561,-0.707006982843,0.755920349198
-0.806474030214,-0.732953826078,0.755920349198
-0.749893000995,-0.705811677705,0.655920349198
-0.725593489971,-0.678281491606,0.755920349198
-0.819435351214,-0.625934574061,0.655920349198
-0.8046288416,-0.597043087517,0.755920349198
-0.791701911837,-0.68108676802,0.755920349198
-0.733599163884,-0.730943767938,0.655920349198
-0.863672310577,-0.701441737014,0.655920349198
-0.785401863359,-0.65420643722,0.755920349198
-0.785369766753,-0.728249980727,0.655920349198
-0.712821963981,-0.600832389657,0.755920349198
-0.761953773896,-0.637692344753,0.755920349198
-0.816120110686,-0.610526260882,0.755920349198
-0.834699680912,-0.752736078237,0.755920349198
-0.776765785588,-0.743065195556,0.655920349198
-0.761046687516,-0.743939385977,0.655920349198
-0.769879659825,-0.682582286839,0.755920349198
-0.821617358644,-0.714200071114,0.655920349198
-0.893671786238,-0.679841815706,0.655920349198
-0.782315884458,-0.754030023851,0.655920349198
-0.702518620445,-0.682925381346,0.755920349198
-0.854517562484,-0.636803063024,0.755920349198
-0.702509469613,-0.692679427319,0.755920349198
-0.688737827443,-0.682193739661,0.855920349198
-0.767512054933,-0.782747744248,0.755920349198
-0.760017235069,-0.624210304136,0.855920349198
-0.876596476804,-0.633856754851,0.655920349198
-0.725614994975,-0.674852432255,0.755920349198
-0.738024220166,-0.685389264039,0.655920349198
-0.826112417794,-0.725496182517,0.655920349198
-0.846814750195,-0.738353479696,0.655920349198
-0.821938391735,-0.758115394992,0.655920349198
-0.805628037525,-0.663335178533,0.655920349198
-0.773756641219,-0.65806419755,0.655920349198
-0.782828013156,-0.603664545915,0.755920349198
-0.729610833041,-0.686847399056,0.755920349198
-0.738933797853,-0.667047783059,0.555920349198
-0.744491887282,-0.640838043031,0.655920349198
-0.790350558062,-0.797176631839,0.655920349198
-0.78159959785,-0.751055263798,0.755920349198
-0.718749923943,-0.792156051977,0.755920349198
-0.723164365249,-0.730219246974,0.755920349198
-0.899853665667,-0.653668414765,0.655920349198
-0.83165515635,-0.635394567422,0.755920349198
-0.877581973132,-0.644259224847,0.655920349198
-0.859325122385,-0.544441108717,0.855920349198
-0.759565043237,-0.620979450188,0.755920349198
-0.816142756444,-0.654842685715,0.655920349198
-0.855565956575,-0.592484306633,0.755920349198
-0.832625766449,-0.681382011395,0.655920349198
-0.838206770688,-0.799921509834,0.655920349198
-0.901390673607,-0.775382144129,0.655920349198
-0.732938674371,-0.809036497035,0.755920349198
-0.77578648875,-0.647038663675,0.755920349198
-0.803857840191,-0.594614124637,0.755920349198
-0.827214992255,-0.594649257233,0.755920349198
-0.794828209073,-0.764043469311,0.755920349198
-0.8989481722,-0.733621850482,0.555920349198
-0.889673187061,-0.681196760878,0.755920349198
-0.774142183911,-0.662196800425,0.755920349198
-0.708699578811,-0.677387528151,0.855920349198
-0.666210897515,-0.672486851675,0.755920349198
-0.774409159726,-0.600028306166,0.755920349198
-0.788820234078,-0.569134294571,0.755920349198
-0.720393042531,-0.682009957375,0.655920349198
-0.790449714995,-0.649696642128,0.655920349198
-0.796588913338,-0.564873172183,0.755920349198
-0.643677488733,-0.670806823049,0.755920349198
-0.809952940803,-0.70671329517,0.755920349198
-0.843181806919,-0.716061544073,0.655920349198
-0.792801661011,-0.670236578429,0.755920349198
-0.772116975635,-0.653411357432,0.855920349198
-0.795067792071,-0.770643501109,0.655920349198
-0.843375419727,-0.678395884092,0.755920349198
-0.797793164917,-0.798351043773,0.755920349198
-0.867601134408,-0.74271355338,0.755920349198
-0.727801415127,-0.754492440835,0.755920349198
-0.864823057612,-0.696915110784,0.655920349198
-0.750655138331,-0.703540957464,0.855920349198
-0.801813261274,-0.668659894728,0.755920349198
-0.871221606852,-0.656038304306,0.655920349198
-0.784544996928,-0.641651862287,0.755920349198
-0.769308323991,-0.65428380575,0.755920349198
-0.829724459185,-0.687628785124,0.655920349198
-0.776778073295,-0.619174900206,0.755920349198
-0.84813321264,-0.650225002423,0.755920349198
-0.851812656957,-0.679812629938,0.655920349198
-0.809857822323,-0.64973184981,0.655920349198
-0.816397673057,-0.763301434161,0.755920349198
-0.821745716411,-0.568370227323,0.755920349198
-0.858647342301,-0.54837027315,0.755920349198
-0.709242817007,-0.674265402518,0.855920349198
-0.929660325384,-0.714185473379,0.655920349198
-0.821274441772,-0.694675911281,0.855920349198
-0.783547206853,-0.704073629189,0.655920349198
-0.793927562867,-0.657816129065,0.655920349198
-0.789396099574,-0.740474929078,0.755920349198
-0.929500453846,-0.700961871234,0.755920349198
-0.840858562229,-0.747098542516,0.755920349198
-0.761090415228,-0.830662151575,0.755920349198
-0.810488526251,-0.653003554968,0.755920349198
-0.788300095707,-0.651058747215,0.855920349198
-0.878430367125,-0.7902519898,0.755920349198
-0.840467853198,-0.75143753941,0.655920349198
-0.874124998975,-0.749998000381,0.655920349198
-0.838320758725,-0.653365260054,0.755920349198
-0.765257948044,-0.622786402333,0.755920349198
-0.792933774933,-0.661858541349,0.655920349198
-0.812178369177,-0.560626284267,0.755920349198
-0.738043640595,-0.660983891544,0.755920349198
-0.770170250384,-0.580528942797,0.755920349198
-0.757768969263,-0.730172861709,0.655920349198
-0.816999357959,-0.599711283945,0.855920349198
-0.767499947323,-0.629968182266,0.755920349198
-0.812967895015,-0.798771537221,0.755920349198
-0.751184753944,-0.622885507588,0.855920349198
-0.872678000357,-0.76488461866,0.655920349198
-0.746270007058,-0.703493549352,0.755920349198
-0.85669798688,-0.701726236561,0.855920349198
-0.843292025983,-0.664144568252,0.855920349198
-0.702001978382,-0.748830230167,0.755920349198
-0.807044733544,-0.740341381771,0.655920349198
-0.83995968547,-0.686372587456,0.855920349198
-0.802150113285,-0.699339801539,0.855920349198
-0.873977960941,-0.615887738272,0.755920349198
-0.866011752693,-0.80338362736,0.755920349198
-0.850598686708,-0.603105906761,0.755920349198
-0.837383872924,-0.620947395716,0.655920349198
-0.793573828526,-0.637918881456,0.755920349198
-0.726425741494,-0.754479418378,0.655920349198
-0.703896666514,-0.719553994977,0.755920349198
-0.889864671547,-0.737524869304,0.655920349198
-0.826097572298,-0.687100282813,0.755920349198
-0.921982906405,-0.592788673137,0.755920349198
-0.787106296772,-0.67779398615,0.655920349198
-0.762197481258,-0.731897195954,0.755920349198
-0.80414322031,-0.744301658464,0.755920349198
-0.900299564262,-0.727350373891,0.755920349198
-0.827861601497,-0.598192611566,0.755920349198
-0.811149000318,-0.671469277866,0.755920349198
-0.785897494848,-0.78189756444,0.655920349198
-0.821226615465,-0.701841528714,0.755920349198
-0.761853491657,-0.720406484935,0.855920349198
-0.779425014353,-0.701168506925,0.655920349198
-0.784170943907,-0.617926069646,0.755920349198
-0.835737170642,-0.698848975496,0.755920349198
-0.933306017128,-0.627203000293,0.755920349198
-0.787256780963,-0.732082612387,0.755920349198
-0.869603486664,-0.695369963487,0.855920349198
-0.858704949283,-0.716621342297,0.655920349198
-0.836614235557,-0.757485995569,0.655920349198
-0.77052107822,-0.672050342975,0.755920349198
-0.776027390955,-0.654799650034,0.855920349198
-0.84758725872,-0.7285501966,0.655920349198
-0.753835741711,-0.702151895969,0.755920349198
-0.760566611201,-0.801343228268,0.655920349198
-0.792337266919,-0.63363035237,0.755920349198
-0.854968400459,-0.582424795965,0.755920349198
-0.853105690275,-0.578062322859,0.855920349198
-0.815370867504,-0.673841807458,0.755920349198
-0.754447709098,-0.709889596367,0.755920349198
-0.795477370625,-0.710715591105,0.755920349198
-0.742889010966,-0.678678085026,0.555920349198
-0.788387277243,-0.630080782009,0.755920349198
-0.882375876242,-0.675535750858,0.555920349198
-0.79613827666,-0.711205700062,0.655920349198
-0.668911821228,-0.735766740259,0.755920349198
-0.789722612616,-0.756136421397,0.655920349198
-0.829609414185,-0.63873259791,0.755920349198
-0.790659040528,-0.784720402212,0.855920349198
-0.868221442132,-0.704524500683,0.755920349198
-0.736912698396,-0.818709984408,0.655920349198
-0.882325421526,-0.736588033259,0.655920349198
-0.797634978684,-0.74120311907,0.755920349198
-0.770891861331,-0.619681860454,0.755920349198
-0.669161015442,-0.732384231784,0.755920349198
-0.742000874884,-0.736075522608,0.755920349198
-0.847596041121,-0.665080231747,0.755920349198
-0.809497926198,-0.670280205994,0.755920349198
-0.865222023243,-0.665561954436,0.755920349198
-0.686858209784,-0.766241665989,0.755920349198
-0.660297668211,-0.715290212989,0.755920349198
-0.796670331456,-0.688795776805,0.655920349198
-0.89700867848,-0.647384844599,0.655920349198
-0.829185900013,-0.687109011505,0.655920349198
-0.744831475867,-0.683098761281,0.755920349198
-0.766141503128,-0.729520953749,0.755920349198
-0.738381267749,-0.759688273538,0.755920349198
-0.836811492823,-0.606262422694,0.655920349198
-0.887153503099,-0.710996619715,0.755920349198
-0.891625678809,-0.728853254682,0.655920349198
-0.776439876103,-0.627184193537,0.755920349198
-0.795338623269,-0.711746494246,0.655920349198
-0.789922554484,-0.810274585117,0.655920349198
-0.708035512162,-0.688055961236,0.755920349198
-0.803891887834,-0.677392556567,0.655920349198
-0.809943929386,-0.604591881752,0.755920349198
-0.818579107668,-0.664492633173,0.755920349198
-0.71548796261,-0.694299473643,0.755920349198
-0.769288874573,-0.672816530693,0.755920349198
-0.813287108347,-0.759985073935,0.755920349198
-0.843206037109,-0.689619136689,0.755920349198
-0.819239364614,-0.685722890345,0.655920349198
-0.744462612069,-0.719904352236,0.655920349198
-0.788778490862,-0.657531111134,0.655920349198
-0.816464774833,-0.666035664236,0.755920349198
-0.845354503638,-0.671222142432,0.755920349198
-0.821965374691,-0.70307870298,0.755920349198
-0.833232004054,-0.74151837825,0.655920349198
-0.708648927496,-0.671679263304,0.755920349198
-0.815703594385,-0.642962412989,0.755920349198
-0.793984973582,-0.664772289776,0.755920349198
-0.918432652997,-0.747601488952,0.655920349198
-0.813386122692,-0.732067524323,0.755920349198
-0.722654518333,-0.717633568756,0.755920349198
-0.853570790408,-0.733429139318,0.655920349198
-0.774843389636,-0.709026523751,0.755920349198
-0.832752299596,-0.742082683391,0.655920349198
-0.814486303446,-0.679628134079,0.755920349198
-0.848068377894,-0.616520555266,0.755920349198
-0.770574971928,-0.621832823956,0.755920349198
-0.762490229255,-0.629688666127,0.755920349198
-0.890037977398,-0.715752568092,0.755920349198
-0.84513033245,-0.658759728795,0.655920349198
-0.758236667345,-0.671110901011,0.755920349198
-0.785802582245,-0.731277385766,0.755920349198
-0.76350911821,-0.739866506319,0.755920349198
-0.786640581776,-0.712868584758,0.655920349198
-0.880601023646,-0.648676457591,0.855920349198
-0.815699213471,-0.720210911259,0.755920349198
-0.817597397015,-0.778649607463,0.755920349198
-0.729981784526,-0.834067219298,0.755920349198
-0.846073101718,-0.781104667172,0.655920349198
-0.742809069177,-0.74279840678,0.755920349198
-0.727393018617,-0.729540545117,0.855920349198
-0.865975699383,-0.78003670094,0.655920349198
-0.814288563453,-0.719060110794,0.655920349198
-0.806552870941,-0.695199128433,0.655920349198
-0.861947235715,-0.694492034541,0.655920349198
-0.75551518017,-0.735537330703,0.655920349198
-0.854434763786,-0.686626816329,0.655920349198
-0.811466601753,-0.712139099607,0.655920349198
-0.859720859194,-0.70157929484,0.855920349198
-0.76407401485,-0.757680190727,0.755920349198
-0.88581134469,-0.736627877681,0.755920349198
-0.829661736355,-0.698851417976,0.655920349198
-0.782318685125,-0.699522266171,0.755920349198
-0.764587606214,-0.610996264559,0.755920349198
-0.756504371961,-0.683596795658,0.855920349198
-0.78399230716,-0.756326331995,0.555920349198
-0.666603862005,-0.585760733063,0.655920349198
-0.740839588236,-0.661382884041,0.755920349198
-0.793374300723,-0.707917297201,0.655920349198
-0.862811972279,-0.663346492024,0.655920349198
-0.816584384261,-0.756647366474,0.655920349198
-0.748798730082,-0.752299445213,0.755920349198
-0.792488935918,-0.608954025907,0.755920349198
-0.713105590207,-0.764261099313,0.755920349198
-0.788623283187,-0.613931900807,0.755920349198
-0.752859313177,-0.782926330101,0.755920349198
-0.863606100081,-0.60647031874,0.855920349198
-0.758389072311,-0.6589294289,0.755920349198
-0.796994309624,-0.742027102477,0.655920349198
-0.79165592678,-0.763606098285,0.755920349198
-0.767789353962,-0.664098842032,0.755920349198
-0.817945220896,-0.62537066426,0.755920349198
-0.82058887991,-0.621595028182,0.755920349198
-0.779791338295,-0.696362096387,0.755920349198
-0.780883335049,-0.669209925101,0.755920349198
-0.718046681309,-0.675184423073,0.855920349198
-0.823310691066,-0.701274223253,0.655920349198
-0.703974576739,-0.636778005155,0.855920349198
-0.862408903885,-0.569967136369,0.755920349198
-0.794083944132,-0.693098954649,0.755920349198
-0.80060568243,-0.674349124846,0.855920349198
-0.84966608623,-0.676127201088,0.755920349198
-0.789823601011,-0.658651604244,0.755920349198
-0.870777778057,-0.591965907842,0.655920349198
-0.742308638632,-0.647544416934,0.655920349198
-0.770352688741,-0.737545157682,0.755920349198
-0.856569342107,-0.651343093895,0.755920349198
-0.757474417756,-0.689237395921,0.655920349198
-0.707216022593,-0.664829883334,0.855920349198
-0.804351132895,-0.80770994984,0.655920349198
-0.730165426881,-0.772566729558,0.755920349198
-0.816701942362,-0.637647029455,0.655920349198
-0.789160895817,-0.612283768495,0.755920349198
-0.804307009972,-0.681849229712,0.655920349198
-0.834131159332,-0.701168676479,0.755920349198
-0.787543152027,-0.648381682318,0.755920349198
-0.702106797756,-0.7309962175,0.755920349198
-0.751210354438,-0.746048253988,0.755920349198
-0.770573814247,-0.697658235424,0.655920349198
-0.681910513347,-0.766630419296,0.755920349198
-0.789996041276,-0.567379897128,0.855920349198
-0.836748561001,-0.721866805581,0.655920349198
-0.763782548398,-0.675984216732,0.655920349198
-0.846591368274,-0.63691265871,0.655920349198
-0.634985374434,-0.782531508553,0.755920349198
-0.799127682332,-0.608870601716,0.755920349198
-0.801746966689,-0.711363736949,0.755920349198
-0.849351791172,-0.674312648337,0.655920349198
-0.73706708718,-0.71496964763,0.655920349198
-0.856139400965,-0.649238992631,0.655920349198
-0.80967984487,-0.743397119311,0.655920349198
-0.823825655676,-0.715122232024,0.755920349198
-0.790711453861,-0.732171153272,0.755920349198
-0.834327933604,-0.74850635582,0.755920349198
-0.800414345818,-0.747145716109,0.755920349198
-0.708597601178,-0.760912118292,0.855920349198
-0.870578555131,-0.745209288757,0.655920349198
-0.799411467727,-0.675985045126,0.855920349198
-0.743895867135,-0.796801633696,0.855920349198
-0.835524289031,-0.613448911461,0.755920349198
-0.765714855684,-0.771411065775,0.655920349198
-0.662138883366,-0.65582513734,0.855920349198
-0.74571475111,-0.749832115201,0.655920349198
-0.84000679134,-0.589574300084,0.755920349198
-0.816594926936,-0.671286448165,0.855920349198
-0.759384411307,-0.726906665203,0.755920349198
-0.702158637025,-0.80750695818,0.655920349198
-0.772313293875,-0.722386225001,0.655920349198
-0.810632537926,-0.791253021751,0.755920349198
-0.851503271179,-0.638317880719,0.755920349198
-0.867449622663,-0.697452920014,0.755920349198
-0.888904146443,-0.619835760802,0.755920349198
-0.931963637886,-0.684727727521,0.655920349198
-0.829481904452,-0.789029648424,0.655920349198
-0.790910538162,-0.563523172684,0.755920349198
-0.835612686124,-0.768471034546,0.555920349198
-0.829716170595,-0.689327716559,0.655920349198
-0.729466448103,-0.68670559219,0.755920349198
-0.849222286216,-0.663539324114,0.655920349198
-0.79622915856,-0.684776917938,0.755920349198
-0.765208225261,-0.716695818443,0.655920349198
-0.680597528508,-0.667563627128,0.855920349198
-0.829232253191,-0.716007478125,0.755920349198
-0.735361547484,-0.571122192975,0.955920349198
-0.896097854804,-0.662888149439,0.755920349198
-0.729114633246,-0.770078755317,0.755920349198
-0.773546899857,-0.75786563995,0.655920349198
-0.722688450389,-0.635121488982,0.755920349198
-0.709314077174,-0.688753922594,0.755920349198
-0.792381142655,-0.701385305328,0.755920349198
-0.782622882609,-0.783475314729,0.655920349198
-0.777546207151,-0.611477597253,0.655920349198
-0.746124705493,-0.659732331544,0.655920349198
-0.75957821805,-0.709448880764,0.655920349198
-0.836692324403,-0.661793832754,0.755920349198
-0.807623655997,-0.677432718176,0.755920349198
-0.875198063418,-0.659351181733,0.655920349198
-0.780806814529,-0.684567401666,0.755920349198
-0.758326440842,-0.786496938559,0.755920349198
-0.831799997134,-0.755434581342,0.655920349198
-0.745581847088,-0.753857215563,0.755920349198
-0.798512134141,-0.724113026684,0.755920349198
-0.811791246516,-0.613004027835,0.755920349198
-0.739337171362,-0.67147454276,0.755920349198
-0.790068679495,-0.698660724546,0.755920349198
-0.793655693867,-0.686363448498,0.755920349198
-0.855349632701,-0.626919616361,0.755920349198
-0.783013093513,-0.729179337014,0.755920349198
-0.788286144229,-0.678557128008,0.755920349198
-0.798650940729,-0.599437525454,0.755920349198
-0.771914252361,-0.735006834896,0.755920349198
-0.735639318784,-0.670342120317,0.755920349198
-0.740577092189,-0.68567964099,0.755920349198
-0.733617769631,-0.629108310693,0.755920349198
-0.785592327193,-0.597613415764,0.755920349198
-0.767195030147,-0.753562161586,0.655920349198
-0.772938935093,-0.752718034955,0.555920349198
-0.854377717703,-0.626751225533,0.755920349198
-0.635191520669,-0.615166208684,0.755920349198
-0.670979400872,-0.623370972946,0.755920349198
-0.697187656589,-0.592648288038,0.855920349198
-0.797908067558,-0.666083258824,0.755920349198
-0.86303498714,-0.638818519334,0.655920349198
-0.774109228307,-0.720195699847,0.755920349198
-0.663187420583,-0.694766073685,0.855920349198
-0.771531873699,-0.63392395693,0.855920349198
-0.848576010227,-0.712023993377,0.755920349198
-0.864493158631,-0.683622577923,0.755920349198
-0.850779841053,-0.626823258758,0.755920349198
-0.811163792045,-0.827698386769,0.755920349198
-0.822534048306,-0.527355794597,0.655920349198
-0.807356107172,-0.724222300845,0.655920349198
-0.770433778092,-0.701907905311,0.755920349198
-0.790355817254,-0.650581336249,0.755920349198
-0.765487590258,-0.645508201019,0.755920349198
-0.785783912698,-0.684518093969,0.655920349198
-0.744414216931,-0.708008916521,0.755920349198
-0.788183753813,-0.659772043163,0.755920349198
-0.836525679328,-0.721681753922,0.655920349198
